    -3.78917716e-03  -4.99207387e-03  -3.61275300e-02  -4.70390841e-02  -5.94849661e-02  -1.59728881e-02   5.37561066e-03      -1.41809126e-02  -1.60122756e-02  -3.07018440e-02  -1.20969042e-02   7.58229196e-03   3.82632799e-02   1.58716869e-02      -2.23278748e-05  -1.97296143e-02  -3.96863855e-02   2.52046771e-02   6.88867420e-02   4.97442670e-02   1.15398476e-02       6.01958251e-03   2.66291834e-02   6.28546998e-02   1.18117467e-01   1.61371641e-02  -3.25145870e-02  -2.68651289e-03       3.07625327e-02   3.11834868e-02  -6.94037527e-02  -1.35858729e-01  -1.71288282e-01  -5.18188849e-02   9.80505254e-04       6.05410384e-03  -6.86139017e-02  -1.07828714e-01  -8.44230410e-03   8.37313384e-02   8.59461948e-02   1.52865592e-02       4.16628830e-02   3.52777652e-02   7.69164190e-02   1.04499675e-01   5.82087450e-02   2.31055059e-02  -7.05284486e-03         1.46688549e-02   2.92348582e-02  -4.38258285e-03  -3.21786478e-02  -3.69569175e-02  -8.92148446e-03   2.49431282e-02       1.10204425e-02   5.40752411e-02   2.03681495e-02   4.85670269e-02   7.59823769e-02   6.41003326e-02   2.65508126e-02       6.43105879e-02   1.03185140e-01   6.73208609e-02   1.19019933e-01   1.22356907e-01   5.07032946e-02   1.49684530e-02       7.23934993e-02   1.31625578e-01   1.15315750e-01   8.19007531e-02  -9.03275162e-02  -1.46160096e-01  -5.71853444e-02       3.79712619e-02  -1.60485972e-02  -2.34426960e-01  -3.95437688e-01  -4.15177524e-01  -1.64312899e-01   3.77954508e-04      -4.80100960e-02  -2.04179049e-01  -3.06303978e-01  -1.42260209e-01   6.45443574e-02   1.56786650e-01   8.34952667e-02       2.92896759e-02   2.99746655e-02   1.03081420e-01   1.74343437e-01   1.31487995e-01   8.05828348e-02   9.28471424e-03         1.28373317e-02   4.20936309e-02   3.05075608e-02   2.20676512e-03  -1.84194725e-02  -7.28473067e-03   1.33053586e-02       2.55122297e-02   7.54230991e-02   6.37343749e-02   7.74807259e-02   8.34496394e-02   7.52922148e-02   1.95131358e-02       6.10796101e-02   1.23575263e-01   1.15696117e-01   1.40721679e-01   1.11790776e-01   4.44415249e-02   2.62147794e-03       6.60368949e-02   1.38731375e-01   1.34791985e-01   5.84999584e-02  -1.24482833e-01  -1.56565264e-01  -7.09397420e-02       4.53867130e-02   6.61453465e-03  -2.29495436e-01  -4.07949448e-01  -4.25340533e-01  -1.72273085e-01  -8.67635245e-04      -4.98689264e-02  -1.90948725e-01  -3.14874947e-01  -1.49139866e-01   3.95218097e-02   1.40382811e-01   8.01540390e-02       2.44792122e-02   2.54036039e-02   7.58576244e-02   1.56119347e-01   1.35713771e-01   1.14611097e-01   4.30934615e-02          0.00558108  0.08605195  0.13176538  0.09332903  0.09271004  0.05329582 -0.014755       -0.05282523 -0.04826126 -0.04976261 -0.08878335 -0.05254907 -0.03446353 -0.04197273     -0.02129334 -0.11979154 -0.17784663 -0.16603082 -0.09651601 -0.02543456  0.00154148      0.01343226 -0.02280753 -0.04421192 -0.04347468 -0.00265316 -0.01102567 -0.0146626       0.0032587   0.09352049  0.16370694  0.13215357  0.08383867  0.0179931 -0.00199269      0.04859193  0.14369905  0.22215874  0.14535682  0.08909187  0.04520081    0.02013245     -0.01723752 -0.09964436 -0.18069971 -0.2022706  -0.0687409  -0.01399308    0.00963795       -0.00506464  0.10029189  0.15042613  0.08651818  0.08741929  0.05171586   -0.01225319     -0.09770961 -0.10309171 -0.13333397 -0.18514538 -0.13334355 -0.06365335   -0.04478149     -0.05072214 -0.19398484 -0.30182293 -0.29155189 -0.1647236  -0.01689681    0.00722362      0.01912061 -0.0024819  -0.04491928 -0.03283812  0.04776531  0.01614002   -0.03053374      0.04596736  0.21201704  0.34789515  0.30866194  0.22593755  0.09365287    0.01043866      0.07922944  0.23679434  0.3421534   0.2271836   0.13649416  0.09531318    0.03190707     -0.03770629 -0.15154281 -0.31036094 -0.35749075 -0.16278031 -0.03838289   -0.00407558       -0.02310918  0.0606848   0.10615809  0.04877284  0.07030734  0.04680986   -0.00278501     -0.10058081 -0.10572615 -0.12758085 -0.17797421 -0.11913057 -0.0510865   -0.04636623     -0.03039794 -0.1387451  -0.23061638 -0.22160989 -0.11093383 -0.00724631  -0.0039404       0.04159081  0.02291429  0.00852068  0.01315633  0.07524013  0.03202336   -0.02582793      0.062551    0.18616509  0.28737646  0.26729742  0.20872313  0.10522723    0.00757416      0.07129414  0.20829283  0.2840347   0.20929863  0.11988263  0.06932182    0.02497357     -0.05794332 -0.14476441 -0.27102122 -0.3175095  -0.15897892 -0.09181307   -0.03484333           1.19403296e-03  -1.34733059e-02  -1.76630623e-03   3.77439195e-04    -2.24287324e-02   4.01286632e-02   3.62646654e-02       6.61328202e-03  -1.29296547e-02  -5.30427042e-03  -1.65359173e-02    -4.18260470e-02  -1.06239440e-02   1.36353262e-02       4.26875539e-02  -5.27747795e-02   6.18566573e-02   1.14999719e-01    -3.65798287e-02  -4.10675257e-02   9.32332966e-03       5.05221747e-02  -1.29048944e-01  -1.39141709e-01   1.27967775e-01     1.07222550e-01  -2.30399389e-02   7.11849146e-03       7.05177337e-02   5.47908060e-02  -2.26201549e-01  -1.30078450e-01     3.34925167e-02   8.17861874e-03   1.88226625e-02       9.85896308e-03   1.38629347e-01   3.13693173e-02  -8.73435363e-02    -1.11231422e-02  -2.01232210e-02   4.91286628e-04      -2.90559772e-02   1.75055396e-02   6.08462468e-02   1.66430417e-02    -1.27460770e-02   3.08100553e-03   8.45749769e-03        -4.90314839e-03  -7.58664776e-03   6.12418838e-02   7.61977285e-02    -8.76590516e-03   7.43868575e-03   1.22105703e-03      -3.43790241e-02  -6.94669187e-02   7.07584172e-02   1.18884213e-01    -1.64142847e-02  -1.51878884e-02  -2.76136701e-03      -2.00018883e-02  -2.25453019e-01   4.50693741e-02   3.29712719e-01     8.55370015e-02  -1.57430843e-02   3.18143051e-03       5.49240671e-02  -3.44382107e-01  -4.18342769e-01   1.93045005e-01     3.16661119e-01   9.37326625e-02   5.03035337e-02       1.89072654e-01   2.85339542e-02  -5.75938404e-01  -3.48549396e-01     8.59632790e-02   6.67429939e-02   4.97544967e-02       1.25898600e-01   3.03574055e-01  -4.81280684e-02  -2.95025378e-01    -7.49702752e-02  -1.89499501e-02   7.02170609e-03      -1.41370241e-02   1.23529539e-01   1.41276762e-01  -3.00152637e-02    -3.61547284e-02  -6.49252208e-03   1.13958688e-02        -1.74988396e-02   6.30389992e-03   6.82825297e-02   2.89650783e-02    -4.74214070e-02  -1.86803192e-02  -4.55636624e-03      -4.29912023e-02  -2.54195575e-02   1.04692012e-01   8.38430896e-02    -6.52981177e-02  -5.86436763e-02  -3.60191464e-02      -5.75327314e-03  -1.65309146e-01   8.50623399e-02   3.01372886e-01     4.04102579e-02  -6.78549632e-02  -3.16569470e-02       7.06649274e-02  -2.74477631e-01  -2.94631600e-01   2.42403373e-01     2.71696478e-01   6.07485101e-02   3.64868715e-02       1.53192386e-01   3.30991223e-02  -4.81044561e-01  -2.56240636e-01     1.05346195e-01   8.72469619e-02   5.09911925e-02       6.57275096e-02   2.77849138e-01  -4.30692770e-02  -2.45932952e-01    -6.28311113e-02  -1.71802826e-02  -4.04104264e-03      -5.81799522e-02   9.10310075e-02   1.17563985e-01  -2.22557634e-02    -4.24528681e-02  -1.19020129e-02  -1.39441015e-02          -8.56863558e-02  -4.69861962e-02  -3.40933427e-02  -3.23998965e-02    -5.56120723e-02   1.03652030e-02   6.77352548e-02      -4.55230474e-02   7.90230855e-02   1.06629379e-01   7.35223368e-02     6.69246446e-03   3.72369098e-03  -9.58701409e-03       6.53050989e-02   1.56123251e-01   1.46981895e-01   1.48316175e-01     8.49419385e-02   2.34565120e-02  -4.53320183e-02       1.05299383e-01   1.45720541e-01   1.82713374e-01   1.63042054e-01     1.26665428e-01   1.87189672e-02  -6.37993664e-02       1.12122230e-01   1.88181832e-01   2.09964141e-01   1.60640657e-01     1.47152707e-01   1.16443513e-02  -4.35083173e-02       1.05247185e-01   1.39945835e-01   1.61293924e-01   1.21793576e-01     1.11072414e-01  -3.81181901e-03  -4.73216549e-02       5.60431294e-02   9.68140662e-02   1.05755106e-01   6.38768449e-02     6.21265844e-02  -1.04560461e-02  -7.63131678e-02        -2.69754007e-02  -1.09491162e-02   3.42233409e-03   4.86670155e-03    -6.97766989e-02  -1.12605393e-02   3.13481800e-02      -3.60765937e-03   8.07915777e-02   7.16501847e-02   5.67428581e-02    -1.60950627e-02  -5.05353743e-03  -1.80355925e-02       8.87093544e-02   6.77665398e-02  -1.62550956e-02   2.13204008e-02     3.29454429e-02   3.14589627e-02  -3.15718539e-02       6.62075207e-02  -4.34652306e-02  -7.96559453e-02  -5.71356751e-02     1.49707934e-02   3.37784514e-02   2.87304353e-03       9.39252879e-03  -3.99531573e-02  -7.09547624e-02  -8.10142457e-02     1.18441228e-02   1.89004466e-02   5.70545755e-02       1.30528212e-02  -5.75484484e-02  -6.69791475e-02  -7.26901442e-02     7.93904159e-03   1.54367620e-02   6.51482567e-02       5.00000082e-02  -1.70819147e-03  -2.12863255e-02  -2.68998481e-02     2.35051382e-02   3.82697582e-02   2.96550598e-02         3.21108215e-02   3.69251147e-02   3.95838432e-02   6.55911043e-02    -2.76788436e-02  -6.29276689e-03   1.79858804e-02      -1.62251946e-02  -2.70280405e-03  -1.96210034e-02   2.01816652e-02    -2.27879304e-02   3.80280870e-03   9.21765622e-03      -2.68077092e-05  -7.72396475e-02  -1.54809117e-01  -9.39755291e-02    -3.95316370e-02   1.39228255e-03   4.39152122e-03      -5.47459759e-02  -2.01272607e-01  -2.22091421e-01  -2.04401538e-01    -1.13855749e-01  -2.12290958e-02   2.82107815e-02      -1.24511681e-01  -1.99567854e-01  -2.27554649e-01  -2.34565616e-01    -1.51548222e-01  -6.50170594e-02   6.88789487e-02      -9.81581509e-02  -1.88923821e-01  -1.91489294e-01  -1.97477236e-01    -1.30688429e-01  -5.02139740e-02   7.77599588e-02      -2.82587055e-02  -8.26333240e-02  -1.07429199e-01  -9.39034224e-02    -5.48408814e-02  -1.69636915e-03   6.41371757e-02          0.01547945  0.0747118   0.12495133  0.09731711  0.02479834  0.01866718    0.01055023      0.03939181  0.13193713  0.15963128  0.07826543  0.00407934  0.00262589   -0.01127233      0.09168731  0.17222178  0.09604149 -0.03289519 -0.10220869 -0.09194254   -0.0425099       0.04293711  0.00910244 -0.12925805 -0.18933076 -0.13997199 -0.04463198   -0.01025822     -0.02491415 -0.16498666 -0.25703743 -0.22876915 -0.11969728  0.02835763   -0.00139029     -0.02413933 -0.15379539 -0.15123503 -0.02895012  0.07879868  0.09407807    0.01922086      0.04444313  0.03288675  0.0826065   0.1412936   0.11594757  0.08617946    0.00901981        0.2246339   0.17922577  0.11247301  0.06816555  0.03035623  0.01407885    0.03901451      0.19102599  0.13353574  0.0560319   0.00617997 -0.01913326 -0.00259879    0.03494367      0.11972113  0.03045318 -0.07787852 -0.12619577 -0.11100625 -0.05934088    0.00675958     -0.04096259 -0.153991   -0.23734289 -0.22027004 -0.11716351 -0.02797079    0.03886008     -0.12630637 -0.25332287 -0.30879489 -0.25575903 -0.13234533 -0.00269075    0.03364192     -0.1356408  -0.27200907 -0.27290007 -0.13295016 -0.00315662  0.07107995    0.09049064     -0.04291243 -0.09497487 -0.06659016  0.0350684   0.10478016  0.13935965    0.12327858       -0.2217468  -0.24135813 -0.2116327  -0.12332153 -0.04772688 -0.05591493   -0.07552756     -0.2074791  -0.27806005 -0.21562582 -0.06588993  0.02698655  0.03152024   -0.0011646      -0.19920862 -0.20767947 -0.06649558  0.11446685  0.18773089  0.09211206    0.01830693     -0.06815231  0.09518143  0.33352828  0.41910863  0.31128645  0.09873322    0.00665749      0.16280636  0.45827189  0.63075477  0.46590436  0.18037157 -0.0165999   -0.07085123      0.17142691  0.36725685  0.4170545   0.18335462 -0.07595563 -0.13916399   -0.11393334     -0.0074018   0.05602373  0.03065873 -0.1580738  -0.23084705 -0.19580767   -0.15389478          0.00177544 -0.07571415 -0.12934625 -0.13647361 -0.05530845  0.03684575    0.08049322      0.0335191  -0.03070469 -0.10218249 -0.08529103 -0.03114123  0.03794118    0.05833845      0.03743171  0.03123218 -0.04024835 -0.02161486  0.02954474  0.03275497    0.02700057      0.00405636  0.00672854  0.04717684  0.0123255  -0.00603449  0.00275922   -0.00503328      0.01423601  0.0131933   0.05096447  0.01973504 -0.00935577 -0.02084882   -0.03777782     -0.04137057  0.02110296  0.04405054  0.1077744   0.04246999 -0.04743704   -0.04709376     -0.07323169  0.0074735   0.13005142  0.13378625  0.03627159 -0.03321302   -0.03013466        0.0054268  -0.0840784  -0.15751868 -0.16606639 -0.05758581  0.04948587    0.09952287      0.04131113 -0.04094331 -0.13136289 -0.11924691 -0.04207528  0.04650969    0.07455043      0.03695859  0.03237953 -0.06008751 -0.03219616  0.02411245  0.03439742    0.03135912     -0.01169275  0.00363579  0.03171102  0.01865259  0.00647509  0.00607699   -0.00276779      0.00602095  0.024752    0.04819022  0.01884488  0.01243546 -0.01532255   -0.03367723     -0.03469847  0.04892748  0.06366646  0.11822554  0.05497961 -0.05878185   -0.05989437     -0.09789103  0.01380535  0.14627665  0.14444852  0.02130463 -0.05581592   -0.05176006       -0.05475306 -0.10735255 -0.13774531 -0.14214461 -0.06320553  0.02502213    0.07081197     -0.00194993 -0.04213871 -0.09696764 -0.08550265 -0.03202463  0.04213136    0.06722233      0.02525233  0.02485569 -0.05198621 -0.0410521   0.02210828  0.04048567    0.02583747     -0.00873859  0.0130204   0.0241114   0.00199575  0.00974459  0.00850971   -0.00594418      0.0282055   0.04620335  0.0520584   0.02329764  0.01153649 -0.0021564   -0.04533673      0.00227935  0.09706238  0.08474042  0.12285258  0.04883384 -0.04491493   -0.08940709     -0.07156865  0.06725113  0.16546819  0.14204149  0.00700374 -0.0723069   -0.09340671          0.01364558  0.02106406 -0.06208355 -0.03058908  0.04816965  0.03666818    0.01338876      0.03074028  0.01296453 -0.02637606 -0.03440272 -0.00670715  0.01173642   -0.00679713      0.00865003  0.04598837  0.03631467 -0.0140947  -0.02208131 -0.02515691   -0.04473278     -0.11869148  0.1505443   0.09759404 -0.00064494 -0.05687535 -0.03968558   -0.06292482     -0.17636664  0.17885788  0.16695836  0.03555696 -0.07639307 -0.04960222   -0.03628929     -0.14018847  0.1145843   0.16180606  0.01385287 -0.0734186  -0.03725816   -0.03897788     -0.02787268  0.025847    0.0701826   0.0290976  -0.04490677 -0.02538226   -0.01795488        0.00704829  0.00302884 -0.06855298 -0.02728365  0.02882444  0.02409651    0.00474147      0.04315203  0.01777075 -0.01588421 -0.00762393  0.00108083  0.00045187   -0.02760583      0.01086991  0.05479557  0.07230855  0.02875752 -0.00925378 -0.04640848   -0.10485166     -0.15256388  0.16942555  0.14957844  0.04131944 -0.05020551 -0.06743354   -0.13061652     -0.22532967  0.21477351  0.23849571  0.06365155 -0.07030255 -0.06590946   -0.10590968     -0.18533133  0.1206226   0.24563782  0.06339506 -0.07367013 -0.06201356   -0.09858551     -0.06885994  0.01289312  0.11219535  0.05820882 -0.0357138  -0.04876746   -0.06559411       -0.00275201 -0.01279335 -0.05815081 -0.00528731  0.04487119  0.01724859   -0.02086136      0.01643014 -0.01247326 -0.0358478  -0.00681273  0.02888281  0.0393367   -0.00990129     -0.02728876  0.00505579  0.0197602   0.02114718  0.02126762  0.02122328   -0.03771501     -0.18716006  0.08970445  0.080158    0.02155695 -0.00499628  0.01166725   -0.04867877     -0.26590985  0.1239141   0.1502808   0.04652576 -0.03526426  0.00123962   -0.04027089     -0.21504624  0.07015213  0.18645492  0.06253825 -0.04238252 -0.0025256   -0.0390397      -0.09164619 -0.01836695  0.08556448  0.05664831 -0.01162337  0.02086865   -0.00920151         -0.02822355  0.02536756  0.00603908 -0.00799257 -0.00518808 -0.01521229   -0.04003027     -0.00817782  0.05550486 -0.02177647 -0.03325853 -0.00218326  0.01077204   -0.03365169      0.02962736  0.05399023 -0.09021205 -0.06577159 -0.01029602  0.03750465    0.00069899      0.09698776  0.08379173 -0.08042092 -0.07943969  0.02408079  0.0606483    0.04213623      0.0831335   0.07194076 -0.10745512 -0.12356371  0.01983624  0.07149164    0.03422689      0.07672632  0.06896978 -0.13441458 -0.1675667   0.01034335  0.04126274    0.0083758       0.0966643   0.07914814 -0.06533097 -0.08306324  0.01006107  0.02251455   -0.00039539       -0.01376111  0.02259997 -0.03388155 -0.02841343  0.02136583  0.01923721   -0.02542477      0.01566002  0.04161358 -0.07503691 -0.06476603  0.00732922  0.06028325    0.00091469      0.06542697  0.05173354 -0.17366673 -0.11794699  0.02133461  0.09197282    0.02512605      0.14492351  0.08391581 -0.18853457 -0.12892245  0.06529918  0.11187094    0.04197493      0.12449645  0.04828354 -0.24153486 -0.18824895  0.07399724  0.11926667    0.03423443      0.1080044   0.02862966 -0.23301335 -0.22221257  0.06636706  0.09579337    0.01375891      0.10514273  0.05445253 -0.14300738 -0.12696125  0.04109296  0.06417511    0.02510759       -0.02049522  0.01390523 -0.02044714 -0.01129867  0.04342765  0.04915436    0.01018282     -0.00511995  0.01186348 -0.09220595 -0.04467005  0.02584046  0.08973216    0.01955634      0.01969838  0.0057178  -0.18765277 -0.11079695  0.02324571  0.11981729    0.02943472      0.09785695  0.03844143 -0.21343566 -0.11536623  0.07411643  0.13760592    0.04323746      0.08896897  0.0106459  -0.24015878 -0.16349554  0.09040736  0.14335619    0.05169403      0.0816167  -0.00337575 -0.21531482 -0.1723755   0.09267087  0.12679118    0.03809416      0.10215001  0.02039927 -0.15171048 -0.10789395  0.07017718  0.10612836    0.05747337         -0.01105412  0.00438609 -0.03262788  0.02682603  0.00632141 -0.01664511    0.01744021      0.00274733  0.05301273 -0.08915599  0.07330944  0.0193202  -0.02171494    0.01541834     -0.04174018  0.12375567 -0.20371231  0.10136356  0.05331481 -0.05729151    0.01479846     -0.04851588  0.19760861 -0.2970776   0.15639509  0.05669572 -0.10469763    0.01453241     -0.06665298  0.21667743 -0.29592687  0.15727277  0.05958134 -0.08576892    0.0270978      -0.05940878  0.14846472 -0.13935556  0.09953418  0.05535386 -0.05255048    0.01656632     -0.04289989  0.05101721 -0.05308471  0.03029412  0.0229692  -0.03476699    0.0153896        -0.00306429  0.00430932 -0.05445018  0.0065722   0.02307181 -0.02195808    0.02293207      0.02354672  0.08507214 -0.17953154  0.082645    0.08947253 -0.02216023    0.01132667      0.00359567  0.20562437 -0.42582214  0.14068353  0.17854476 -0.08168187   -0.00605617     -0.01691603  0.33503217 -0.64257389  0.1902612   0.22172675 -0.13986103   -0.00365273     -0.03191183  0.35651025 -0.62218571  0.16887601  0.23135063 -0.14316612    0.03708444     -0.03433379  0.23923241 -0.33586702  0.06807254  0.16287544 -0.07190722    0.02743908     -0.02617566  0.08055943 -0.11645088 -0.00710745  0.05999327 -0.04173263    0.00141867        0.0110231   0.02125747 -0.06896884  0.02842685  0.03097515 -0.00532715    0.01132493      0.023875    0.08744944 -0.18025275  0.06745293  0.07877869 -0.02054221   -0.00830817     -0.0106164   0.19738385 -0.36856925  0.08470811  0.14067027 -0.07225515   -0.02821742     -0.02610251  0.30080834 -0.53554696  0.12525815  0.17586565 -0.10900028   -0.02632081     -0.02989641  0.32214439 -0.52022058  0.11713778  0.19447242 -0.10508922    0.0126677      -0.02310712  0.24936511 -0.27535418  0.04037017  0.15320434 -0.05890983    0.00090696     -0.02850269  0.09601074 -0.12081397 -0.02643575  0.06105167 -0.01769604   -0.01234965         -0.00182277 -0.01030403 -0.03673574 -0.04384854 -0.02520363 -0.01243549    0.00236639      0.01051698  0.03036213 -0.06393395 -0.05058964  0.01845777  0.01602711    0.00540856      0.01638987 -0.06163288 -0.17269862  0.12058842  0.05616219  0.01140903    0.00816878     -0.04943282 -0.21021634  0.13816215  0.33281234 -0.06890425  0.00432362   -0.01226075     -0.07392997 -0.00435358  0.33613208  0.01433434 -0.13769111  0.01488814   -0.02415207      0.00501803  0.08816271  0.10642239 -0.17496416 -0.00664206  0.02736948   -0.02651         0.00771932  0.02476473 -0.01616455 -0.08765251  0.01041577 -0.01000107   -0.00151018        0.01798717  0.0037255  -0.00832624 -0.02946466  0.02377832 -0.00153482    0.02801732      0.00730659  0.03955499 -0.13004881 -0.05400024  0.07285845 -0.00367961    0.02360665      0.02764057 -0.12660626 -0.26602063  0.22627079  0.0882     -0.0249416    0.00552308     -0.08373009 -0.33411089  0.21004206  0.49538344 -0.18633278 -0.03513691   -0.00787502     -0.10579468 -0.00178693  0.4797532  -0.03701693 -0.27772129  0.01462917   -0.0139434       0.01536531  0.12127212  0.13408373 -0.32902989 -0.0382042   0.06063594    0.01228444      0.02475491  0.03702361 -0.05643445 -0.15473409  0.05077835  0.03964321    0.0324555        -0.01182602  0.00792156  0.04225321  0.01762902  0.03192538 -0.01221005    0.0057284       0.01796161  0.076105   -0.03918825 -0.02449978  0.04297242 -0.03190709   -0.00366729      0.0529169  -0.00630858 -0.20490693  0.14078173  0.03773764 -0.04570052   -0.00569405     -0.0125594  -0.22577424  0.1113967   0.32101688 -0.1889697  -0.01732328   -0.00133755     -0.07277195 -0.00477805  0.33914661 -0.06051654 -0.22107093  0.035612   -0.01765425      0.02563183  0.11056133  0.09114968 -0.254015   -0.02137648  0.04247037   -0.01890405      0.05477254  0.03362603 -0.04617323 -0.1251104   0.04465853  0.00389331   -0.00419162          -9.69877187e-03  -2.45399829e-02  -5.55954268e-03  -2.93189543e-03     1.12046348e-02   7.87066389e-03  -6.47271285e-03      -8.38410668e-03  -1.19974269e-02   1.35341743e-02  -1.48274302e-02    -1.66561702e-04   1.87939350e-02  -5.06536989e-03      -4.38102055e-04   8.61492380e-02  -1.90293655e-01   1.83202565e-01    -7.98348337e-02   9.14640352e-03  -7.70347798e-03      -9.39142331e-02   2.63236225e-01  -3.18233281e-01   2.30947182e-01    -8.51330757e-02  -8.61766469e-03   1.71954383e-03       2.18361337e-03  -9.66656283e-02   2.87036031e-01  -1.77013814e-01     1.81948245e-02  -1.50681864e-02   7.68551650e-03       3.04442160e-02  -1.54724374e-01   3.05903971e-01  -2.48534426e-01     7.24268109e-02  -3.12964916e-02   2.85971947e-02      -2.48484593e-03  -2.13280972e-02   2.52699684e-02  -4.16458324e-02     1.71792712e-02  -1.44862710e-02   1.96464993e-02        -6.24127127e-03  -1.88903771e-02   1.58444103e-02   2.82891165e-03     1.09756496e-02   2.92742443e-05  -6.51726825e-03      -8.65143444e-03  -2.99526379e-02   2.47134138e-02   1.16078733e-02    -9.00038343e-04  -7.19411764e-03  -4.31543740e-04       5.75356111e-02   8.03854540e-02  -3.90373141e-01   3.27285677e-01    -6.83403239e-02  -1.02652796e-03  -1.53543735e-02      -4.23787981e-02   3.70359123e-01  -6.35021031e-01   3.24718773e-01    -3.38297077e-02  -6.55681966e-03   2.39418761e-04       1.28912050e-02  -1.23441234e-01   3.08029711e-01  -3.04588586e-01     7.90246278e-02   1.67678334e-02   3.06669045e-02       1.78724695e-02  -2.41926268e-01   4.67349797e-01  -3.93632710e-01     1.03927694e-01  -3.95331357e-04   2.94212978e-02      -1.25281466e-02  -2.47812159e-02   7.94336647e-02  -1.04581721e-01     1.24447886e-02   4.16290574e-03   2.54023094e-02        -7.39849638e-03   4.72308835e-04   3.30078229e-02   1.13103143e-03    -5.11269271e-03  -2.04131752e-03  -1.02514084e-02      -1.72965825e-02  -2.48056185e-02   4.82316948e-02  -3.63865751e-03    -2.85401084e-02   8.87261983e-03   2.29547489e-02       2.91617140e-02   7.67157972e-02  -2.72084624e-01   2.37347946e-01    -1.04038566e-01   2.94781011e-03   2.53146980e-02      -5.15029430e-02   3.10894519e-01  -5.14420629e-01   2.74313778e-01    -4.20889109e-02  -1.82572764e-03  -3.13864532e-03       4.82168831e-02  -1.31595656e-01   2.11841837e-01  -2.13667274e-01     1.12755023e-01  -6.73898822e-03  -8.69422965e-03       4.71705012e-02  -2.36082286e-01   3.69394481e-01  -2.92322010e-01     1.32909566e-01  -1.98364034e-02   6.08019717e-03      -1.39547391e-02  -3.23941782e-02   8.31250250e-02  -3.68127525e-02     1.38980178e-02  -2.86875535e-02   4.85561509e-03           1.88008510e-02   9.95065086e-03  -1.51932053e-02  -3.50766033e-02    -4.30170959e-03   3.98759544e-03   3.78428400e-03       1.13215689e-02  -4.05014399e-03   2.45398879e-02  -1.32838544e-02    -7.79570639e-02   2.59462986e-02   3.38595547e-02       6.69368682e-03   2.29608193e-02  -3.85975949e-02   1.30735174e-01    -1.34925559e-01   4.49679494e-02  -4.37530223e-03      -4.65347581e-02  -1.24849770e-02   1.40395403e-01  -3.48124415e-01     5.08793235e-01  -2.14329988e-01  -2.81898063e-02      -1.30686350e-02  -7.86710978e-02   1.12151355e-01  -2.28765737e-02    -2.68376041e-02   5.23160510e-02  -5.65278251e-03      -2.62297131e-02  -6.11457857e-04  -1.11014806e-01   3.44902247e-01    -2.95234859e-01   8.13996866e-02   1.84833501e-02       1.19536594e-02   2.01651007e-02  -3.97100560e-02  -3.08081731e-02     3.50144804e-02  -1.95867755e-02   1.63887851e-02        -4.97399550e-03   2.31061550e-03   5.32741752e-03   9.11281910e-03     1.12478761e-03   3.93737946e-03  -7.74036301e-03      -1.20101273e-02  -2.37406250e-02   2.65191272e-02   5.38695678e-02    -1.04007065e-01   2.63853334e-02   2.38405671e-02       2.96429191e-02   1.65432468e-02  -1.09474018e-01   1.27980933e-01    -1.05543725e-01   8.44608396e-02  -1.91415176e-02      -1.30629726e-02   6.80452809e-02   1.13631442e-01  -6.95137382e-01     7.77662814e-01  -2.12698013e-01  -6.98750019e-02       3.20133604e-02  -6.38069510e-02   1.67926043e-01  -1.54242262e-01    -6.59829229e-02   5.76927774e-02   2.12499928e-02       1.41086418e-03  -1.55099714e-02  -1.31604075e-01   4.91015702e-01    -5.01843572e-01   8.46780315e-02   5.62344640e-02       3.04645170e-02   2.97721084e-02  -3.05438954e-02   3.45762372e-02    -2.68049613e-02  -6.66791350e-02   1.08515527e-02        -3.89461010e-03   2.14922242e-02  -3.79012176e-03  -5.49967308e-03     1.85106101e-03  -1.25122508e-02  -1.80092696e-02      -1.81601979e-02  -2.12394968e-02   3.01786158e-02   6.91383630e-02    -8.38560164e-02   1.86310033e-03   3.45089380e-03       7.66893569e-03  -1.13030393e-02  -7.93039724e-02   1.66856512e-01    -1.32664070e-01   4.98482287e-02   8.25776346e-03      -1.30776027e-02   3.26523073e-02   1.13892861e-01  -5.36919355e-01     6.19263172e-01  -2.03097224e-01  -4.09304649e-02       3.38315144e-02  -3.80623415e-02   1.20703213e-01  -1.51841044e-01    -8.78340658e-03   7.39390180e-02   2.79692356e-02      -5.21564204e-03  -5.92038222e-03  -1.42339647e-01   3.88930142e-01    -3.55194658e-01   1.17805980e-01   3.27438936e-02       1.53234703e-02   7.29930447e-03  -3.23610716e-02   4.07596864e-02     9.72908735e-03  -5.25889806e-02   9.50936519e-04         -0.01543934 -0.00618673 -0.01718029 -0.02827742 -0.01812518 -0.00413777   -0.00411262      0.00753324  0.01878969 -0.086059   -0.00208892 -0.01319213  0.03295053   -0.01239875      0.05830399 -0.0033088  -0.1648664   0.00820017  0.00832761  0.09841523   -0.02050691      0.12657203 -0.01471528 -0.15864052 -0.02791703  0.12900247  0.10559917   -0.01389001      0.14143521 -0.04608254 -0.15028667 -0.11947819  0.2137336   0.03830883   -0.00644924      0.10472654 -0.00576063 -0.13995788 -0.11146781  0.15284173  0.00177073   -0.01805733      0.06464806 -0.00902543 -0.08247527  0.00910559  0.04751248  0.02764991   -0.02394516        0.05141697  0.0070513  -0.04044462  0.00349031 -0.00060876  0.04721876    0.08980903      0.04229286  0.00133783 -0.13786264  0.02146659 -0.0402193   0.10178813    0.07512101      0.03361989 -0.06076612 -0.23019549 -0.03417274 -0.02728334  0.17515199    0.08616607      0.0473715  -0.11867256 -0.22859691 -0.19924589  0.0961175   0.20700678    0.13926263      0.0484722  -0.16573046 -0.23402089 -0.36113751  0.20866065  0.18096855    0.18000682     -0.01012662 -0.1698923  -0.26346081 -0.31732985  0.17010045  0.1738095    0.19627763     -0.03828633 -0.13382483 -0.19661167 -0.0692016   0.07763688  0.18293908    0.18980116       -0.07246788 -0.0183177   0.00510759  0.04390375 -0.02051473 -0.0672117   -0.05049801     -0.05906304  0.06266261  0.08761112  0.12723775 -0.05471034 -0.06100176   -0.07731034     -0.09161367  0.08873397  0.20033121  0.16601707 -0.13100021 -0.10505909   -0.10480667     -0.12238613  0.12874512  0.36853087  0.15511015 -0.17747682 -0.19876553   -0.1310107      -0.09701473  0.17519157  0.47757995  0.08367645 -0.14115198 -0.24212825   -0.11324228     -0.03441092  0.19898565  0.38995799  0.0292281  -0.10617528 -0.19594067   -0.10679217     -0.00833905  0.13598874  0.1878048   0.06193328 -0.08095477 -0.12078324   -0.11272149         -0.10448173 -0.15595734 -0.21534558 -0.18892334 -0.10639096 -0.07224007   -0.03282173     -0.06591123 -0.07522845 -0.10785975 -0.16121115 -0.17305399 -0.10931844   -0.00445367      0.00852601 -0.01843055 -0.02601709  0.05600267  0.08852205  0.04218229   -0.00380737      0.09886929  0.23124762  0.38493797  0.28461167  0.12408609  0.07980872    0.02913539      0.11388393  0.16204515  0.18087487  0.24134146  0.24822821  0.14214681    0.04243134      0.03622276  0.06292001  0.08062432 -0.01081272 -0.04520357 -0.03613199    0.00779993     -0.08721647 -0.18220533 -0.22017629 -0.20972827 -0.14544821 -0.10269222   -0.06957589       -0.00521803 -0.06787608 -0.10935504 -0.05370661  0.01613072  0.01155779    0.02794787     -0.02355075  0.05408976  0.09591391  0.00244819 -0.09671682 -0.0781574   -0.01198136      0.01101718 -0.09157023 -0.15980104 -0.02016655  0.11340689  0.08587365    0.01879094      0.01828381  0.11650839  0.2095488   0.06282286 -0.07013321 -0.02823254   -0.00100881      0.02935475 -0.02108663 -0.08540408  0.04340462  0.10895046  0.07351988    0.0061643       0.03167171  0.09858871  0.0903495   0.01399346 -0.05221229 -0.05366376   -0.02664219     -0.02263932 -0.0553896  -0.03859176 -0.03769771 -0.01178901 -0.00658607   -0.03321448        0.14142965  0.18562491  0.19518015  0.24287002  0.21961606  0.12127991    0.04905907      0.06680512  0.2281841   0.33095059  0.24477386  0.05209647 -0.00596317   -0.00055273     -0.05001722 -0.15734605 -0.26681697 -0.13077302  0.02565919  0.03391268    0.01583126     -0.18040344 -0.18065813 -0.20563701 -0.33470383 -0.34894136 -0.19338088   -0.04676152     -0.16565453 -0.30361426 -0.41739646 -0.30718827 -0.14922641 -0.08482125   -0.0227275       0.01146093  0.06980237  0.07289331  0.03642471 -0.01758062 -0.02890937    0.03579276      0.12171552  0.16335687  0.22407097  0.25861275  0.21306401  0.15703455    0.10863078         -0.07083426 -0.03118675  0.07809778  0.0362822  -0.03869371 -0.11460881   -0.14982139     -0.0561994   0.0268039   0.06841578  0.01514946 -0.04249986 -0.09421278   -0.14415796      0.04009245  0.06577273  0.02992755  0.07397518  0.03764822 -0.05935891   -0.09198631      0.08031506  0.11016582  0.06023758  0.06391957  0.09105615 -0.01069188   -0.04822487      0.077817    0.10339674  0.05871521  0.0531944   0.04604388  0.02342291    0.0143917       0.06182941  0.06880786  0.03768747  0.03666496  0.03088984  0.06180599    0.01149625      0.07252023  0.0391271  -0.03262411  0.01273265 -0.00401233  0.03310467    0.00047198        0.02840665  0.02196931  0.08364576  0.06097072  0.01605421 -0.01704752   -0.04198217     -0.05095661 -0.04075325  0.00205813  0.00306448 -0.01013991 -0.02957028   -0.02680267     -0.09679218 -0.12493402 -0.13044825 -0.06815296 -0.04047653 -0.04181006   -0.02004192     -0.1239007  -0.15190969 -0.18630646 -0.12968609 -0.01408402 -0.00176481    0.02334355     -0.17650108 -0.20311461 -0.23976746 -0.18180582 -0.07129844  0.02200647    0.07812812     -0.20240562 -0.25767493 -0.28137627 -0.22059323 -0.10694089  0.04468851    0.0804598      -0.14122535 -0.22846416 -0.29478016 -0.18851301 -0.09146264  0.04248162    0.07732821       -0.02098909 -0.00151817  0.01055137  0.00187716  0.01234457 -0.02082118   -0.04629944      0.00817802  0.05299282  0.05218824  0.02955701  0.0405318   0.00879647   -0.01575576      0.05923525  0.08625986  0.09963439  0.0870101   0.04942527  0.00999887    0.00380518      0.0876864   0.10879431  0.11049394  0.06808099  0.06186977 -0.00073535   -0.0150518       0.11357132  0.14770168  0.11670253  0.09192553  0.04116825  0.0032225    0.00067384      0.14443614  0.19381891  0.1803516   0.10022767  0.03407895  0.00463755   -0.02666109      0.12785508  0.15706167  0.10287328  0.07634173  0.02090897  0.01597718   -0.03082816           4.96040564e-03   1.75434034e-02   2.54206862e-02  -5.91699500e-03     1.64256096e-02   9.83310211e-03   3.19712982e-02       7.78501779e-02   4.42973934e-02   1.95468925e-02   8.96643661e-03     2.46853083e-02  -1.06267782e-03  -1.23098271e-03       6.60034865e-02   5.88471331e-02   1.43318931e-02  -1.73498075e-02    -1.76493806e-04   4.08474691e-02   1.08579071e-02       4.40773740e-02   4.66339365e-02  -1.33307488e-03  -6.95052603e-03     1.63980052e-02  -6.50637271e-03   7.30525004e-04       9.76440385e-02   9.46148410e-02   2.15901621e-02   9.27016325e-03     4.56643999e-02  -8.99378210e-03  -2.63200533e-02       1.09271444e-01   1.17724068e-01   4.70820367e-02   9.41080302e-02     9.62527022e-02   4.34968472e-02  -6.17618952e-03       4.08032611e-02   5.62183708e-02   4.93030399e-02   5.29607758e-02     6.74456283e-02   3.68363559e-02  -4.46117818e-02        -2.11960562e-02  -7.40854163e-03   1.30646806e-02  -2.58104131e-02     6.81878626e-03  -1.77652687e-02  -2.13534422e-02       5.46325855e-02   4.17930521e-02   2.43206546e-02   2.54056081e-02     3.88705134e-02  -1.31270066e-02  -3.01150139e-02       5.64993322e-02   8.76600146e-02   6.71760887e-02   3.58734503e-02     4.48868461e-02   7.26562664e-02   2.52530742e-02       5.21253981e-02   7.45149180e-02   8.80927071e-02   8.40684325e-02     6.11921661e-02   1.75050069e-02   2.54336968e-02       8.03833976e-02   1.06722713e-01   8.46698210e-02   8.60720575e-02     7.78725743e-02   2.38020672e-04  -9.90500581e-03       7.93342888e-02   1.14069842e-01   7.68469945e-02   1.41125768e-01     9.84341949e-02   3.84241417e-02  -1.96833480e-02       2.57238634e-02   5.79185560e-02   6.98689669e-02   8.37652460e-02     6.83706254e-02   3.35855074e-02  -6.79990947e-02        -5.25058759e-03  -1.46626970e-02   1.63909588e-02  -5.49594313e-03     2.73247827e-02   9.21987649e-03   9.41794366e-03      -2.98815984e-02  -6.56574294e-02  -7.83491805e-02  -4.18043658e-02    -1.42338853e-02  -1.52632883e-02   1.95091330e-02      -1.24286942e-01  -1.16521969e-01  -1.19175434e-01  -1.14744872e-01    -6.91429004e-02   3.34005356e-02   4.85507734e-02      -1.88916221e-01  -1.61156267e-01  -1.27468005e-01  -1.05163209e-01    -9.06760767e-02  -4.42024544e-02   6.23886250e-02      -1.86359078e-01  -1.42288864e-01  -1.39076650e-01  -1.21161990e-01    -1.16851024e-01  -9.29823965e-02   8.26425385e-03      -1.73196629e-01  -1.34588674e-01  -1.44522965e-01  -7.72113279e-02    -1.07702918e-01  -7.44269341e-02  -1.89861786e-02      -1.67606518e-01  -1.43558055e-01  -1.13854162e-01  -9.47285891e-02    -9.78462920e-02  -5.48376776e-02  -4.43588719e-02         -0.00679739 -0.00071185 -0.00548421 -0.00798381  0.00595808  0.08030694    0.06508385     -0.01936005 -0.02335203 -0.05250707 -0.09349458 -0.13570979  0.04568135    0.09100315     -0.00164776  0.00137542 -0.03518258 -0.10208463 -0.23755108 -0.10709885    0.05818455      0.05288545  0.06534287  0.03494373 -0.00939771 -0.19626769 -0.16657469    0.00592263      0.06182293  0.09976787  0.0371085   0.07732937 -0.06803921 -0.14816344   -0.00700967      0.03216816  0.15613627  0.11397495  0.10733321  0.05927655 -0.04061664    0.02359922     -0.07925519  0.01899388  0.06222088  0.07724655  0.05602487 -0.01207901    0.02918359        0.00961666  0.04982224  0.02093106 -0.01283123  0.00751943  0.12690213    0.12264784     -0.02444111  0.00084498 -0.03036004 -0.11864433 -0.19502772  0.06617597    0.16208956     -0.00909392  0.04101033  0.01045764 -0.11242613 -0.33458203 -0.15002623    0.10939526      0.04114844  0.10745987  0.09672438  0.01090622 -0.27408051 -0.24709292    0.00768503      0.03646046  0.13690323  0.11259376  0.1254092  -0.09203801 -0.20537962   -0.00144292     -0.03723931  0.1494478   0.15963075  0.15022533  0.06918295 -0.05592283    0.04139558     -0.16792199 -0.05846623  0.04411653  0.08434734  0.0500535  -0.03959356    0.02216446       -0.01051924  0.03661229  0.03554325  0.0058869  -0.01037916  0.06498028    0.05066462     -0.03655503 -0.00109112  0.00830203 -0.06247724 -0.13842346  0.03825903    0.08732205     -0.04145496 -0.00462633  0.00764805 -0.04458178 -0.23736124 -0.1214975    0.07750426      0.00727662  0.04405072  0.06806653  0.02765606 -0.19716538 -0.18595433   -0.01926671      0.02443713  0.09034286  0.06591647  0.11545724 -0.05822358 -0.15062177   -0.01829837     -0.00342206  0.12975016  0.13711885  0.14774865  0.07454368 -0.0415011    0.0222476      -0.10867944 -0.0171067   0.04894752  0.09658927  0.07956743 -0.05254073   -0.02496983          -7.89096393e-03  -4.20410112e-02   2.28733867e-02   9.72224846e-02     6.29641488e-02  -8.22588243e-03  -2.87462138e-02      -2.26184465e-02  -8.97677541e-02  -4.73296531e-02   1.18462376e-01     1.52807072e-01   7.93975145e-02  -6.40625507e-03      -1.40125770e-02  -1.72222435e-01  -2.18985200e-01  -4.57287431e-02     1.51380122e-01   1.31144166e-01   4.67607938e-02       5.72541021e-02  -1.19758040e-01  -3.26584697e-01  -2.67357588e-01    -1.97803993e-02   8.60497728e-02   4.66495939e-02       1.66467801e-01   8.36405158e-02  -2.27285922e-01  -3.36080343e-01    -1.87841803e-01  -1.06363604e-03   1.78575870e-02       2.00862154e-01   2.79954016e-01   9.21419412e-02  -1.48674652e-01    -1.54725134e-01  -3.76966409e-02   2.19272599e-02       7.03671724e-02   2.11042017e-01   1.80183053e-01   3.93807888e-02    -1.95507351e-02  -1.23269968e-02   2.91242413e-02         4.21077898e-03  -5.53371292e-03   3.45374607e-02   9.09118578e-02     1.00055583e-01   7.03654885e-02   4.24928181e-02      -6.63047731e-02  -7.37460256e-02  -4.30103280e-02   4.04787101e-02     1.04583815e-01   9.31770355e-02   6.48448989e-02      -8.48768353e-02  -1.52837098e-01  -1.66883633e-01  -7.57772177e-02     5.65480851e-02   9.93352830e-02   7.79121965e-02      -6.23567365e-02  -1.71981484e-01  -2.51619428e-01  -2.06429467e-01    -6.49375618e-02   4.13592122e-02   5.69867902e-02       4.43959655e-03  -1.13938436e-01  -2.30877727e-01  -2.56045103e-01    -1.75311878e-01  -3.92026454e-02   2.81116981e-02       9.93556008e-02   5.38383573e-02  -6.38166815e-02  -1.66811869e-01    -1.59945771e-01  -7.11906403e-02   1.46621023e-03       1.18863694e-01   1.01629175e-01  -3.79254366e-03  -8.00352246e-02    -9.22661647e-02  -4.82823998e-02   2.40966585e-02        -6.03370741e-03   3.22499201e-02  -2.49327011e-02  -1.42885417e-01    -1.32062986e-01  -5.80188222e-02   7.94650614e-03       6.68119639e-02   1.41740784e-01   6.42981827e-02  -1.62147298e-01    -2.40054920e-01  -1.54713139e-01  -5.70547879e-02       1.12016156e-01   2.89116442e-01   3.55977446e-01   6.98083490e-02    -2.05508083e-01  -2.18862921e-01  -1.21333130e-01       3.30232680e-02   2.71146655e-01   5.77576816e-01   4.73295122e-01     5.32515161e-02  -1.24241330e-01  -1.24174364e-01      -1.54942706e-01   2.60459405e-04   4.03483778e-01   5.82126141e-01     3.41118723e-01   3.76645550e-02  -3.50756384e-02      -2.84250557e-01  -2.90913641e-01   1.37302447e-02   3.10772479e-01     2.96911836e-01   8.75140205e-02   3.40253231e-03      -2.00193554e-01  -2.95645446e-01  -2.06256241e-01   3.80189419e-02     1.22506537e-01   3.16562839e-02  -3.53935473e-02         -0.14227228 -0.09214625 -0.04833154 -0.0091716   0.0237741   0.01943091    0.02144473     -0.11632293 -0.06963305 -0.02005241  0.03512293  0.05452135  0.03640195    0.05240856     -0.03311088 -0.02909444  0.02901097  0.0928307   0.05310088  0.03983101    0.04796617     -0.00297204  0.00390636  0.06502857  0.06072069  0.0870392   0.06207093    0.04317606      0.01531663  0.05801944  0.07910657  0.04140222  0.09804539  0.09376911    0.03345452     -0.02616937  0.07879861  0.04979315  0.046543    0.08021061  0.09060293    0.07222729     -0.06652643  0.02012815  0.03190298  0.05319087  0.05192319  0.05262059    0.07633802       -0.07131311 -0.04129198 -0.01187102  0.0248856   0.02938388  0.03064463    0.05928999     -0.13057384 -0.08428915 -0.03783325  0.02689589  0.0458047   0.0293674    0.06335171     -0.10574389 -0.09607056 -0.01690555  0.07243399  0.03363726  0.02753537    0.05645137     -0.10713249 -0.08558422  0.00858469  0.03088161  0.0781606   0.07203763    0.06612872     -0.12229368 -0.06930099 -0.00391012 -0.01120643  0.08669699  0.10579679    0.06407912     -0.15023722 -0.05662331 -0.0441633  -0.00677738  0.05557635  0.07851399    0.09416358     -0.15332754 -0.0874382  -0.04923365  0.0083509   0.01311534  0.05217245    0.10973811        0.01799818  0.03002967  0.02463123  0.04251177  0.04099214  0.05680877    0.11439204     -0.07806106 -0.05912821 -0.05059965 -0.01071084 -0.00114508  0.02786054    0.09860085     -0.1015201  -0.11722088 -0.06452823 -0.0050064  -0.04430516 -0.01008158    0.06620983     -0.1171388  -0.10961947 -0.04553728 -0.04662837 -0.00820419  0.03107634    0.07631082     -0.10951283 -0.09114964 -0.06540532 -0.09554152 -0.00488801  0.04280771    0.05455567     -0.1353848  -0.06757507 -0.10105759 -0.08220583 -0.03058741  0.02743677    0.09775635     -0.11712343 -0.08426443 -0.08621032 -0.03980651 -0.03749888  0.02675902    0.14599784           1.58009008e-02   4.33563851e-02  -1.38754388e-02  -3.46807279e-02     3.36383060e-02   1.76497363e-02   2.35811085e-03      -1.43009620e-02   2.79544964e-02   1.41436368e-01   5.86033240e-02    -5.02544045e-02  -3.24443541e-02  -1.70645807e-02      -1.25428420e-02  -1.25110954e-01  -8.99176374e-02   1.72723636e-01     9.12142918e-02  -3.83935273e-02  -3.39714885e-02       6.59163073e-02   7.92688727e-02  -2.61123925e-01  -2.43882656e-01     3.16335075e-02   4.48513031e-02   1.15976278e-02      -3.57458405e-02   1.27274618e-01   2.13277370e-01  -4.43104953e-02    -1.86384678e-01  -2.47080978e-02   2.04113331e-02      -5.98308519e-02  -7.36738518e-02   1.77868921e-02   1.04522496e-01     9.87063721e-02  -2.08432358e-02   3.75816762e-03       1.06012495e-02   1.81489121e-02  -3.26936692e-02  -3.43116783e-02     2.52907164e-02   2.27205791e-02   2.94025964e-03         9.01695224e-04   3.01730912e-02  -1.08113112e-02  -1.00344252e-02     2.36129612e-02   1.95440371e-02   1.09041128e-02      -4.71494682e-02  -4.40546460e-02   1.72285557e-01   1.60301924e-01    -2.11080778e-02  -1.65011045e-02  -1.56869111e-03      -4.94974628e-02  -3.02428603e-01  -2.93917656e-01   2.22784102e-01     2.58274585e-01   5.21544404e-02   4.82792500e-03       1.47773042e-01   8.18410367e-02  -5.85245013e-01  -6.03594780e-01    -1.07741943e-02   1.28336310e-01   3.52218449e-02       5.39242737e-02   3.62273365e-01   3.56990755e-01  -2.14866906e-01    -4.27744359e-01  -1.13465168e-01   4.86948108e-03      -4.79745567e-02   2.25814083e-03   1.84441552e-01   2.47110501e-01     9.00875181e-02  -8.15019161e-02  -1.02028754e-02       1.38977142e-02   2.15006098e-02   2.62067430e-02   3.42375003e-02     6.79850504e-02   2.20012479e-02   9.07762721e-03        -1.58627499e-02   4.09892686e-02   1.48649495e-02  -2.00518630e-02    -2.77895126e-02  -4.40539978e-03  -3.63956229e-03      -3.81251983e-02   1.20042241e-04   1.88722506e-01   1.39945775e-01    -4.63964939e-02  -4.86802384e-02  -9.77101177e-03      -4.14528809e-02  -2.30949178e-01  -1.93513364e-01   2.58733213e-01     2.48580709e-01   3.12441438e-02  -3.40737123e-03       1.10706724e-01   6.33986890e-02  -4.72292006e-01  -4.31865841e-01     8.66683051e-02   1.60149947e-01   4.03626896e-02       2.34198775e-02   2.90118128e-01   2.74218410e-01  -1.81680426e-01    -3.27122420e-01  -4.33273576e-02   1.43479668e-02      -7.12789968e-02  -2.99963858e-02   1.29558712e-01   1.90806732e-01     5.70546202e-02  -7.63182268e-02  -2.18570419e-02      -8.99748784e-03  -2.79003121e-02  -7.47892912e-03   6.63465075e-03     3.03347055e-02   3.04804358e-04  -1.13808401e-02           9.33750868e-02   1.12019956e-01   9.81402919e-02   1.00208461e-01     5.05347475e-02   8.95744637e-02   1.09046020e-01       9.05229077e-02   9.86542106e-02   7.56920874e-02   8.14621374e-02     6.04058206e-02   4.62461263e-02   7.55184516e-02       8.40579569e-02   7.85974935e-02   8.57670978e-02   7.25712553e-02    -2.61842879e-03   2.74314620e-02   5.18625490e-02      -5.95961027e-02  -9.55785662e-02  -9.41205099e-02  -7.10525662e-02    -2.01617479e-02   1.38438335e-02   2.49147527e-02      -1.96403652e-01  -3.70174289e-01  -3.60366344e-01  -2.33686551e-01    -1.18731007e-01  -1.37086501e-02   6.11789785e-02      -2.31827825e-01  -3.79754514e-01  -4.18280065e-01  -3.02400798e-01    -1.86133340e-01  -9.95107181e-03   9.40033421e-02      -1.26519084e-01  -1.87970459e-01  -1.92974478e-01  -1.91149846e-01    -1.24594063e-01   1.31503418e-02   1.07353628e-01        -2.32578114e-01  -1.93883449e-01  -1.43169507e-01  -1.21688247e-01    -1.17755137e-01  -1.39295176e-01  -1.58383235e-01      -1.42074078e-01  -7.37794861e-02  -6.07556440e-02  -5.86734563e-02    -6.29323721e-02  -1.01574302e-01  -1.36990681e-01       3.40176299e-02   8.76748562e-02   9.96899381e-02   8.30098465e-02     2.26431936e-02  -2.82092001e-02  -8.85339603e-02       1.47204965e-01   2.71568120e-01   2.70836174e-01   2.23964572e-01     1.59414664e-01  -2.61421539e-02  -1.11268863e-01       2.66922265e-01   3.72207493e-01   3.87846649e-01   3.51771563e-01     2.21259803e-01   1.76204648e-02  -9.81618762e-02       2.78310418e-01   3.87648940e-01   3.90754998e-01   3.73404950e-01     2.16111258e-01   6.86586043e-03  -9.46220681e-02       1.45390958e-01   2.31721804e-01   2.52845287e-01   2.27781087e-01     9.33945999e-02  -4.31965627e-02  -1.39925167e-01         5.68480045e-02   7.85328448e-02   7.09987134e-02   5.48955873e-02     8.11262354e-02   5.59323207e-02   1.42097976e-02      -8.46711081e-03   2.70131715e-02  -2.04726029e-02   9.39431135e-03     5.98710254e-02   7.33324811e-02   4.75319736e-02      -6.72551692e-02  -1.04720935e-01  -1.57334685e-01  -1.42316669e-01    -4.87453863e-02   6.85797483e-02   6.85985163e-02      -1.31892994e-01  -1.11424297e-01  -1.83469951e-01  -2.06631675e-01    -8.20465535e-02  -1.49171678e-02   4.69900109e-02      -9.86168012e-02  -4.28067520e-02  -8.66876766e-02  -1.35072559e-01    -1.20438956e-01  -2.23592203e-02   3.34287100e-02      -6.53477535e-02  -2.89781077e-04  -4.03832011e-02  -6.88981414e-02    -5.97480834e-02  -1.92526018e-03   4.41164002e-02      -1.16633810e-01  -5.90304844e-02  -6.42238781e-02  -6.61382154e-02    -4.01265062e-02   3.68857943e-02   6.51092976e-02          0.12202378  0.06872752 -0.00443933  0.01701125 -0.00313341  0.00620986    0.03657591      0.10466895  0.04728689  0.01506682  0.02475846  0.02736321  0.02876699    0.05103052      0.15450037  0.04220285 -0.01202922  0.02211212  0.02779363  0.04251525    0.07045656      0.07883196  0.00917489 -0.04351797 -0.01910665 -0.00936394 -0.00886994    0.06285465     -0.01556349 -0.06180625 -0.02162221 -0.02802633 -0.01555619 -0.00170904    0.02223349     -0.02315992 -0.0054404  -0.03345687 -0.04374451 -0.03375505  0.02212057   -0.00475685     -0.05664611  0.01220442 -0.00234823 -0.04170874 -0.01837215 -0.01042403   -0.00936931        0.00052262 -0.02169393 -0.04963546 -0.03426258 -0.05246311 -0.04063635   -0.03695345      0.0077612  -0.00598476 -0.00836545 -0.01514809 -0.01236379 -0.0107684   -0.0154796       0.08654037  0.01741714  0.01379492  0.03208449  0.02690626  0.01958675   -0.00358236      0.05431244  0.02373949  0.00751636  0.01835399  0.02275657 -0.0153867    0.00389709      0.01263057  0.00975566  0.02986471  0.02786405  0.03013559  0.01216503   -0.02230744      0.03410883  0.07364039  0.01535412  0.00287869 -0.00321709  0.02799172   -0.04810493     -0.01790142  0.05774919  0.03506554 -0.01769557 -0.01047539 -0.02543888   -0.0616317        -0.00341353 -0.02299243 -0.04038177 -0.0456845  -0.06068175 -0.05920706   -0.0500196       0.02289746 -0.00595326 -0.0057374  -0.01810625 -0.01411002 -0.02840334   -0.03168327      0.10979845  0.04109016  0.01298399  0.02238915  0.02010944  0.01483219   -0.02234339      0.09357024  0.05593974  0.00395368 -0.00647331  0.01329338 -0.01024097   -0.00141415      0.06131023  0.04045304  0.02651761 -0.00978068  0.01429006  0.01119034   -0.01420056      0.06705103  0.08021172  0.02286334 -0.00574758  0.0028639   0.02063519   -0.03066437      0.01232817  0.0578485   0.03445393 -0.02062412 -0.00682696 -0.02517091   -0.05220351         -0.00666526 -0.03194171 -0.03590082 -0.02633328 -0.02981784 -0.03118414   -0.02409368      0.00308474  0.05086692  0.07531811  0.1082454   0.09617449  0.07269836    0.04545775     -0.05013314 -0.05166487 -0.06632787 -0.12808695 -0.17600159 -0.12117671   -0.06145596      0.01751708 -0.03327899 -0.06490164 -0.01918672  0.01145711  0.03857842    0.02512418      0.05894857  0.10658924  0.25070158  0.35154212  0.25344169  0.1394355    0.03519831      0.0044259  -0.04002492 -0.17374107 -0.23816414 -0.2096943  -0.1032631   -0.03708911     -0.01417008 -0.02373648  0.01454295  0.06113384  0.0200683  -0.01845248   -0.01695503        0.00769837 -0.03507175 -0.04388379 -0.02644925 -0.02287591 -0.01384209    0.00622938      0.06804714  0.11986629  0.16077308  0.20716834  0.17090844  0.12138905    0.06398177     -0.0388326  -0.08782301 -0.15384793 -0.27932349 -0.34669265 -0.23897126   -0.10866024     -0.00739936 -0.0910838  -0.17103812 -0.10410371 -0.03713647  0.0232218    0.03214557      0.05229873  0.17956488  0.42358875  0.58156765  0.43044758  0.23166046    0.07974266      0.01623611 -0.05367833 -0.25424257 -0.37491119 -0.32267678 -0.13023387   -0.02327425     -0.01400285 -0.04825727  0.00091198  0.05145282  0.00923088 -0.02318075   -0.01211234       -0.00806452 -0.02680374 -0.01194999 -0.02071488 -0.01986277 -0.01188374   -0.00930128      0.02414155  0.07647263  0.12425402  0.16286887  0.1341669   0.10080104    0.03280063     -0.05096324 -0.07764411 -0.13694108 -0.25644413 -0.29826453 -0.21654479   -0.09669606     -0.04398361 -0.09528647 -0.15662339 -0.1168799  -0.06465156  0.0090044    0.01449775      0.03436656  0.14634576  0.33319333  0.46173745  0.34663445  0.19892643    0.06008245      0.01666376 -0.0175723  -0.17031007 -0.27516291 -0.2226816  -0.07591046   -0.00508393      0.00173163  0.00554703  0.05272761  0.08214737  0.0513309   0.01729751    0.0172521           -2.40142681e-02   8.71668104e-03   1.79001149e-02   7.18342280e-03    -3.22554191e-03  -5.26426872e-03  -5.91144082e-04      -2.82175839e-03   1.03515415e-02  -2.61063054e-02   7.74887204e-02    -7.04334900e-02  -2.60660984e-03   2.15266063e-03      -7.28469389e-03   2.09748745e-02  -9.09816325e-02   2.29112104e-01    -1.81069300e-01   4.65245359e-02   1.09719103e-02      -1.72255747e-02   5.93058914e-02  -1.76787108e-01   3.50111455e-01    -2.76847959e-01   7.66016170e-02  -2.80516036e-03      -2.55472958e-02   6.64904937e-02  -1.67767450e-01   3.14209461e-01    -2.39472747e-01   5.43987565e-02  -1.52122031e-03      -1.15591213e-02   3.96289937e-02  -4.91275489e-02   1.33021042e-01    -1.27583772e-01   3.46245095e-02   1.02159884e-02      -1.20981289e-02   1.08685326e-02   6.93610776e-03   3.12616266e-02    -3.36398706e-02  -1.77571345e-02   3.05553956e-04         1.27856331e-02  -2.09956970e-02   1.27531227e-03   1.49315996e-02     2.07928810e-02  -2.70517990e-02  -5.70889004e-03       2.07550749e-02  -3.16955335e-02  -6.39517307e-02   1.50771663e-01    -8.24548155e-02  -2.55228188e-02   1.16534447e-02       2.43126880e-02  -2.52712108e-02  -2.01176405e-01   4.36497450e-01    -2.72289902e-01   2.42986120e-02   3.76232825e-02       4.12477888e-02   8.23073089e-03  -3.18890840e-01   6.55191660e-01    -4.39309776e-01   4.72407900e-02   2.12924220e-02       2.15294212e-02  -2.81196018e-03  -2.94053882e-01   5.61612129e-01    -3.66222471e-01   3.17966305e-02   1.67666432e-02       2.37239152e-02  -2.51018088e-02  -1.12533100e-01   2.64510304e-01    -1.65824771e-01  -1.95930041e-02   2.40695253e-02       2.59892829e-02  -2.95549296e-02  -2.10344605e-03   5.71115017e-02    -1.47299785e-02  -5.02916612e-02   4.15171264e-03         2.70862430e-02  -1.39355566e-02  -1.20551568e-02   3.28272469e-02     1.42132323e-02  -5.08090481e-03   4.41558164e-04       3.98638435e-02  -3.31566446e-02  -7.56090730e-02   1.54788136e-01    -6.08995147e-02  -1.41965821e-02   5.71603887e-03       3.73566896e-02  -3.26525606e-02  -2.13361263e-01   3.82274300e-01    -2.10012436e-01   3.34133171e-02   1.16773117e-02       5.84432334e-02  -2.69738287e-02  -3.39502007e-01   5.42264700e-01    -3.22082162e-01   5.99345937e-02  -3.47775081e-03       4.99520712e-02  -9.19315312e-03  -3.09781671e-01   4.73621547e-01    -2.68426955e-01   4.53026481e-02  -6.00791420e-04       4.48067896e-02  -2.84971520e-02  -1.51600465e-01   2.49195606e-01    -1.05682842e-01  -4.33608983e-03   1.97998509e-02       2.86977924e-02  -4.09137532e-02  -4.78843972e-02   6.74536005e-02     9.32283979e-03  -1.65323075e-02   1.73321944e-02           4.08881344e-02   9.58039146e-03  -9.59778111e-03  -6.82401890e-03     4.35987604e-04   1.53778726e-02   3.98643687e-02       2.53288075e-02   8.24312866e-03  -1.95051469e-02  -5.27808350e-03    -1.41146183e-02  -1.31687513e-02   1.13013794e-03       1.61463823e-02  -5.36382431e-04   1.46951787e-02   8.14875681e-03    -2.70863622e-03   2.25908924e-02  -4.03850514e-04       2.77687311e-02   1.07622631e-02  -7.57113332e-03   1.68574154e-02     2.69270632e-02   1.15826158e-02   2.27390006e-02      -5.92657831e-03  -5.69445873e-03   1.83826666e-02   5.38343266e-02     5.16217463e-02   1.75404288e-02   2.16430258e-02      -3.47800204e-03  -1.39609864e-02  -8.40179715e-03   3.44430655e-02     6.39478862e-02   3.07707023e-02   2.38589365e-02      -5.68806613e-03   3.91284470e-03  -1.01163061e-02  -9.28878598e-03    -8.19362700e-02  -8.76679346e-02   3.90636027e-02         5.41867837e-02   1.71686858e-02  -8.59956723e-03  -1.63294673e-02    -1.35391986e-03   1.68465974e-03   7.23411562e-03       3.20614949e-02   1.44428676e-02  -6.06320566e-03  -8.09877273e-03    -1.13019412e-02  -1.90282222e-02   3.29313014e-04       6.88340794e-03  -3.41780623e-03   9.46768187e-03  -2.27546948e-03    -8.96039419e-03   9.52454656e-03   2.36758171e-03       1.28097022e-02   4.48728492e-03  -2.59036128e-03  -7.48972083e-03    -4.30261390e-03  -1.04047013e-02   1.23285139e-02      -1.19277723e-02  -9.48268455e-03   4.49804403e-03   4.02594684e-03    -2.26849467e-02  -4.45091091e-02   3.98688717e-03      -3.52322502e-04  -2.25411821e-02  -7.63679072e-02  -7.02110007e-02    -7.41249472e-02  -9.34602171e-02  -2.55286917e-02       1.97195318e-02  -2.24906369e-03  -7.34250918e-02  -1.29960135e-01    -2.59069860e-01  -2.09657833e-01  -5.81334485e-03         6.64844215e-02   1.26647269e-02   1.44855832e-04   2.16064742e-03     1.56066772e-02  -6.74868608e-03  -2.64471571e-04       2.00718064e-02  -9.19982046e-03  -1.68535355e-02  -3.18860170e-03    -6.13120338e-03  -1.74645893e-02  -1.43831261e-02       5.40996669e-03  -5.84318116e-03  -2.30829860e-03  -2.68624118e-03    -1.43559910e-02   1.19421212e-02  -5.71148796e-03       9.89025272e-03   9.33724735e-03  -1.68606814e-04  -7.13184418e-04    -1.43341124e-02  -1.21732820e-02   7.27778906e-03      -3.68343643e-03   7.58350268e-03   2.25063227e-02   3.34632420e-03    -3.36440839e-02  -4.87046763e-02   8.12193658e-03      -4.75684740e-03  -1.85829662e-02  -3.31092253e-02  -4.30125892e-02    -7.19437525e-02  -1.15591332e-01  -3.17155495e-02      -1.14317229e-02  -1.22641260e-02  -7.14473501e-02  -1.19561270e-01    -2.36659929e-01  -2.17050165e-01  -9.55147576e-03          -1.09210461e-01  -5.82810640e-02  -3.80174592e-02  -6.61559403e-02    -3.58428098e-02  -3.36446650e-02  -4.29834053e-02      -7.37919193e-03   1.73912179e-02  -6.76172087e-03   2.53996644e-02     1.37437405e-02  -1.69073660e-02  -2.57493164e-02      -7.96459988e-03   2.60502310e-03  -3.76989576e-03   3.29194963e-03     3.64300199e-02  -2.07913648e-02  -7.19897300e-02       7.13137910e-02  -1.30847434e-03  -8.70123971e-03   5.22923991e-02     3.96394692e-02  -2.76442012e-03  -1.21993683e-01       2.21378565e-01   1.33813143e-01   1.54789770e-02   3.40741277e-02     2.45387759e-02  -1.51831424e-02  -8.17177072e-02       5.31247556e-02   6.66366890e-02  -1.17631804e-03   1.85077486e-03     1.10909408e-02  -8.70534312e-03  -5.07366285e-02      -3.77946049e-02  -3.72521230e-03  -3.17658633e-02  -4.96109808e-03     1.00684892e-02  -1.01611195e-02  -4.57828380e-02        -5.98441735e-02  -1.84053890e-02   7.63487769e-03  -1.44584840e-02     1.71022527e-02   2.68179793e-02   2.38244217e-02       1.74903329e-02   3.63785177e-02   1.57823842e-02   2.53798664e-02     2.85406299e-02   1.50278453e-02   1.40630398e-02       7.48957228e-03   2.29672082e-02  -2.63462984e-03   4.46162233e-03     2.43282709e-02  -3.14644538e-03  -4.18162718e-02       6.08027093e-02  -1.30161643e-02  -2.93227974e-02   2.64662802e-02     4.35695844e-03  -1.61032565e-02  -1.08085133e-01       2.03199953e-01   1.14443250e-01  -4.60020127e-03   1.06277168e-02    -3.75634315e-03  -3.05934642e-02  -7.81762525e-02       3.28506827e-02   6.67220727e-02  -1.93462183e-03  -3.25967441e-03    -3.46874148e-02  -2.74706669e-02  -2.97573954e-02      -1.20068476e-01  -5.76983094e-02  -4.67733219e-02  -2.31022872e-02    -3.17768566e-03  -1.39481490e-04  -3.64634185e-03        -5.53869009e-02  -1.50828518e-03   8.40450171e-03  -1.32273398e-02     2.60143168e-03  -7.05450028e-03  -2.88297627e-02       1.55454753e-02   3.55149955e-02   1.14310365e-02   2.20616478e-02     2.56399140e-02   7.79176969e-03  -6.70605712e-03       8.69210996e-03   1.61401350e-02  -1.22685181e-02   6.49083313e-03     3.62778082e-02   3.73241864e-03  -3.09080854e-02       7.42296726e-02  -7.11451226e-04  -7.59609696e-03   3.51994336e-02     1.86509844e-02  -7.21877255e-03  -7.78644010e-02       2.40036637e-01   1.54643074e-01   4.14743312e-02   3.65675390e-02    -1.00445061e-04  -1.90218128e-02  -5.20992242e-02       1.00235671e-01   1.48394570e-01   5.88614643e-02   2.21447442e-02    -2.15110052e-02  -1.49824833e-02   1.84087711e-03      -5.41311391e-02   2.07798295e-02   9.22683161e-03   9.03357752e-03     1.41752865e-02   2.01500989e-02   2.92288251e-02          -1.50025524e-02   2.93259770e-02  -1.73845759e-03   1.98468473e-02     1.70914810e-02   3.80147770e-02  -3.23779956e-02       1.60434190e-02   2.12817881e-02   2.80706380e-02   4.43627052e-02     5.57489842e-02   1.31124435e-02  -8.96387175e-02      -6.93111401e-03  -3.04034390e-02  -1.11096259e-03   2.85129752e-02     3.98675427e-02  -4.17965837e-02  -1.09192051e-01      -3.97360772e-02  -7.93767907e-03   2.06157770e-02   8.90763104e-02     5.83090037e-02  -6.44552931e-02  -7.73272514e-02       1.43165598e-02   5.56509942e-02   7.99406767e-02   1.52215540e-01     4.68075164e-02  -6.23508431e-02  -7.20361024e-02       9.46236625e-02   7.92583749e-02   1.04675949e-01   1.06461152e-01     2.11535897e-02  -6.02006279e-02  -1.26240462e-01       7.20653683e-02   5.80599084e-02   7.56204277e-02   2.83538550e-02    -1.99295878e-02  -1.07130095e-01  -1.23995818e-01        -4.77024540e-02   1.06249331e-02  -9.08115227e-03   3.61894933e-03    -6.39750296e-03  -1.52469315e-02  -8.85086209e-02       2.64638253e-02   5.16440272e-02   5.39509915e-02   5.84776439e-02     4.38738912e-02  -4.47059497e-02  -1.34791225e-01       5.69292419e-02   4.98563163e-02   7.48554319e-02   6.58990517e-02     3.93467322e-02  -7.85318762e-02  -1.36898741e-01       5.47791943e-02   7.72299618e-02   8.55930448e-02   1.16914935e-01     3.99564356e-02  -1.02301262e-01  -1.09170914e-01       1.04201883e-01   1.26051828e-01   1.19803511e-01   1.76982775e-01     2.35664397e-02  -9.48959962e-02  -1.03186652e-01       1.81994736e-01   1.25668168e-01   1.27454311e-01   1.01652853e-01    -2.33786497e-02  -8.84715691e-02  -1.35209665e-01       1.03294507e-01   6.64291084e-02   6.36874661e-02  -5.04939910e-03    -7.34397471e-02  -1.33758217e-01  -1.34798378e-01         7.28125423e-02   8.96154717e-02   1.17756929e-02   3.85127515e-02     1.99233443e-02   7.00900033e-02   5.77452108e-02       7.97721818e-02   3.94924060e-02  -2.28619319e-03  -5.30988164e-03     9.31676198e-03   2.37422027e-02   3.42049962e-03       1.57570709e-02  -6.79381266e-02  -9.46688652e-02  -7.99984783e-02    -5.15999235e-02  -4.38932590e-02   1.41587509e-02      -5.40968068e-02  -1.05323672e-01  -1.29857421e-01  -6.78911731e-02    -5.82845025e-02  -2.94198375e-02   8.97364914e-02      -5.74062094e-02  -9.64478105e-02  -1.20671593e-01  -3.87520455e-02    -8.00129175e-02   9.03992355e-03   1.14394203e-01      -6.09688577e-05  -1.23002790e-01  -1.29521281e-01  -1.02104641e-01    -7.72885531e-02   4.64764349e-02   8.59367922e-02      -5.27986027e-02  -1.49807587e-01  -1.42842099e-01  -1.23038650e-01    -4.02127579e-02   4.64236848e-02   1.16285473e-01           5.36100455e-02   8.56618509e-02   1.27883002e-01   1.65682375e-01     5.88988997e-02  -8.90166499e-03   3.35577466e-02      -1.90009326e-02   2.49069966e-02   6.49751425e-02   1.50233150e-01     5.51131219e-02  -4.74378020e-02   6.59897458e-03      -9.47731286e-02  -6.87687173e-02   9.84713808e-03   1.87025890e-01     2.11296991e-01   4.52771038e-02   4.48971167e-02      -1.56703174e-01  -1.79823965e-01  -2.00317591e-01  -1.35032330e-02     1.87724113e-01   1.63696602e-01   1.39684409e-01      -9.59489867e-02  -1.99714318e-01  -3.08241606e-01  -2.39811748e-01     2.83212704e-03   8.06636885e-02   1.20918021e-01       1.62080824e-02  -1.06023237e-01  -2.27820918e-01  -2.73195058e-01    -7.16289729e-02   2.08207928e-02   8.95659775e-02       1.15723230e-01   4.91717793e-02  -5.36231622e-02  -1.73362374e-01    -8.18287954e-02   1.66719221e-02   1.01474129e-01        -5.93187585e-02  -3.16078067e-02  -1.45006822e-02   1.57053061e-02    -8.15064684e-02  -1.07824244e-01  -3.58749479e-02       9.43655730e-04   3.58483009e-02   2.40433980e-02   5.12332916e-02    -7.92079344e-02  -1.72857434e-01  -9.59091038e-02      -1.58014373e-04   5.40582165e-02   9.85545963e-02   2.14302450e-01     1.59461915e-01  -1.03643551e-01  -9.71392319e-02      -4.27086130e-02  -2.10477747e-02  -4.41606455e-02   1.10331640e-01     2.45468780e-01   8.59304890e-02  -2.10902113e-02       5.27318520e-03  -6.63868384e-03  -9.91498977e-02  -7.43241310e-02     1.13618247e-01   5.66308536e-02  -1.19369272e-02       4.95585129e-02   1.74130816e-02  -4.08162214e-02  -1.08574077e-01     3.47723588e-02   1.82014797e-02  -2.54612621e-02       5.02104983e-02   6.79353923e-02   4.38716263e-02  -6.09099269e-02    -7.71185663e-03  -1.69243151e-03  -1.72648057e-02        -8.50816593e-02  -9.25499946e-02  -7.74996132e-02  -5.46382852e-02    -8.71961415e-02  -4.53237221e-02   5.16291559e-02       2.35581007e-02   3.00132502e-02  -1.99107267e-02  -4.38774675e-02    -1.34983182e-01  -1.71338633e-01  -3.85250337e-02       4.26760167e-02   1.07319392e-01   1.08744815e-01   1.41165406e-01     6.09701835e-02  -1.58426151e-01  -1.00381300e-01       6.29931106e-04   7.44609460e-02   4.98737246e-02   1.27303809e-01     1.83700815e-01   5.66899683e-03  -8.17697570e-02      -1.93715491e-03   6.15748055e-02   2.82806009e-02   1.41432630e-02     1.33572340e-01   4.44670394e-02  -5.31517081e-02      -1.49830813e-02   3.08962241e-02   3.74447703e-02  -7.34573789e-03     8.37509260e-02   4.01032157e-02  -4.55321893e-02      -7.39660487e-02  -2.34749932e-02   9.05133598e-03  -3.98439653e-02     1.96598042e-02   2.15250999e-02  -5.08146249e-02          -2.02062521e-02   1.32420408e-02  -9.97605734e-03   1.42350737e-02    -1.66923515e-02   8.75108223e-03  -2.05184799e-03       6.83079734e-02  -1.84521824e-02  -3.26176025e-02  -9.26484242e-02     7.87707865e-02   8.74410477e-03  -6.96914084e-03      -3.45169306e-02   7.70291239e-02   8.40781182e-02  -8.99810567e-02    -3.43317799e-02   3.81042175e-02  -3.37171339e-04       7.88818970e-02  -6.37946799e-02  -2.00733602e-01   4.67877179e-01    -1.87105983e-01  -7.21094236e-02   2.86725573e-02      -8.87125134e-02   2.52901986e-02   2.93926984e-01  -4.81242061e-01     3.66420329e-01  -3.64988185e-02  -7.90663511e-02      -7.13487901e-03  -4.34887186e-02   4.85974690e-03   1.28493533e-01    -1.44750610e-01   1.51217431e-02   5.61474860e-02       5.86830778e-04   8.57491884e-03  -1.03258871e-01   9.36764106e-02    -5.86917736e-02   1.22300703e-02   1.90326758e-02        -2.33280472e-02   3.85783128e-02  -6.14483515e-03   2.79412884e-02    -1.35551272e-02   5.27709548e-04  -7.24612316e-03       4.63728122e-02  -3.42618003e-02   2.43152529e-02  -1.19960412e-01     9.90945548e-02  -1.54343788e-02  -1.19330650e-02      -9.47386473e-02   5.29974625e-02   9.04069394e-02  -4.46251258e-02    -8.39654952e-02   3.63952704e-02   1.21654058e-02       1.27668649e-01  -1.43461019e-01  -3.56923848e-01   6.33138955e-01    -2.36558750e-01  -9.40490887e-02   5.46248481e-02      -6.30896762e-02   1.10656388e-01   3.40943754e-01  -8.13617051e-01     5.11093020e-01   2.68903319e-02  -9.49906558e-02       3.07047721e-02  -1.42085776e-02   3.42718139e-02   5.06955422e-02    -1.80809900e-01   2.62409635e-02   7.23349154e-02       2.04732530e-02   3.34423445e-02  -1.27034739e-01   2.14423537e-01    -1.11862957e-01  -7.00769451e-05  -2.66542230e-02        -1.79391392e-02   2.96990592e-02  -1.15105724e-02   1.55572593e-02    -2.59669274e-02  -1.50061520e-02   1.65710449e-02       3.45548801e-02  -9.81083047e-03   4.49305326e-02  -1.03739589e-01     6.18230999e-02  -1.76256951e-02   1.80406682e-03      -1.03290543e-01   5.71791008e-02   1.30793497e-01  -6.20892830e-02    -5.82074635e-02   3.92508768e-02   3.79726291e-03       1.01313502e-01  -1.15301915e-01  -3.17436308e-01   5.37523508e-01    -2.23660499e-01  -7.20018297e-02   4.70509268e-02      -5.85659891e-02   4.93625924e-02   2.47478619e-01  -6.23990715e-01     4.76295531e-01   8.41222424e-03  -8.34660530e-02      -3.28387925e-03  -3.18251587e-02  -6.08281372e-03   5.02220020e-02    -1.21700846e-01   3.30184139e-02   3.94666232e-02      -3.47869354e-03   1.39016546e-02  -1.12225786e-01   1.66884646e-01    -7.66678825e-02   1.76107287e-02  -1.02840159e-02          0.00307403 -0.00563514 -0.0058324  -0.03348048 -0.01751128  0.03483513    0.00906363      0.02584351  0.02504181  0.00198468 -0.07280829 -0.06594003  0.09217885    0.01994528      0.00161795  0.05884748 -0.01382734 -0.10188101 -0.11737365  0.13808389    0.0253502      -0.01145618  0.07769556 -0.00347717 -0.15859029 -0.14462909  0.16148102    0.02061471     -0.00974047  0.07811601 -0.02372617 -0.15229738 -0.10046447  0.16048089    0.03641762      0.02270465  0.08409064 -0.01674623 -0.14268312 -0.03128747  0.12498011    0.04215258      0.01909986  0.03397734 -0.06605071 -0.13054849 -0.02956394  0.07965981    0.02382776        0.00597766  0.02059773  0.03398725 -0.05303172 -0.06207431  0.01640223    0.01109809      0.04040255  0.08589355  0.07855553 -0.09332988 -0.15124761  0.08060287    0.03795292      0.01231667  0.12651101  0.08108132 -0.15882634 -0.25552517  0.13768606    0.04244924     -0.00633481  0.17032555  0.10246104 -0.24161322 -0.29841197  0.1713703    0.03671838     -0.00447611  0.16530471  0.06091411 -0.2405525  -0.22334319  0.17578088    0.05242956      0.02742011  0.14610414  0.03620917 -0.1995068  -0.10513219  0.14340287    0.0550692       0.02183881  0.06765664 -0.02574342 -0.1555115  -0.06011605  0.07189421    0.02301869       -0.02185769  0.02942363  0.06716201 -0.02877339 -0.0851361  -0.0204957   -0.00923289     -0.0027541   0.10458628  0.13907515 -0.03231056 -0.15408209  0.02341849    0.01398733     -0.04457858  0.13749593  0.13934639 -0.07220155 -0.25112832  0.04880919    0.01345432     -0.0576503   0.17656645  0.17607231 -0.13122714 -0.28307813  0.07662964   -0.00355332     -0.05676224  0.18211092  0.14457028 -0.12070472 -0.21367733  0.07314304    0.00450038     -0.00374948  0.1756689   0.12280041 -0.09747626 -0.10974915  0.04763021   -0.00259078      0.00248201  0.09598082  0.03485771 -0.103412   -0.09658068 -0.01039292   -0.04506608          0.14381276  0.1909838   0.17470512  0.15401489  0.12195632  0.08780064    0.00750344     -0.00348563  0.10562077  0.10721386  0.11748946  0.12802261  0.11163381    0.03934428     -0.13089505 -0.0720928   0.00644155  0.0164225   0.08647306  0.13387451    0.08843078     -0.13864085 -0.12353007 -0.018567   -0.01402112  0.01743184  0.10906945    0.10316204     -0.17077228 -0.21564059 -0.13850251 -0.07334837 -0.03877836  0.09776521    0.12194626     -0.18414471 -0.26533476 -0.19640227 -0.16988541 -0.13764587  0.02723976    0.12554958      0.02291119 -0.13185436 -0.11664845 -0.10060133 -0.12757808 -0.01864727    0.11236607       -0.01339192  0.01774664 -0.02004294 -0.04571018  0.00984979  0.02844121   -0.05007704     -0.01241983  0.03212126 -0.01572942 -0.06219276  0.01249217  0.05806536   -0.0108541      -0.02278682  0.00473973 -0.02438724 -0.15452971 -0.05769854  0.04910245   -0.00695011      0.02456631  0.0846877   0.12785241 -0.06653383 -0.12007723 -0.01185897   -0.04227127      0.00863671  0.0603289   0.14189352  0.09305875 -0.02920427  0.01491139   -0.00269062     -0.07838444 -0.06167599  0.04866724  0.04855086 -0.02672258 -0.00202063    0.01894665      0.01400176 -0.07656279  0.02410018  0.02283851 -0.03752582 -0.04700441   -0.01140107       -0.10289952 -0.11751863 -0.19636676 -0.19884253 -0.07504989 -0.00946097   -0.02874527     -0.0178753  -0.04322667 -0.15958636 -0.21839902 -0.10860072 -0.02521519   -0.02713329      0.0575568   0.04725619 -0.07131688 -0.30177069 -0.20577221 -0.06426261   -0.07269289      0.20554149  0.26569623  0.23039834 -0.10988246 -0.21928725 -0.10816322   -0.1326268       0.22512347  0.34957704  0.39431298  0.20030735 -0.0227256  -0.0234231   -0.09545058      0.06698502  0.20618705  0.30854341  0.23200373  0.06831789 -0.00264559   -0.06006168     -0.0315723   0.02677645  0.13784103  0.14660703  0.04860689 -0.06750882   -0.10451315         -0.03211203 -0.00896914  0.07327101  0.02673699 -0.03059967 -0.07321718   -0.09994045     -0.02148852  0.01636664  0.03675668  0.0215305  -0.03214327 -0.04947074   -0.09840818     -0.01260647  0.01093636  0.00414752  0.03368427 -0.04824332 -0.03918233   -0.0793929      -0.00776418  0.02376802 -0.00214362 -0.02880699  0.0013994  -0.02765277   -0.03269016     -0.00128878 -0.00363804 -0.00535382 -0.03062163  0.02147671 -0.00244164    0.00630833     -0.02914878 -0.01381703 -0.01946625 -0.05728734 -0.01077786  0.01925516    0.04599995     -0.0297405  -0.06946118 -0.06862743 -0.06204526 -0.0212294   0.05056454    0.02977345       -0.02660959 -0.02439315  0.05064778  0.01048196 -0.01053084 -0.07607038   -0.12796894      0.02478589  0.04293023  0.04444451  0.04339721  0.01621087 -0.01416084   -0.08324979      0.09498145  0.09905593  0.05473037  0.11370379  0.04839846  0.03090609   -0.0456139       0.12928249  0.14089011  0.10638209  0.08586857  0.1101586   0.03892527   -0.00492079      0.15123147  0.14294502  0.1358479   0.10106669  0.12987663  0.05505464    0.02000889      0.15264699  0.14912875  0.11151719  0.07647803  0.10795771  0.05892085    0.02605169      0.14144976  0.10784388  0.07346751  0.07200277  0.06405398  0.06127129   -0.00725679        0.02432931  0.01467646  0.1059695   0.06810921  0.04851825 -0.00826053   -0.05415846     -0.02572414 -0.02352467 -0.02263749 -0.01079896 -0.01751281 -0.00650483   -0.03014136     -0.07030062 -0.08011193 -0.11967501 -0.0321971  -0.05490885  0.00690721   -0.00614303     -0.08576772 -0.08723647 -0.12607138 -0.11311865 -0.03347873  0.00362445    0.04797306     -0.08635854 -0.11032598 -0.11907193 -0.13357848 -0.0635558  -0.01920905    0.06176228     -0.11377207 -0.13023715 -0.15379597 -0.17026271 -0.09335146 -0.0184337    0.06270099     -0.08713464 -0.13112658 -0.16391012 -0.13697755 -0.08142488  0.02761044    0.05000722           1.30968522e-02   8.82531423e-03  -3.68701257e-02   9.03934147e-03    -3.00017651e-03  -1.80243924e-02   2.59335339e-02       4.41460591e-03   3.83090340e-02  -6.16540685e-02  -6.95774797e-03     7.29116872e-02  -4.37855199e-02  -5.49190072e-03      -3.81483026e-02   7.36659095e-02  -2.71989573e-02  -8.61806646e-02     1.42410547e-01  -2.43478008e-02  -3.20972838e-02      -5.44338524e-02   1.82197709e-02   9.71240401e-02  -1.59924373e-01     8.69434774e-02   4.37644981e-02  -3.43207195e-02      -4.55613621e-02  -1.65367685e-02   1.33194655e-01  -1.07250907e-01    -5.27893044e-02   6.83399513e-02  -1.33234523e-02      -2.86928974e-02  -3.01388241e-02   1.20843783e-01   5.41978963e-02    -8.27684700e-02   9.38496739e-03  -3.19783599e-03      -3.59321907e-02  -7.20692202e-02  -1.99708305e-02   8.86700973e-02     6.65606372e-03   1.25779454e-02   1.80810746e-02        -1.80546870e-03  -9.87630244e-03  -9.29334983e-02   3.61925252e-02     3.16387080e-02  -1.86730772e-02   9.95499868e-05       1.99380126e-02   5.37287816e-02  -1.69668853e-01  -2.38219947e-02     1.62050039e-01  -2.29555033e-02  -1.89922005e-02       5.73704578e-03   1.46107092e-01  -1.54372543e-01  -2.77218640e-01     2.40191489e-01   5.51009625e-02  -4.49644141e-02       1.53665002e-02   1.35409385e-01   7.91779831e-02  -5.00628769e-01     4.50508632e-02   1.56204328e-01  -2.93076001e-02       1.99304968e-02   1.33633152e-01   2.75599808e-01  -3.50084364e-01    -2.28883237e-01   1.39266402e-01   1.46886418e-02      -3.44885211e-03   6.64691702e-02   2.82581508e-01   1.66809727e-02    -2.68896729e-01   1.30413787e-03  -1.11448904e-03      -2.85591390e-02  -1.69327520e-02   1.06578290e-01   1.68253168e-01    -6.64310604e-02  -2.60594040e-02  -1.53569104e-02         1.13576315e-02  -2.15788279e-02  -7.48498067e-02   7.23241791e-02     7.39619434e-02  -4.83964919e-04  -1.51392084e-03       2.91381311e-02   1.96288954e-02  -1.80801585e-01   2.29514972e-03     2.08132535e-01   1.73379704e-02  -3.01926234e-03       1.90726258e-02   9.04153958e-02  -2.35447705e-01  -2.77810663e-01     2.77915567e-01   1.08094841e-01  -8.24414077e-04       3.62108760e-02   8.99846479e-02  -4.17876020e-02  -5.20114660e-01     6.26173466e-02   2.24779189e-01   3.67820747e-02       5.65842576e-02   9.61374119e-02   1.31980598e-01  -4.36783940e-01    -2.49422848e-01   1.90606475e-01   7.15456158e-02       5.83049431e-02   7.08549917e-02   2.05565974e-01  -9.46643949e-02    -3.19651693e-01   2.65690703e-02   3.44037600e-02       5.26012816e-02   2.10835487e-02   1.00311860e-01   1.16334967e-01    -1.23928599e-01  -3.95896137e-02   4.30068513e-03          0.21347533  0.16440077  0.13957426  0.09004162  0.07356993  0.09725261    0.16962288      0.15303543  0.0515082  -0.01981983 -0.01870883  0.01548307  0.11804815    0.13913831      0.03167592 -0.1369039  -0.2833598  -0.16173881 -0.0027964   0.14164735    0.13424128     -0.05906042 -0.32378182 -0.49280739 -0.29679489  0.03037428  0.20919321    0.20004423     -0.07431533 -0.40394256 -0.53886014 -0.34543735  0.08203792  0.22025225    0.23438786     -0.0589462  -0.2978932  -0.35969311 -0.19645728  0.13765334  0.21911301    0.22148028      0.0666625  -0.09300379 -0.1724173  -0.00133656  0.18820801  0.21681453    0.24641003       -0.18336813 -0.13672502 -0.09412447 -0.09281971 -0.12053476 -0.16429864   -0.18334557     -0.09049117 -0.04445356  0.00820659  0.008435   -0.0697932  -0.11822253   -0.17854194      0.01128702  0.11523366  0.15758833  0.13920352 -0.01856292 -0.11039066   -0.19427773      0.13547738  0.27431402  0.3419016   0.26215568  0.01782984 -0.14995171   -0.22228493      0.18465035  0.31460759  0.40792492  0.24259786  0.02646273 -0.1766676   -0.23454237      0.16141158  0.24075267  0.31067291  0.17248231 -0.03619396 -0.22409557   -0.26437899      0.12490622  0.17730086  0.14600426  0.07135945 -0.0978782  -0.23463477   -0.27517039        0.01842095  0.00331229 -0.0108873   0.0160476   0.03572638  0.04217134    0.05850445     -0.01990491 -0.03700491 -0.02471541  0.02185046  0.00726517  0.04189754    0.06126159     -0.07227911 -0.03262185 -0.00294735  0.01994525 -0.04316287  0.00464946    0.02074469     -0.03662817  0.05575489  0.13270006  0.04794396 -0.06116002 -0.01444232    0.03903088     -0.04058724  0.06756946  0.14836882 -0.003558   -0.07647587 -0.04187621    0.04095477     -0.08489479 -0.01426005  0.05365929 -0.06532919 -0.09938672 -0.02903967    0.02832421     -0.11801048 -0.06544844 -0.05286263 -0.0713679  -0.04146414  0.01791962    0.05860744          0.09078921  0.05372611  0.06158254  0.04873228  0.00496532  0.09223481    0.11189609      0.03535566 -0.03157767 -0.01078095  0.00079108 -0.04282312  0.00357152    0.0384213      -0.03925473 -0.06939099 -0.02359935 -0.02241098 -0.07437898 -0.03183818    0.01690629     -0.06030766 -0.08469808 -0.03280053  0.00390653 -0.01593433 -0.05369368    0.04922565     -0.07339296 -0.09428579 -0.08286705 -0.0111179  -0.03763751 -0.07754519    0.05279872     -0.00195978 -0.07322548 -0.10316972 -0.07303574 -0.07758988 -0.06396437    0.02822583      0.03034394 -0.04853659 -0.09257686 -0.08265675 -0.05696587 -0.01143592    0.03597543        0.03926116  0.01525744  0.00995563  0.00073959 -0.06097316 -0.01374555   -0.01243951      0.06819639  0.01230913  0.03276363  0.01940665 -0.06420059 -0.05846817   -0.06653561      0.04173836  0.00977452  0.06306549  0.05217296 -0.05082503 -0.07227269   -0.10751228      0.02032987  0.02201417  0.0714423   0.08462828  0.02816424 -0.09362163   -0.10873819      0.0394591   0.04428128  0.04479608  0.08899771  0.02860972 -0.10957977   -0.10152551      0.11083844  0.08249718  0.04385053  0.06179241 -0.01458854 -0.10483071   -0.1330536       0.11987253  0.08181202  0.03197411  0.00990581 -0.03270971 -0.08049057   -0.13747491        0.02510425  0.0203934   0.01513872  0.00203658 -0.0635635  -0.02312459   -0.02063183      0.0900248   0.03214365  0.03415088  0.0215948  -0.04284815 -0.05659249   -0.08867917      0.07685883  0.03488401  0.07977065  0.05887617 -0.02836129 -0.06143576   -0.14181077      0.04335471  0.03008886  0.09872534  0.08705226  0.04397062 -0.08492035   -0.15584356      0.06766347  0.0952878   0.10401144  0.11819588  0.06862897 -0.08599476   -0.14281094      0.13221842  0.12892628  0.10838749  0.10857709  0.04617897 -0.06531905   -0.1750809       0.12240369  0.1086603   0.0786031   0.04781681  0.01309651 -0.06911375   -0.20952615          -9.31122527e-03  -1.76394265e-03  -3.76231060e-03  -2.86882296e-02     7.08858599e-04   3.33234929e-02   1.44386394e-02       5.61933452e-03  -1.25273801e-02  -2.81383451e-02  -8.88531506e-02    -1.06457517e-01   2.95090657e-02   2.58180387e-02      -3.52019281e-03   6.56403154e-02   1.28317848e-01  -2.11754348e-02    -2.54900277e-01  -1.07408613e-01  -4.03347313e-02      -6.19483786e-03   1.39417890e-02   2.36498877e-01   3.37124616e-01    -1.47986347e-02  -1.16898760e-01  -2.12161317e-02      -4.69103567e-02  -1.36245042e-01  -1.08553402e-01   2.69863397e-01     1.84280455e-01  -9.85059422e-03   1.85943730e-02      -1.57506261e-02  -2.84189004e-02  -1.89923182e-01  -4.34053168e-02     9.10086036e-02   5.14664035e-03  -6.12212229e-04      -7.17906002e-03   3.76455765e-03  -2.26268321e-02  -3.54730524e-02     2.98338477e-02   1.30493920e-02   2.44936831e-02        -6.70594163e-04  -1.17403618e-03   2.64055450e-02  -2.73553841e-02    -3.56532857e-02   2.01760605e-02   4.22254531e-03       3.07986932e-03   1.31083354e-02   2.48844735e-02  -9.38680172e-02    -1.71279684e-01   2.10007839e-02   3.38961482e-02       7.26467324e-03   9.23897475e-02   2.59951919e-01   3.27389017e-02    -3.58081341e-01  -1.88777491e-01  -4.44155633e-02      -2.89826561e-02  -7.68522099e-02   3.52130204e-01   6.14450037e-01     3.62033248e-02  -1.76999778e-01  -3.55850197e-02      -6.17920756e-02  -3.05602551e-01  -2.60510445e-01   4.28926945e-01     3.66289854e-01   1.18920822e-02   2.12786775e-02       2.54554092e-03  -8.34115371e-02  -4.00166899e-01  -1.57148570e-01     1.54946655e-01   3.42299379e-02  -4.31520026e-03       3.77073959e-02   3.98964211e-02  -6.39123544e-02  -1.23733848e-01     1.50590437e-02  -4.35055234e-03  -2.80441227e-03         7.15551851e-03  -9.13365837e-03   2.48179305e-02   2.21552197e-02     1.08182551e-02   1.88265629e-02  -3.33566871e-03       3.97488475e-03  -1.65007822e-02   3.48945754e-03  -4.84651439e-02    -7.12126717e-02   5.88322133e-02   2.30323654e-02      -2.26207916e-02   2.56014057e-02   1.35505229e-01  -2.02506520e-02    -2.44431034e-01  -8.22480544e-02  -1.41199278e-02      -3.72917415e-03  -8.76912624e-02   2.11998463e-01   4.10224587e-01    -4.27975832e-03  -9.35004428e-02   1.13121541e-02      -3.94823030e-03  -2.45248631e-01  -2.88266987e-01   2.55208403e-01     2.58070469e-01   4.03224444e-03   2.24342942e-02       6.67989030e-02  -2.91957557e-02  -3.44987750e-01  -1.86119676e-01     8.65968913e-02   1.43611245e-02  -4.23420407e-03       8.51050764e-02   1.07401028e-01  -7.40118464e-03  -9.90799516e-02    -4.05598804e-03   1.12698656e-02   6.31517684e-03          0.07077063  0.03357115 -0.00699719 -0.03388507 -0.02758721 -0.03558806    0.01807094      0.05053211  0.04110473  0.02493788 -0.02787746 -0.03839372 -0.09136216   -0.0871992       0.09165285  0.05469557  0.09625     0.06014854  0.00468326 -0.09302773   -0.15583219      0.12772343  0.09857941  0.10366799  0.11287834  0.0609983  -0.06582252   -0.1468824       0.12950492  0.10085896  0.1178818   0.1437445   0.03806842 -0.06338191   -0.12112097      0.14687169  0.10482886  0.12811498  0.12883949  0.01359202 -0.08739393   -0.15346898      0.14215447  0.08988281  0.10457724  0.05383828 -0.03378234 -0.11918662   -0.19362146        0.13804173  0.0834981   0.01974807  0.00606179  0.02269214  0.06370811    0.16021907      0.05204875  0.0195372  -0.01524607 -0.05629884 -0.04093345 -0.02935775    0.04979192      0.03512845 -0.04161447 -0.02181608 -0.03362818 -0.03807832 -0.06926572   -0.05759064      0.00628332 -0.0450615  -0.04022306 -0.01714034 -0.01413391 -0.04785262   -0.06061793     -0.02317491 -0.06944646 -0.0551334  -0.00027537 -0.04906276 -0.05762539   -0.03150827     -0.01869084 -0.08094205 -0.0578221  -0.02387977 -0.07169553 -0.06680174   -0.05223911     -0.00224966 -0.08112397 -0.05585948 -0.06055279 -0.06759076 -0.05913578   -0.04635566        0.09578956  0.05666436  0.00699244 -0.00950125 -0.00161277  0.00725045    0.07429122      0.0431697   0.02500863 -0.00484282 -0.04277432 -0.04740447 -0.07248351   -0.02459824      0.04828869 -0.00435196  0.02769506  0.01315519 -0.01703297 -0.07098624   -0.09186199      0.03640196  0.01852406  0.0375892   0.04377538  0.01864984 -0.03168804   -0.06016926      0.0223499   0.00729777  0.03689305  0.07268509 -0.01124797 -0.04443517   -0.03838481      0.04803666  0.01649575  0.04916629  0.05773753 -0.0410887  -0.06468336   -0.0570868       0.07210424  0.02085613  0.04153608  0.01637273 -0.05086358 -0.08062968   -0.08623607           2.81542190e-04   6.11820491e-03   2.19305754e-02   2.20073462e-02     1.31808885e-03  -2.82764412e-03   4.54787258e-03       1.91379134e-02   6.49377853e-02   3.49512324e-02  -6.65292218e-02    -8.07746425e-02  -4.74479087e-02  -1.74499676e-02      -2.28637028e-02  -1.25191256e-01  -2.92822838e-01  -2.25962922e-01    -6.27777725e-02  -1.69738997e-02   1.19117768e-02      -5.52824326e-02  -7.45764524e-02   1.45245008e-02   1.96596935e-01     2.10233837e-01   1.09346099e-01   4.53349687e-02       4.67978530e-02   9.31801349e-02   1.05139941e-01   3.52912359e-02    -6.25412837e-02  -6.72529489e-02  -4.08557430e-02      -7.60115730e-03  -4.92185131e-02  -1.10914387e-01  -4.96635213e-02     2.84499321e-02   4.72275913e-02   1.55848200e-02       1.46072861e-02   1.44090252e-02   4.60777096e-02   1.19170986e-01     9.35644060e-02   1.76319387e-02   4.37682820e-03         5.02673397e-03   5.40815806e-03   1.54830869e-02   2.45825984e-02     2.12520193e-02   1.54993292e-02   2.52957419e-02       4.93202247e-02   1.16318628e-01   4.05723527e-02  -9.76199880e-02    -9.98472795e-02  -5.78395091e-02  -2.64079757e-02      -2.33642794e-02  -2.00445145e-01  -3.94915223e-01  -2.58957297e-01    -1.32476557e-02   4.58112992e-02   3.78250815e-02      -5.01452759e-02  -2.78594550e-02   1.85242981e-01   4.61708695e-01     4.21749473e-01   1.81796506e-01   6.16410933e-02       1.22851439e-01   2.47767016e-01   2.69313365e-01   4.77277040e-02    -1.76749632e-01  -1.87389463e-01  -9.73993689e-02      -1.38697270e-02  -1.28714219e-01  -2.89852291e-01  -2.79306978e-01    -1.51587129e-01  -5.37184477e-02  -2.05767620e-02      -1.49969226e-02  -5.49977906e-02  -2.46358756e-02   8.55953693e-02     8.43208283e-02   2.40930375e-02   1.56135447e-02        -4.12204601e-02  -3.41727883e-02  -1.39620174e-02   2.21618116e-02     1.23214656e-02   1.13606395e-03   8.78187269e-03       7.68535584e-03   9.65874866e-02   6.95545897e-02  -3.75313871e-02    -4.62534986e-02  -3.14112976e-02  -2.35006884e-02      -2.61314623e-02  -1.22967735e-01  -2.33011484e-01  -1.23176567e-01     5.17619960e-02   4.89094742e-02   3.53353024e-02      -2.09438577e-02   5.11813313e-02   2.44506508e-01   4.48718369e-01     3.67649615e-01   1.48248643e-01   3.03454269e-02       1.34717688e-01   2.65233785e-01   2.71767348e-01   2.63336413e-02    -1.84525624e-01  -1.87180951e-01  -8.82845446e-02      -5.29963337e-03  -8.49150643e-02  -2.60722935e-01  -2.84885764e-01    -1.67948455e-01  -6.79054633e-02  -1.13609703e-02      -8.10131803e-03  -4.24624607e-02  -4.90657277e-02   3.32560111e-03     2.53394749e-02  -5.05699171e-03  -1.29461498e-03         -0.03819384 -0.02111556  0.02132721  0.02204838  0.01787742  0.01135545    0.01782432      0.00567563 -0.01896469  0.04280129  0.05656543  0.03313636  0.01399348    0.00420436     -0.01931054 -0.06011777  0.06703586  0.08774725  0.06615884  0.05455823    0.02281506     -0.08056509 -0.10359155  0.00048116  0.0582142   0.09153029  0.04952794    0.01503894     -0.10903004 -0.13675813 -0.06547507  0.01583036  0.0497545   0.01479907   -0.02570301     -0.08972815 -0.13928586 -0.10660315  0.00516505  0.05742446 -0.00427613   -0.05631203     -0.04022543 -0.05375449 -0.03313947  0.01206625  0.09265394  0.01818329   -0.02123634       -0.07235443 -0.04677195 -0.03290666 -0.06013619 -0.07528265 -0.11038776   -0.09371018      0.00165918  0.02261102  0.04844479 -0.00205913 -0.0418353  -0.09627783   -0.10654505      0.08126876  0.09418969  0.14178644  0.07984687  0.03496813 -0.03340185   -0.05791952      0.12093259  0.1216149   0.15681437  0.12487849  0.06819089 -0.02903938   -0.0702356       0.12184592  0.10346289  0.1139985   0.12207838  0.04802961 -0.04295154   -0.12099688      0.13937961  0.08579107  0.07355456  0.08980502  0.05534585 -0.06233512   -0.16087292      0.13956611  0.12597969  0.09115081  0.06307402  0.05399491 -0.08186838   -0.1493893         0.1329003   0.05640239  0.03837822  0.04699142  0.04845185  0.05170664    0.08422956      0.10152236 -0.02776079 -0.02485068  0.00774535  0.00500307  0.03359003    0.09496009      0.00341852 -0.13607517 -0.06320655 -0.02201741 -0.00318206  0.05862471    0.14207585     -0.11174387 -0.20655686 -0.12698443 -0.05241396 -0.00377289  0.03024316    0.12598686     -0.1577272  -0.2445773  -0.2194405  -0.11543192 -0.07863387 -0.00603627    0.0808625      -0.08579302 -0.22400735 -0.23767841 -0.14204146 -0.04587064  0.01590936    0.07879791      0.06086216 -0.0375022  -0.08617701 -0.03972959  0.06042681  0.08662198    0.15081424         -0.02265834 -0.00536627  0.06396468  0.04198968  0.01550427  0.02298441    0.02118697      0.05336384  0.11904778  0.18406667  0.15615712  0.07131688  0.00855751    0.01509947      0.07993391  0.09032476  0.04323607 -0.11291821 -0.15722919 -0.07566802   -0.02671101     -0.05615773 -0.14068027 -0.26836291 -0.26642355 -0.15316519 -0.04989491   -0.02286615     -0.08944529 -0.1614252  -0.14487918 -0.08771194  0.01635542  0.03039182   -0.00109405     -0.0009526   0.04965356  0.1186964   0.12185468  0.08235479  0.04496179    0.03326657      0.03436662  0.09645572  0.06987086  0.06171375  0.05494128  0.05689448    0.03117437       -0.0186284   0.01535384  0.07448301  0.04525538  0.0517732   0.06540281    0.03325278      0.10261359  0.21102966  0.26247784  0.18628241  0.06716154  0.01803586    0.01844522      0.12600289  0.15084961  0.02371365 -0.24058022 -0.27948245 -0.14077839   -0.03381461     -0.05716098 -0.20736641 -0.438189   -0.47010809 -0.27177924 -0.06520867    0.01379754     -0.14058761 -0.26617911 -0.25727662 -0.14289895  0.03886674  0.0975377    0.05157058     -0.04292654  0.03395007  0.13981615  0.18577164  0.16566671  0.12195645    0.06618384      0.03406383  0.09850703  0.07806466  0.0889683   0.09127037  0.11574817    0.06948004       -0.11624052 -0.10061272 -0.03500633 -0.01838457 -0.01444576  0.02358634   -0.0313185      -0.01139391  0.08290698  0.16562678  0.15324156  0.06680868  0.0281163   -0.00535142      0.05742644  0.13813189  0.08215701 -0.11110992 -0.13992514 -0.05617454   -0.0299512      -0.00836772 -0.05912684 -0.20216261 -0.22416659 -0.09542371 -0.00094235    0.00569124     -0.04907965 -0.10966926 -0.05893204 -0.00820153  0.08961122  0.08602878    0.0072839       0.01452141  0.08994551  0.17204323  0.15595828  0.09482563  0.0603948   -0.01633858      0.00291339  0.04716485  0.01616534 -0.02651649 -0.02996866  0.00344252   -0.01783992           6.97757909e-03   1.55785715e-03   3.00907847e-02  -4.25362960e-02     3.00784800e-02  -1.75356828e-02   1.78240351e-02      -9.07086115e-03  -1.96534991e-02   1.15547545e-01  -1.29853755e-01     9.31220725e-02  -4.38551791e-02   1.61820892e-02      -2.20967252e-02  -4.17546071e-02   1.83989406e-01  -2.52756953e-01     1.97095931e-01  -7.87776187e-02   1.96909718e-02      -2.17773858e-02  -4.53254506e-02   2.47955084e-01  -3.40061277e-01     2.49331266e-01  -9.76079106e-02   2.43869908e-02      -2.87771039e-02  -4.40531150e-02   1.91446036e-01  -2.67484546e-01     1.90496549e-01  -8.53926912e-02   2.63671670e-02      -3.01031340e-02  -1.09101622e-03   8.15312564e-02  -1.19837061e-01     8.35037827e-02  -3.84687297e-02   2.00594328e-02      -5.25971130e-03  -4.41084150e-03   1.36414301e-02  -4.16211039e-02     4.11897115e-02  -1.39321610e-02  -2.21985136e-03        -1.74529515e-02   4.52129431e-02   3.73997167e-02  -6.77282587e-02     1.61360111e-02  -6.61127095e-04   6.00816100e-04      -2.06807833e-02   2.69806664e-02   1.55169263e-01  -2.95216411e-01     1.39178947e-01   9.15906113e-03  -8.39146413e-03      -2.95753218e-02   2.52711121e-02   2.79477894e-01  -5.52496314e-01     3.39839965e-01  -3.18431221e-02  -1.79287717e-02      -4.11644243e-02   6.63595721e-02   3.77737105e-01  -7.06099153e-01     4.26214546e-01  -5.98764010e-02  -3.70004736e-02      -4.62756380e-02   6.16359077e-02   2.81619668e-01  -5.75717926e-01     3.41235757e-01  -4.70611975e-02  -2.82427128e-02      -4.33264747e-02   8.72048065e-02   1.20080099e-01  -2.67025590e-01     1.55448735e-01   9.18571092e-03  -2.74608172e-02      -2.81322729e-02   6.34982437e-02   4.47831256e-03  -7.72351697e-02     1.34313237e-02   1.90254562e-02  -2.46117096e-02         9.41226631e-03   2.27489788e-02  -6.81566680e-03  -9.46033299e-02     3.03533245e-02   1.56167699e-02   2.18237075e-03       6.61903992e-03   2.25580838e-02   9.30564553e-02  -3.00377458e-01     1.40878469e-01   2.36189906e-02  -1.66007355e-02       9.38362256e-03   2.48443745e-02   1.90511987e-01  -5.01711965e-01     3.22596550e-01  -8.84828810e-03  -7.00876582e-03      -1.15463119e-02   3.37851867e-02   2.63497680e-01  -6.28770411e-01     3.89843553e-01  -2.76147313e-02  -2.17774138e-02      -2.21266672e-02   3.96110453e-02   1.85055375e-01  -5.31129062e-01     3.27210307e-01  -2.66501419e-02  -2.67404430e-02      -7.92966969e-03   8.39693770e-02   6.86767623e-02  -2.75376976e-01     1.69751644e-01   3.30285355e-02  -1.69258546e-02       2.51942477e-03   6.25132322e-02  -1.58271622e-02  -1.00354634e-01     3.74095850e-02   4.12340201e-02  -2.08756328e-02           6.18537422e-03   1.12967463e-02  -5.58691612e-03  -1.42478170e-02    -2.09102761e-02  -1.41354045e-02   4.47254721e-03       3.79923661e-03  -3.31236012e-02   2.75806841e-02   2.89604925e-02    -2.45043579e-02   1.22138159e-02   1.24230860e-02      -2.79602222e-02  -4.74490859e-02   1.78149641e-01  -6.62662834e-02    -5.57233095e-02   1.85425188e-02   1.62448585e-02      -1.87352765e-02   1.03209861e-01   9.66506153e-02  -2.61918128e-01     9.74902585e-02   4.57513891e-02   3.56968003e-03      -1.75964683e-02   1.30828083e-01  -1.97302565e-01  -4.12264913e-02     1.95277691e-01  -3.80867124e-02  -2.19789520e-02       1.06444629e-02  -4.79970686e-03  -1.60350934e-01   1.73469216e-01     1.55349346e-02  -5.39677851e-02  -4.38549276e-03      -3.45146493e-03  -5.10440283e-02   1.15030864e-02   2.26674192e-02    -6.81993291e-02  -4.84560092e-04   8.11841746e-04        -2.00618734e-03  -1.03637716e-03   3.90440114e-02   3.32129262e-02    -2.89490893e-02  -1.54212359e-02  -2.58110147e-02       6.18599821e-03  -1.07867029e-02   1.38779461e-01   4.30233441e-02    -1.05369993e-01   4.20944393e-03  -2.88636256e-02       6.77338848e-03   4.46601324e-02   3.40379834e-01  -2.64098555e-01    -2.21536428e-01   4.13802192e-02   2.08086967e-02       1.96091458e-02   2.12348163e-01   6.67103156e-02  -6.48175001e-01     9.17906985e-02   1.35348603e-01   4.06039730e-02       6.46862620e-03   1.93927884e-01  -4.90488917e-01  -2.49894544e-01     4.01570737e-01   1.92204099e-02   8.44895665e-04       1.62323173e-02  -2.35229880e-02  -3.84144396e-01   2.77103156e-01     1.50198445e-01  -5.34750856e-02  -3.98753997e-04       1.00406045e-02  -9.33172628e-02  -1.16515178e-02   1.56227231e-01    -3.46796587e-02   5.10780467e-03  -2.99244979e-03        -4.27608704e-03  -1.26490761e-02   2.61933189e-02   2.79388260e-02    -1.48053830e-02  -1.20527123e-03  -1.04923630e-02       1.58524417e-04  -5.05497940e-02   9.82708186e-02   5.13475575e-02    -5.42832091e-02   1.02273263e-02  -2.65392400e-02      -2.18747538e-02   5.99034829e-03   2.77321905e-01  -1.70925707e-01    -1.35396868e-01   4.10891362e-02  -7.06599327e-03       5.85786812e-03   1.86087102e-01   8.21231604e-02  -4.87784594e-01     9.12609547e-02   9.04582515e-02  -1.26079260e-03       1.10983625e-02   2.10841820e-01  -3.59411120e-01  -1.76055729e-01     3.16011578e-01  -7.75143225e-03  -1.35334423e-02       3.39782350e-02   2.00959072e-02  -2.98460454e-01   2.54440814e-01     1.14446789e-01  -7.49960765e-02  -1.18817445e-02       1.75789949e-02  -6.17039092e-02  -1.36409374e-02   1.19333223e-01    -4.64996472e-02  -1.92693938e-02  -1.38369366e-03         -0.00629001 -0.0114843   0.01039141 -0.01297187 -0.02074634  0.01964788    0.00678166     -0.01870297 -0.02450471 -0.00858674 -0.03758183 -0.03975115 -0.02025681   -0.00302568     -0.01403477 -0.03979174 -0.01994602 -0.04189957 -0.05410489 -0.04999793   -0.02354422     -0.02848145 -0.03014065 -0.05313403 -0.00235626 -0.00785767 -0.05336414    0.00234131     -0.01200304 -0.02372941  0.00487486  0.13387263  0.10677052 -0.0147509   -0.00980554      0.00175032 -0.04135716 -0.02002874  0.07904278  0.03718292 -0.02968459   -0.02002495     -0.0390999  -0.04138872 -0.09074406 -0.08296673 -0.09278881 -0.06638651   -0.05741629        0.02151929  0.00564789  0.02770847  0.00551481  0.00449859  0.03790095    0.0150529       0.00618651 -0.00089268  0.03880678  0.01449748  0.01350014  0.01115221    0.01239764      0.02783807  0.00917783  0.04617799  0.02540875  0.03165608  0.01966612    0.00450156      0.00375521  0.02626641  0.02529686  0.04631323  0.04951162  0.01228531    0.02738034      0.01794642  0.04831633  0.06431234  0.15715839  0.14747362  0.04323846    0.0163774       0.03410249  0.02957905  0.05412991  0.15813711  0.1147426   0.04530062    0.01368804     -0.00538642  0.01509719  0.01832365  0.04472258  0.02789547  0.02032052   -0.0043544        -0.00456741 -0.01052649  0.00054206 -0.01743109 -0.01091077  0.00407667   -0.00918685     -0.0062903  -0.01254082  0.0164067   0.0004995   0.01460296  0.00167189   -0.01557608      0.00214354  0.00136732  0.02798688  0.00655617  0.03370774  0.01823296   -0.01512241     -0.01001298  0.01623235  0.01389388  0.01355182  0.03863815  0.01598408    0.00375612      0.01343183  0.05254845  0.06352219  0.09485689  0.10512388  0.03543682    0.00985819      0.02812484  0.04898486  0.06747592  0.13420713  0.10353439  0.02465666    0.00059816     -0.0075027   0.02803736  0.0452207   0.07778605  0.0522198   0.02196261   -0.01065246           1.38815239e-01   8.62748325e-02   6.30516633e-02   3.00558172e-02     4.92271110e-02   9.05437469e-02   8.74281228e-02       3.58527973e-02   5.57016674e-03  -2.90053971e-02  -3.82493101e-02    -2.71162782e-02  -1.40218781e-02   5.92721216e-02       3.91728319e-02  -5.20100147e-02  -8.27183202e-02  -5.44504710e-02    -2.19293367e-02  -2.29626242e-03   7.83083364e-02      -2.46648118e-02  -5.84330261e-02  -8.69591814e-03  -1.68161355e-02    -2.27417834e-02  -4.58445959e-03   8.82149637e-02      -3.65503952e-02  -4.64220010e-02  -2.34124456e-02  -2.42663193e-02    -2.39417534e-02   1.89895499e-02   6.73086941e-02      -3.94257307e-02  -5.21668158e-02  -3.30755115e-02  -2.09880639e-02    -2.37324368e-02   1.10696815e-02   1.97814358e-03      -7.47477263e-02  -8.64935070e-02  -7.67790899e-02  -7.28164166e-02    -6.59787580e-02  -3.61507274e-02  -4.67704656e-03         1.16281420e-01   8.77300426e-02   9.53162834e-02   6.77622408e-02     7.36999586e-02   8.43710750e-02   8.69022831e-02       2.34353654e-02  -2.93103582e-03  -1.79340281e-02  -6.69200439e-03    -1.32469870e-02  -1.40202595e-02   3.85043025e-02       2.85230968e-02  -3.85266319e-02  -7.41722807e-02  -2.77763549e-02    -3.65891191e-03  -5.43753197e-03   4.66821566e-02      -1.83444098e-02  -1.93822905e-02   1.13132801e-02  -1.13658921e-03    -4.66722483e-03  -1.86401103e-02   5.13829738e-02      -2.26322785e-02   7.35673064e-04   1.16069680e-02   5.37395757e-03    -1.61876269e-02  -6.98146690e-03   2.44069975e-02      -1.66341364e-02  -2.43948656e-03   7.10012391e-03   2.38707587e-02     1.70755591e-02   2.47903019e-02  -2.70783342e-02      -7.34977275e-02  -4.12301533e-02  -3.19939181e-02  -3.99382152e-02    -2.48989221e-02  -5.10009415e-02  -5.90917841e-02         1.30763918e-01   1.13364324e-01   1.25364810e-01   1.05637781e-01     1.07898407e-01   1.21147707e-01   1.07997909e-01       2.07235012e-02   1.19990045e-02   8.73553276e-04   7.22194184e-03    -1.37095796e-02  -3.15936212e-03   5.49144037e-02       1.43103776e-02  -4.29671630e-02  -8.10408369e-02  -3.50899175e-02    -6.35415874e-03  -4.27722977e-03   3.34622115e-02      -3.58680524e-02  -2.35511642e-02   1.48885539e-02   2.36008200e-03    -1.23473909e-02  -1.99542325e-02   2.56222188e-02      -2.07145587e-02   1.14153316e-02   2.45785341e-02   1.31946011e-02    -2.50199754e-02  -1.47137213e-02  -1.06490152e-04      -2.55958736e-02   1.96920354e-02   1.77588686e-02   3.38801853e-02     2.16509271e-02   7.03806756e-03  -6.14371225e-02      -9.50006321e-02  -3.16243879e-02  -1.25602726e-02  -3.90389487e-02    -3.90568785e-02  -8.33637342e-02  -1.13537714e-01          -1.32262837e-02  -4.38048458e-03   4.57008416e-03  -3.57158184e-02    -4.55639698e-02  -5.60387364e-03   1.05260154e-02      -3.78605947e-02  -1.34985745e-01  -1.83772340e-01  -1.36580199e-01    -6.03822283e-02  -1.28828678e-02   5.75983524e-03       5.05251177e-02   4.62020338e-02   7.14059174e-02   5.64097278e-02     1.14279529e-02   1.28755858e-02   1.58557408e-02       5.31294271e-02   1.44006684e-01   1.78295389e-01   1.49213299e-01     4.44853641e-02   2.42813136e-02  -7.19975727e-03      -1.78393023e-03   7.95359164e-02   1.77528143e-01   1.41849220e-01     6.84266835e-02   2.57569514e-02   4.38190391e-03      -2.48763412e-02  -1.34155914e-01  -2.24828467e-01  -1.81505919e-01    -5.86776398e-02   1.81015139e-03   6.52046656e-05      -2.40140166e-02  -3.50262746e-02   1.85330231e-02  -8.60187970e-03    -4.94318753e-02   5.91853494e-03   9.35530663e-03        -5.40000983e-02  -6.88035637e-02  -5.32345213e-02  -1.13757908e-01    -1.02143124e-01  -2.05414258e-02  -1.93479354e-03      -6.56144172e-02  -2.27790326e-01  -2.99310535e-01  -2.31871188e-01    -1.05914176e-01  -4.39388826e-02  -2.64084190e-02       