[[[-0.00378918 -0.00958649 -0.01807493 -0.02050975 -0.01436122 -0.00495939
   0.02351925]
 [-0.00958649 -0.01601228 -0.02521573  0.00726614  0.01938289 -0.01517531
   0.02557473]
 [-0.01807493 -0.02521573 -0.03968639  0.04402969 -0.00025851 -0.02904222
   0.04422813]
 [-0.02050975  0.00726614  0.04402969  0.11811747 -0.05986078 -0.02047845
   0.05090658]
 [-0.01436122  0.01938289 -0.00025851 -0.05986078 -0.17128828  0.01595623
   0.02959463]
 [-0.00495939 -0.01517531 -0.02904222 -0.02047845  0.01595623  0.08594619
   0.01919603]
 [ 0.02351925  0.02557473  0.04422813  0.05090658  0.02959463  0.01919603
  -0.00705284]]
[[ 0.01466885  0.02012765  0.029964    0.02010743  0.00050717 -0.02846579
   0.0271164 ]
 [ 0.02012765  0.05407524  0.06177664  0.0900963   0.02996689 -0.07003936
   0.02826274]
 [ 0.029964    0.06177664  0.06732086  0.11716784 -0.05603503 -0.12780034
   0.05902494]
 [ 0.02010743  0.0900963   0.11716784  0.08190075 -0.2428826  -0.14421015
   0.05857905]
 [ 0.00050717  0.02996689 -0.05603503 -0.2428826  -0.41517752 -0.04988427
   0.06593297]
 [-0.02846579 -0.07003936 -0.12780034 -0.14421015 -0.04988427  0.15678665
   0.08203905]
 [ 0.0271164   0.02826274  0.05902494  0.05857905  0.06593297  0.08203905
   0.00928471]]
[[ 0.01283733  0.03380293  0.04579359  0.03412183  0.01348362 -0.02857683
   0.01889229]
 [ 0.03380293  0.0754231   0.09365482  0.10810605  0.04503209 -0.05782826
   0.02245837]
 [ 0.04579359  0.09365482  0.11569612  0.13775683 -0.05885233 -0.13521671
   0.03923955]
 [ 0.03412183  0.10810605  0.13775683  0.05849996 -0.26621614 -0.15285256
   0.0425898 ]
 [ 0.01348362  0.04503209 -0.05885233 -0.26621614 -0.42534053 -0.06637564
   0.06742307]
 [-0.02857683 -0.05782826 -0.13521671 -0.15285256 -0.06637564  0.14038281
   0.09738257]
 [ 0.01889229  0.02245837  0.03923955  0.0425898   0.06742307  0.09738257
   0.04309346]]
[[ 0.00558108  0.01661336  0.05523602  0.05338064  0.04798437  0.05094387
  -0.01599626]
 [ 0.01661336 -0.04826126 -0.08477708 -0.05579544  0.02048571  0.05461776
  -0.07080855]
 [ 0.05523602 -0.08477708 -0.17784663 -0.10512137  0.03359546  0.09836209
  -0.08957912]
 [ 0.05338064 -0.05579544 -0.10512137 -0.04347468  0.06475021  0.06716558
  -0.1084666 ]
 [ 0.04798437  0.02048571  0.03359546  0.06475021  0.08383867  0.05354249
  -0.03536679]
 [ 0.05094387  0.05461776  0.09836209  0.06716558  0.05354249  0.04520081
   0.00306968]
 [-0.01599626 -0.07080855 -0.08957912 -0.1084666  -0.03536679  0.00306968
   0.00963795]]
[[-0.00506464  0.00129114  0.04985199  0.05281939  0.06669332  0.06547265
  -0.02497974]
 [ 0.00129114 -0.10309171 -0.1636594  -0.09381364  0.03933674  0.08657049
  -0.09816215]
 [ 0.04985199 -0.1636594  -0.30182293 -0.16823558  0.09158577  0.1626283
  -0.15156866]
 [ 0.05281939 -0.09381364 -0.16823558 -0.03283812  0.17821363  0.12166181
  -0.19401224]
 [ 0.06669332  0.03933674  0.09158577  0.17821363  0.22593755  0.11507352
  -0.07617083]
 [ 0.06547265  0.08657049  0.1626283   0.12166181  0.11507352  0.09531318
  -0.00323791]
 [-0.02497974 -0.09816215 -0.15156866 -0.19401224 -0.07617083 -0.00323791
  -0.00407558]]
[[-0.02310918 -0.01994801  0.03788007  0.04518182  0.06642917  0.059052
  -0.03036416]
 [-0.01994801 -0.10572615 -0.13316298 -0.07752996  0.03351726  0.07860317
  -0.09556532]
 [ 0.03788007 -0.13316298 -0.23061638 -0.10654461  0.08822131  0.13839419
  -0.13748081]
 [ 0.04518182 -0.07752996 -0.10654461  0.01315633  0.17126878  0.120661
  -0.17166871]
 [ 0.06642917  0.03351726  0.08822131  0.17126878  0.20872313  0.11255493
  -0.07570238]
 [ 0.059052    0.07860317  0.13839419  0.120661    0.11255493  0.06932182
  -0.03341975]
 [-0.03036416 -0.09556532 -0.13748081 -0.17166871 -0.07570238 -0.03341975
  -0.03484333]]
[[ 0.00119403 -0.00343001  0.02046062  0.02544981  0.0240445   0.02499381
   0.00360434]
 [-0.00343001 -0.01292965 -0.02903952 -0.07279243  0.00648238  0.0640027
   0.01557043]
 [ 0.02046062 -0.02903952  0.06185666 -0.012071   -0.13139069 -0.0048491
   0.03508479]
 [ 0.02544981 -0.07279243 -0.012071    0.12796778 -0.01142795 -0.05519174
   0.01188077]
 [ 0.0240445   0.00648238 -0.13139069 -0.01142795  0.03349252 -0.00147226
   0.00303829]
 [ 0.02499381  0.0640027  -0.0048491  -0.05519174 -0.00147226 -0.02012322
   0.00178615]
 [ 0.00360434  0.01557043  0.03508479  0.01188077  0.00303829  0.00178615
   0.0084575 ]]
[[-0.00490315 -0.02098284  0.02062     0.0655609   0.09015337  0.06666864
  -0.00645798]
 [-0.02098284 -0.06946692 -0.0773473  -0.11274895  0.00605983  0.14419308
   0.06038409]
 [ 0.02062    -0.0773473   0.04506937 -0.04431503 -0.2452007  -0.03193558
   0.0722291 ]
 [ 0.0655609  -0.11274895 -0.04431503  0.193045   -0.01594414 -0.10064636
   0.01014414]
 [ 0.09015337  0.00605983 -0.2452007  -0.01594414  0.08596328 -0.00411364
   0.00679988]
 [ 0.06666864  0.14419308 -0.03193558 -0.10064636 -0.00411364 -0.01894995
   0.00026459]
 [-0.00645798  0.06038409  0.0722291   0.01014414  0.00679988  0.00026459
   0.01139587]]
[[-0.01749884 -0.01834365  0.03126463  0.049815    0.05288549  0.0235236
  -0.03136816]
 [-0.01834365 -0.02541956 -0.03030857 -0.09531727 -0.0160995   0.10960273
   0.02750593]
 [ 0.03126463 -0.03030857  0.08506234  0.00337064 -0.22031715 -0.05546212
   0.04295352]
 [ 0.049815   -0.09531727  0.00337064  0.24240337  0.00772792 -0.09259222
   0.00711555]
 [ 0.05288549 -0.0160995  -0.22031715  0.00772792  0.1053462   0.01220793
   0.00426916]
 [ 0.0235236   0.10960273 -0.05546212 -0.09259222  0.01220793 -0.01718028
  -0.00797153]
 [-0.03136816  0.02750593  0.04295352  0.00711555  0.00426916 -0.00797153
  -0.0139441 ]]
[[ -8.56863558e-02  -4.62546218e-02   1.56058781e-02   3.64497432e-02
    2.82550789e-02   5.78061940e-02   6.18891921e-02]
 [ -4.62546218e-02   7.90230855e-02   1.31376315e-01   1.09621439e-01
    9.74371482e-02   7.18347630e-02   4.36135261e-02]
 [  1.56058781e-02   1.31376315e-01   1.46981895e-01   1.65514775e-01
    1.47453040e-01   9.23752180e-02   3.02115439e-02]
 [  3.64497432e-02   1.09621439e-01   1.65514775e-01   1.63042054e-01
    1.43653042e-01   7.02562716e-02   3.87392500e-05]
 [  2.82550789e-02   9.74371482e-02   1.47453040e-01   1.43653042e-01
    1.47152707e-01   6.13583826e-02   9.30913355e-03]
 [  5.78061940e-02   7.18347630e-02   9.23752180e-02   7.02562716e-02
    6.13583826e-02  -3.81181901e-03  -2.88888505e-02]
 [  6.18891921e-02   4.36135261e-02   3.02115439e-02   3.87392500e-05
    9.30913355e-03  -2.88888505e-02  -7.63131678e-02]]
[[-0.0269754  -0.00727839  0.04606584  0.03553711 -0.03019209  0.00089614
   0.04067409]
 [-0.00727839  0.08079158  0.06970836  0.00663881 -0.02802411 -0.03130099
  -0.00987189]
 [ 0.04606584  0.06970836 -0.0162551  -0.02916777 -0.01900466 -0.01776009
  -0.02642909]
 [ 0.03553711  0.00663881 -0.02916777 -0.05713568 -0.03302173 -0.01945585
  -0.0120134 ]
 [-0.03019209 -0.02802411 -0.01900466 -0.03302173  0.01184412  0.01341974
   0.04027986]
 [ 0.00089614 -0.03130099 -0.01776009 -0.01945585  0.01341974  0.01543676
   0.05170901]
 [ 0.04067409 -0.00987189 -0.02642909 -0.0120134   0.04027986  0.05170901
   0.02965506]]
[[ 0.03211082  0.01034996  0.01977852  0.00542256 -0.07609526 -0.05222546
  -0.00513641]
 [ 0.01034996 -0.0027028  -0.04843033 -0.09054547 -0.11117789 -0.09256051
  -0.03670783]
 [ 0.01977852 -0.04843033 -0.15480912 -0.15803348 -0.13354314 -0.09504851
  -0.05151884]
 [ 0.00542256 -0.09054547 -0.15803348 -0.20440154 -0.17421068 -0.10935317
  -0.03284632]
 [-0.07609526 -0.11117789 -0.13354314 -0.17421068 -0.15154822 -0.09785274
   0.00701903]
 [-0.05222546 -0.09256051 -0.09504851 -0.10935317 -0.09785274 -0.05021397
   0.03803179]
 [-0.00513641 -0.03670783 -0.05151884 -0.03284632  0.00701903  0.03803179
   0.06413718]]
[[  1.54794500e-02   5.70518050e-02   1.08319320e-01   7.01271100e-02
   -5.79050000e-05  -2.73607500e-03   2.74966800e-02]
 [  5.70518050e-02   1.31937130e-01   1.65926530e-01   4.36839350e-02
   -8.04536600e-02  -7.55847500e-02   1.08072100e-02]
 [  1.08319320e-01   1.65926530e-01   9.60414900e-02  -8.10766200e-02
   -1.79623060e-01  -1.21588785e-01   2.00483000e-02]
 [  7.01271100e-02   4.36839350e-02  -8.10766200e-02  -1.89330760e-01
   -1.84370570e-01  -3.67910500e-02   6.55176900e-02]
 [ -5.79050000e-05  -8.04536600e-02  -1.79623060e-01  -1.84370570e-01
   -1.19697280e-01   5.35781550e-02   5.72786400e-02]
 [ -2.73607500e-03  -7.55847500e-02  -1.21588785e-01  -3.67910500e-02
    5.35781550e-02   9.40780700e-02   5.27001600e-02]
 [  2.74966800e-02   1.08072100e-02   2.00483000e-02   6.55176900e-02
    5.72786400e-02   5.27001600e-02   9.01981000e-03]]
[[ 0.2246339   0.18512588  0.11609707  0.01360148 -0.04797507 -0.06078098
  -0.00194896]
 [ 0.18512588  0.13353574  0.04324254 -0.07390551 -0.13622806 -0.13730393
  -0.0300156 ]
 [ 0.11609707  0.04324254 -0.07787852 -0.18176933 -0.20990057 -0.16612047
  -0.02991529]
 [ 0.01360148 -0.07390551 -0.18176933 -0.22027004 -0.18646127 -0.08046048
   0.03696424]
 [-0.04797507 -0.13622806 -0.20990057 -0.18646127 -0.13234533 -0.00292369
   0.06921104]
 [-0.06078098 -0.13730393 -0.16612047 -0.08046048 -0.00292369  0.07107995
   0.11492515]
 [-0.00194896 -0.0300156  -0.02991529  0.03696424  0.06921104  0.11492515
   0.12327858]]
[[-0.2217468  -0.22441861 -0.20542066 -0.09573692  0.05753974  0.05775599
  -0.04146468]
 [-0.22441861 -0.27806005 -0.21165265  0.01464575  0.24262922  0.19938855
   0.02742956]
 [-0.20542066 -0.21165265 -0.06649558  0.22399757  0.40924283  0.25458328
   0.02448283]
 [-0.09573692  0.01464575  0.22399757  0.41910863  0.38859541  0.14104392
  -0.07570815]
 [ 0.05753974  0.24262922  0.40924283  0.38859541  0.18037157 -0.04627776
  -0.15084914]
 [ 0.05775599  0.19938855  0.25458328  0.14104392 -0.04627776 -0.13916399
  -0.1548705 ]
 [-0.04146468  0.02742956  0.02448283 -0.07570815 -0.15084914 -0.1548705
  -0.15389478]]
[[ 0.00177544 -0.02109752 -0.04595727 -0.06620862 -0.02053622 -0.00226241
   0.00363077]
 [-0.02109752 -0.03070469 -0.03547516 -0.03928124 -0.00897397  0.02952207
   0.03290597]
 [-0.04595727 -0.03547516 -0.04024835  0.01278099  0.0402546   0.03840275
   0.078526  ]
 [-0.06620862 -0.03928124  0.01278099  0.0123255   0.00685027  0.05526681
   0.06437648]
 [-0.02053622 -0.00897397  0.0402546   0.00685027 -0.00935577  0.01081058
  -0.00075311]
 [-0.00226241  0.02952207  0.03840275  0.05526681  0.01081058 -0.04743704
  -0.04015339]
 [ 0.00363077  0.03290597  0.078526    0.06437648 -0.00075311 -0.04015339
  -0.03013466]]
[[ 0.0054268  -0.02138363 -0.06028004 -0.08887957 -0.02578243  0.0073937
   0.00081592]
 [-0.02138363 -0.04094331 -0.04949168 -0.05780556 -0.00866164  0.04771859
   0.04417789]
 [-0.06028004 -0.04949168 -0.06008751 -0.00024257  0.03615133  0.04903194
   0.08881788]
 [-0.08887957 -0.05780556 -0.00024257  0.01865259  0.01265999  0.06215127
   0.07084037]
 [-0.02578243 -0.00866164  0.03615133  0.01265999  0.01243546  0.01982853
  -0.0061863 ]
 [ 0.0073937   0.04771859  0.04903194  0.06215127  0.01982853 -0.05878185
  -0.05785514]
 [ 0.00081592  0.04417789  0.08881788  0.07084037 -0.0061863  -0.05785514
  -0.05176006]]
[[-0.05475306 -0.05465124 -0.05624649 -0.0754416  -0.01750001  0.01365074
  -0.00037834]
 [-0.05465124 -0.04213871 -0.03605597 -0.03624112  0.00708936  0.06959687
   0.06723673]
 [-0.05624649 -0.03605597 -0.05198621 -0.00847035  0.03708334  0.06261305
   0.09565283]
 [-0.0754416  -0.03624112 -0.00847035  0.00199575  0.01652111  0.06568114
   0.06804865]
 [-0.01750001  0.00708936  0.03708334  0.01652111  0.01153649  0.02333872
  -0.01916649]
 [ 0.01365074  0.06959687  0.06261305  0.06568114  0.02333872 -0.04491493
  -0.08085699]
 [-0.00037834  0.06723673  0.09565283  0.06804865 -0.01916649 -0.08085699
  -0.09340671]]
[[ 0.01364558  0.02590217 -0.02671676 -0.07464028 -0.06409849 -0.05176015
  -0.00724196]
 [ 0.02590217  0.01296453  0.00980616  0.05807079  0.08607537  0.06316036
   0.00952493]
 [-0.02671676  0.00980616  0.03631467  0.04174967  0.07243853  0.06832457
   0.01272491]
 [-0.07464028  0.05807079  0.04174967 -0.00064494 -0.01065919 -0.01291635
  -0.01691361]
 [-0.06409849  0.08607537  0.07243853 -0.01065919 -0.07639307 -0.06151041
  -0.04059803]
 [-0.05176015  0.06316036  0.06832457 -0.01291635 -0.06151041 -0.03725816
  -0.03218007]
 [-0.00724196  0.00952493  0.01272491 -0.01691361 -0.04059803 -0.03218007
  -0.01795488]]
[[ 0.00704829  0.02309043 -0.02884154 -0.08992377 -0.09825262 -0.08061741
  -0.03205923]
 [ 0.02309043  0.01777075  0.01945568  0.08090081  0.10792717  0.06053723
  -0.00735636]
 [-0.02884154  0.01945568  0.07230855  0.08916798  0.11462097  0.09961467
   0.00367184]
 [-0.08992377  0.08090081  0.08916798  0.04131944  0.00672302 -0.00201924
  -0.03620385]
 [-0.09825262  0.10792717  0.11462097  0.00672302 -0.07030255 -0.0697898
  -0.07081174]
 [-0.08061741  0.06053723  0.09961467 -0.00201924 -0.0697898  -0.06201356
  -0.07367648]
 [-0.03205923 -0.00735636  0.00367184 -0.03620385 -0.07081174 -0.07367648
  -0.06559411]]
[[-0.00275201  0.00181839 -0.04271978 -0.09622368 -0.11051933 -0.09889882
  -0.05625377]
 [ 0.00181839 -0.01247326 -0.015396    0.04144586  0.07639846  0.05474441
  -0.01413412]
 [-0.04271978 -0.015396    0.0197602   0.05065259  0.08577421  0.1038391
   0.02392473]
 [-0.09622368  0.04144586  0.05065259  0.02155695  0.02076474  0.03710275
   0.00398477]
 [-0.11051933  0.07639846  0.08577421  0.02076474 -0.03526426 -0.02057145
  -0.02594713]
 [-0.09889882  0.05474441  0.1038391   0.03710275 -0.02057145 -0.0025256
  -0.00908552]
 [-0.05625377 -0.01413412  0.02392473  0.00398477 -0.02594713 -0.00908552
  -0.00920151]]
[[-0.02822355  0.00859487  0.01783322  0.0444976   0.03897271  0.03075701
   0.02831701]
 [ 0.00859487  0.05550486  0.01610688  0.0252666   0.03487875  0.03987091
   0.02274823]
 [ 0.01783322  0.01610688 -0.09021205 -0.07309625 -0.05887557 -0.04845497
  -0.03231599]
 [ 0.0444976   0.0252666  -0.07309625 -0.07943969 -0.04974146 -0.0534592
  -0.0204635 ]
 [ 0.03897271  0.03487875 -0.05887557 -0.04974146  0.01983624  0.04091749
   0.02214398]
 [ 0.03075701  0.03987091 -0.04845497 -0.0534592   0.04091749  0.04126274
   0.01544518]
 [ 0.02831701  0.02274823 -0.03231599 -0.0204635   0.02214398  0.01544518
  -0.00039539]]
[[-0.01376111  0.01913     0.01577271  0.05825504  0.07293114  0.06362081
   0.03985898]
 [ 0.01913     0.04161358 -0.01165168  0.00957489  0.02780638  0.04445645
   0.02768361]
 [ 0.01577271 -0.01165168 -0.17366673 -0.15324078 -0.11010012 -0.07052026
  -0.05894066]
 [ 0.05825504  0.00957489 -0.15324078 -0.12892245 -0.06147488 -0.05517081
  -0.04249316]
 [ 0.07293114  0.02780638 -0.11010012 -0.06147488  0.07399724  0.09281686
   0.03766369]
 [ 0.06362081  0.04445645 -0.07052026 -0.05517081  0.09281686  0.09579337
   0.03896701]
 [ 0.03985898  0.02768361 -0.05894066 -0.04249316  0.03766369  0.03896701
   0.02510759]]
[[-0.02049522  0.00439264 -0.00037438  0.04327914  0.06619831  0.06538553
   0.05616641]
 [ 0.00439264  0.01186348 -0.04324407 -0.00311431  0.01824318  0.04317821
   0.01997781]
 [-0.00037438 -0.04324407 -0.18765277 -0.16211631 -0.10845653 -0.04774876
  -0.06113788]
 [ 0.04327914 -0.00311431 -0.16211631 -0.11536623 -0.04468955 -0.01738479
  -0.03232825]
 [ 0.06619831  0.01824318 -0.10845653 -0.04468955  0.09040736  0.11801353
   0.06093561]
 [ 0.06538553  0.04317821 -0.04774876 -0.01738479  0.11801353  0.12679118
   0.07211126]
 [ 0.05616641  0.01997781 -0.06113788 -0.03232825  0.06093561  0.07211126
   0.05747337]]
[[-0.01105412  0.00356671 -0.03718403 -0.01084492 -0.03016579 -0.03802694
  -0.01272984]
 [ 0.00356671  0.05301273  0.01729984  0.13545903  0.11799882  0.06337489
   0.03321777]
 [-0.03718403  0.01729984 -0.20371231 -0.09785702 -0.12130603 -0.09832353
  -0.01914313]
 [-0.01084492  0.13545903 -0.09785702  0.15639509  0.10698425 -0.00258172
   0.02241327]
 [-0.03016579  0.11799882 -0.12130603  0.10698425  0.05958134 -0.01520753
   0.0250335 ]
 [-0.03802694  0.06337489 -0.09832353 -0.00258172 -0.01520753 -0.05255048
  -0.00910033]
 [-0.01272984  0.03321777 -0.01914313  0.02241327  0.0250335  -0.00910033
   0.0153896 ]]
[[-0.00306429  0.01392802 -0.02542725 -0.00517191 -0.00442001 -0.02814594
  -0.0016218 ]
 [ 0.01392802  0.08507214  0.01304642  0.20883859  0.22299139  0.10853609
   0.04594305]
 [-0.02542725  0.01304642 -0.42582214 -0.25094518 -0.22182048 -0.20877445
  -0.06125353]
 [-0.00517191  0.20883859 -0.25094518  0.1902612   0.19530138 -0.03589424
  -0.00538009]
 [-0.00442001  0.22299139 -0.22182048  0.19530138  0.23135063  0.00985466
   0.04853886]
 [-0.02814594  0.10853609 -0.20877445 -0.03589424  0.00985466 -0.07190722
  -0.00714677]
 [-0.0016218   0.04594305 -0.06125353 -0.00538009  0.04853886 -0.00714677
   0.00141867]]
[[ 0.0110231   0.02256624 -0.03979262  0.00116217  0.00053937 -0.01421713
  -0.00858888]
 [ 0.02256624  0.08744944  0.00856555  0.18413063  0.20046154  0.11441145
   0.04385128]
 [-0.03979262  0.00856555 -0.36856925 -0.22541943 -0.18977516 -0.17380466
  -0.0745157 ]
 [ 0.00116217  0.18413063 -0.22541943  0.12525815  0.14650172 -0.03431506
  -0.02637828]
 [ 0.00053937  0.20046154 -0.18977516  0.14650172  0.19447242  0.02405756
   0.03685969]
 [-0.01421713  0.11441145 -0.17380466 -0.03431506  0.02405756 -0.05890983
  -0.00839454]
 [-0.00858888  0.04385128 -0.0745157  -0.02637828  0.03685969 -0.00839454
  -0.01234965]]
[[ -1.82277000e-03   1.06475000e-04  -1.01729350e-02  -4.66406800e-02
   -4.95668000e-02  -3.70873000e-03   5.04285500e-03]
 [  1.06475000e-04   3.03621300e-02  -6.27834150e-02  -1.30402990e-01
    7.05209500e-03   5.20949100e-02   1.50866450e-02]
 [ -1.01729350e-02  -6.27834150e-02  -1.72698620e-01   1.29375285e-01
    1.96147135e-01   5.89157100e-02  -3.99788500e-03]
 [ -4.66406800e-02  -1.30402990e-01   1.29375285e-01   3.32812340e-01
   -2.72849550e-02  -8.53202700e-02  -4.99566300e-02]
 [ -4.95668000e-02   7.05209500e-03   1.96147135e-01  -2.72849550e-02
   -1.37691110e-01   4.12304000e-03  -6.86815000e-03]
 [ -3.70873000e-03   5.20949100e-02   5.89157100e-02  -8.53202700e-02
    4.12304000e-03   2.73694800e-02  -1.82555350e-02]
 [  5.04285500e-03   1.50866450e-02  -3.99788500e-03  -4.99566300e-02
   -6.86815000e-03  -1.82555350e-02  -1.51018000e-03]]
[[ 0.01798717  0.00551604  0.00965716 -0.05659737 -0.04100818  0.00691525
   0.02638612]
 [ 0.00551604  0.03955499 -0.12832753 -0.19405556  0.03553576  0.05879625
   0.03031513]
 [ 0.00965716 -0.12832753 -0.26602063  0.21815642  0.2839766   0.05457107
  -0.02545568]
 [-0.05659737 -0.19405556  0.21815642  0.49538344 -0.11167486 -0.1820834
  -0.08130456]
 [-0.04100818  0.03553576  0.2839766  -0.11167486 -0.27772129 -0.01178752
   0.01841747]
 [ 0.00691525  0.05879625  0.05457107 -0.1820834  -0.01178752  0.06063594
   0.02596382]
 [ 0.02638612  0.03031513 -0.02545568 -0.08130456  0.01841747  0.02596382
   0.0324555 ]]
[[-0.01182602  0.01294158  0.04758506  0.00253481 -0.02042328  0.00671089
   0.03025047]
 [ 0.01294158  0.076105   -0.02274842 -0.12513701  0.01909718  0.03932712
   0.01497937]
 [ 0.04758506 -0.02274842 -0.20490693  0.12608922  0.18844213  0.02272458
  -0.02593364]
 [ 0.00253481 -0.12513701  0.12608922  0.32101688 -0.12474312 -0.13566914
  -0.06322398]
 [-0.02042328  0.01909718  0.18844213 -0.12474312 -0.22107093  0.00711776
   0.01350214]
 [ 0.00671089  0.03932712  0.02272458 -0.13566914  0.00711776  0.04247037
  -0.00750537]
 [ 0.03025047  0.01497937 -0.02593364 -0.06322398  0.01350214 -0.00750537
  -0.00419162]]
[[-0.00969877 -0.01646204 -0.00299882 -0.04842306  0.00669412  0.01915744
  -0.00447878]
 [-0.01646204 -0.01199743  0.04984171  0.1242044  -0.0484161  -0.06796522
  -0.01319673]
 [-0.00299882  0.04984171 -0.19029366 -0.06751536  0.1036006   0.15752519
   0.00878325]
 [-0.04842306  0.1242044  -0.06751536  0.23094718 -0.13107344 -0.12857605
  -0.01996314]
 [ 0.00669412 -0.0484161   0.1036006  -0.13107344  0.01819482  0.02867931
   0.01243239]
 [ 0.01915744 -0.06796522  0.15752519 -0.12857605  0.02867931 -0.03129649
   0.00705546]
 [-0.00447878 -0.01319673  0.00878325 -0.01996314  0.01243239  0.00705546
   0.0196465 ]]
[[-0.00624127 -0.01377091  0.03669001 -0.01977494  0.01193343  0.00895087
  -0.00952271]
 [-0.01377091 -0.02995264  0.05254943  0.1909835  -0.06217064 -0.12456019
  -0.01260638]
 [ 0.03669001  0.05254943 -0.39037314 -0.15386768  0.11984469  0.23316163
   0.03203965]
 [-0.01977494  0.1909835  -0.15386768  0.32471877 -0.16920915 -0.20009476
  -0.05217115]
 [ 0.01193343 -0.06217064  0.11984469 -0.16920915  0.07902463  0.06034776
   0.02155585]
 [ 0.00895087 -0.12456019  0.23316163 -0.20009476  0.06034776 -0.00039533
   0.0167921 ]
 [-0.00952271 -0.01260638  0.03203965 -0.05217115  0.02155585  0.0167921
   0.02540231]]
[[-0.0073985  -0.00841214  0.03108477 -0.02518596  0.0215521   0.02256459
  -0.01210307]
 [-0.00841214 -0.02480562  0.06247375  0.15362793 -0.08006788 -0.11360483
  -0.00471971]
 [ 0.03108477  0.06247375 -0.27208462 -0.13853634  0.05390164  0.18617115
   0.05421986]
 [-0.02518596  0.15362793 -0.13853634  0.27431378 -0.12787809 -0.14707387
  -0.0199757 ]
 [ 0.0215521  -0.08006788  0.05390164 -0.12787809  0.11275502  0.06308529
   0.00260189]
 [ 0.02256459 -0.11360483  0.18617115 -0.14707387  0.06308529 -0.0198364
  -0.01130368]
 [-0.01210307 -0.00471971  0.05421986 -0.0199757   0.00260189 -0.01130368
   0.00485562]]
[[ 0.01880085  0.01063611 -0.00424976 -0.04080568 -0.00868517 -0.01112106
   0.00786897]
 [ 0.01063611 -0.00405014  0.02375035 -0.01288442 -0.07831408  0.01266742
   0.02701233]
 [-0.00424976  0.02375035 -0.03859759  0.13556529 -0.0113871  -0.03302343
  -0.02204268]
 [-0.04080568 -0.01288442  0.13556529 -0.34812442  0.24295833  0.06528613
  -0.02949899]
 [-0.00868517 -0.07831408 -0.0113871   0.24295833 -0.0268376  -0.1214594
   0.01468085]
 [-0.01112106  0.01266742 -0.03302343  0.06528613 -0.1214594   0.08139969
  -0.00055171]
 [ 0.00786897  0.02701233 -0.02204268 -0.02949899  0.01468085 -0.00055171
   0.01638879]]
[[-0.004974   -0.00484976  0.01748517 -0.00197508  0.01656907  0.00267412
   0.01136208]
 [-0.00484976 -0.02374063  0.02153119  0.06095742 -0.08390701  0.00543768
   0.02680634]
 [ 0.01748517  0.02153119 -0.10947402  0.12080619  0.03119116 -0.02357162
  -0.02484271]
 [-0.00197508  0.06095742  0.12080619 -0.69513738  0.31171028  0.13915884
  -0.01764938]
 [ 0.01656907 -0.08390701  0.03119116  0.31171028 -0.06598292 -0.2220754
  -0.00277748]
 [ 0.00267412  0.00543768 -0.02357162  0.13915884 -0.2220754   0.08467803
  -0.00522234]
 [ 0.01136208  0.02680634 -0.02484271 -0.01764938 -0.00277748 -0.00522234
   0.01085155]]
[[ -3.89461010e-03   1.66601315e-03   1.93940696e-03  -9.28863789e-03
    1.78412877e-02  -8.86394642e-03  -1.34289965e-03]
 [  1.66601315e-03  -2.12394968e-02   9.43778825e-03   5.08953351e-02
   -6.09591789e-02  -2.02864095e-03   5.37509914e-03]
 [  1.93940696e-03   9.43778825e-03  -7.93039724e-02   1.40374687e-01
   -5.98042850e-03  -4.62457092e-02  -1.20516541e-02]
 [ -9.28863789e-03   5.08953351e-02   1.40374687e-01  -5.36919355e-01
    2.33711064e-01   9.29164590e-02  -8.53892500e-05]
 [  1.78412877e-02  -6.09591789e-02  -5.98042850e-03   2.33711064e-01
   -8.78340658e-03  -1.40627820e-01   1.88491615e-02]
 [ -8.86394642e-03  -2.02864095e-03  -4.62457092e-02   9.29164590e-02
   -1.40627820e-01   1.17805980e-01  -9.92254350e-03]
 [ -1.34289965e-03   5.37509914e-03  -1.20516541e-02  -8.53892500e-05
    1.88491615e-02  -9.92254350e-03   9.50936519e-04]]
[[-0.01543934  0.00067326  0.02056185  0.04914731  0.06165502  0.05029439
   0.03026772]
 [ 0.00067326  0.01878969 -0.0446839  -0.0084021  -0.02963734  0.01359495
  -0.01071209]
 [ 0.02056185 -0.0446839  -0.1648664  -0.07522018 -0.07097953 -0.02077133
  -0.05149109]
 [ 0.04914731 -0.0084021  -0.07522018 -0.02791703  0.00476214 -0.00293432
  -0.00239221]
 [ 0.06165502 -0.02963734 -0.07097953  0.00476214  0.2137336   0.09557528
   0.02053162]
 [ 0.05029439  0.01359495 -0.02077133 -0.00293432  0.09557528  0.00177073
   0.00479629]
 [ 0.03026772 -0.01071209 -0.05149109 -0.00239221  0.02053162  0.00479629
  -0.02394516]]
[[ 0.05141697  0.02467208 -0.00341237  0.0254309   0.02393172  0.01854607
   0.02576135]
 [ 0.02467208  0.00133783 -0.09931438 -0.04860299 -0.10297488 -0.03405208
  -0.02935191]
 [-0.00341237 -0.09931438 -0.23019549 -0.13138482 -0.13065212 -0.04415441
  -0.0552228 ]
 [ 0.0254309  -0.04860299 -0.13138482 -0.19924589 -0.13251    -0.05516154
   0.03503051]
 [ 0.02393172 -0.10297488 -0.13065212 -0.13251     0.20866065  0.1755345
   0.12882185]
 [ 0.01854607 -0.03405208 -0.04415441 -0.05516154  0.1755345   0.1738095
   0.18960836]
 [ 0.02576135 -0.02935191 -0.0552228   0.03503051  0.12882185  0.18960836
   0.18980116]]
[[-0.07246788 -0.03869037 -0.04325304 -0.03924119 -0.05876473 -0.05081131
  -0.02941853]
 [-0.03869037  0.06266261  0.08817254  0.12799143  0.06024061  0.06899194
   0.0293392 ]
 [-0.04325304  0.08817254  0.20033121  0.26727397  0.17328987  0.14244945
   0.04149906]
 [-0.03924119  0.12799143  0.26727397  0.15511015 -0.04690019 -0.08476871
  -0.03453871]
 [-0.05876473  0.06024061  0.17328987 -0.04690019 -0.14115198 -0.17415176
  -0.09709852]
 [-0.05081131  0.06899194  0.14244945 -0.08476871 -0.17415176 -0.19594067
  -0.11378771]
 [-0.02941853  0.0293392   0.04149906 -0.03453871 -0.09709852 -0.11378771
  -0.11272149]]
[[-0.10448173 -0.11093428 -0.10340979 -0.04502702  0.00374648 -0.01800866
  -0.0600191 ]
 [-0.11093428 -0.07522845 -0.06314515  0.03501823 -0.00550442 -0.02319922
  -0.0933295 ]
 [-0.10340979 -0.06314515 -0.02601709  0.22047032  0.13469846  0.0614033
  -0.11199183]
 [-0.04502702  0.03501823  0.22047032  0.28461167  0.18271377  0.034498
  -0.09029644]
 [ 0.00374648 -0.00550442  0.13469846  0.18271377  0.24822821  0.04847162
  -0.05150843]
 [-0.01800866 -0.02319922  0.0614033   0.034498    0.04847162 -0.03613199
  -0.04744615]
 [-0.0600191  -0.0933295  -0.11199183 -0.09029644 -0.05150843 -0.04744615
  -0.06957589]]
[[-0.00521803 -0.04571342 -0.04916893 -0.0177114   0.02274274  0.02161475
   0.00265427]
 [-0.04571342  0.05408976  0.00217184  0.05947829 -0.05890172  0.01021565
  -0.03368548]
 [-0.04916893  0.00217184 -0.15980104  0.09469113  0.01400141  0.08811157
  -0.00990041]
 [-0.0177114   0.05947829  0.09469113  0.06282286 -0.0133643  -0.00711954
  -0.01935326]
 [ 0.02274274 -0.05890172  0.01400141 -0.0133643   0.10895046  0.01065379
  -0.00281236]
 [ 0.02161475  0.01021565  0.08811157 -0.00711954  0.01065379 -0.05366376
  -0.01661413]
 [ 0.00265427 -0.03368548 -0.00990041 -0.01935326 -0.00281236 -0.01661413
  -0.03321448]]
[[ 0.14142965  0.12621501  0.07258146  0.03123329  0.02698077  0.06637042
   0.0853873 ]
 [ 0.12621501  0.2281841   0.08680227  0.03205787 -0.1257589   0.0319196
   0.08140207]
 [ 0.07258146  0.08680227 -0.26681697 -0.16820502 -0.19586864  0.053403
   0.11995111]
 [ 0.03123329  0.03205787 -0.16820502 -0.33470383 -0.32806481 -0.07847809
   0.10592562]
 [ 0.02698077 -0.1257589  -0.19586864 -0.32806481 -0.14922641 -0.05120094
   0.09516825]
 [ 0.06637042  0.0319196   0.053403   -0.07847809 -0.05120094 -0.02890937
   0.09641366]
 [ 0.0853873   0.08140207  0.11995111  0.10592562  0.09516825  0.09641366
   0.10863078]]
[[-0.07083426 -0.04369307  0.05909512  0.05829863  0.01956164 -0.0263897
  -0.03865058]
 [-0.04369307  0.0268039   0.06709425  0.06265764  0.03044844 -0.01270246
  -0.05251543]
 [ 0.05909512  0.06709425  0.02992755  0.06710638  0.04818171 -0.01083572
  -0.06230521]
 [ 0.05829863  0.06265764  0.06710638  0.06391957  0.07212528  0.01298654
  -0.01774611]
 [ 0.01956164  0.03044844  0.04818171  0.07212528  0.04604388  0.02715637
   0.00518969]
 [-0.0263897  -0.01270246 -0.01083572  0.01298654  0.02715637  0.06180599
   0.02230046]
 [-0.03865058 -0.05251543 -0.06230521 -0.01774611  0.00518969  0.02230046
   0.00047198]]
[[ 0.02840665 -0.01449365 -0.00657321 -0.03146499 -0.08022344 -0.10972657
  -0.09160376]
 [-0.01449365 -0.04075325 -0.06143795 -0.07442261 -0.10662726 -0.14362261
  -0.12763342]
 [-0.00657321 -0.06143795 -0.13044825 -0.12722971 -0.14012199 -0.16159316
  -0.15741104]
 [-0.03146499 -0.07442261 -0.12722971 -0.12968609 -0.09794492 -0.11117902
  -0.08258473]
 [-0.08022344 -0.10662726 -0.14012199 -0.09794492 -0.07129844 -0.04246721
  -0.00666726]
 [-0.10972657 -0.14362261 -0.16159316 -0.11117902 -0.04246721  0.04468851
   0.06147071]
 [-0.09160376 -0.12763342 -0.15741104 -0.08258473 -0.00666726  0.06147071
   0.07732821]]
[[-0.02098909  0.00332992  0.03489331  0.04478178  0.06295795  0.06180748
   0.04077782]
 [ 0.00332992  0.05299282  0.06922405  0.06917566  0.09411674  0.10130769
   0.07065295]
 [ 0.03489331  0.06922405  0.09963439  0.09875202  0.0830639   0.09517523
   0.05333923]
 [ 0.04478178  0.06917566  0.09875202  0.06808099  0.07689765  0.04974616
   0.03064496]
 [ 0.06295795  0.09411674  0.0830639   0.07689765  0.04116825  0.01865072
   0.0107914 ]
 [ 0.06180748  0.10130769  0.09517523  0.04974616  0.01865072  0.00463755
  -0.00534195]
 [ 0.04077782  0.07065295  0.05333923  0.03064496  0.0107914  -0.00534195
  -0.03082816]]
[[ 0.00496041  0.04769679  0.04571209  0.01908019  0.05703482  0.05955227
   0.03638728]
 [ 0.04769679  0.04429739  0.03919701  0.02780019  0.05965007  0.0583307
   0.02749369]
 [ 0.04571209  0.03919701  0.01433189 -0.00934144  0.01070683  0.04396475
   0.03008047]
 [ 0.01908019  0.02780019 -0.00934144 -0.00695053  0.01283408  0.04380083
   0.02684565]
 [ 0.05703482  0.05965007  0.01070683  0.01283408  0.0456644   0.04362946
   0.02056279]
 [ 0.05955227  0.0583307   0.04396475  0.04380083  0.04362946  0.04349685
   0.01533008]
 [ 0.03638728  0.02749369  0.03008047  0.02684565  0.02056279  0.01533008
  -0.04461178]]
[[-0.02119606  0.02361202  0.03478201  0.01315749  0.04360109  0.03078451
   0.00218521]
 [ 0.02361202  0.04179305  0.05599033  0.04996026  0.07279661  0.05047142
   0.01390177]
 [ 0.03478201  0.05599033  0.06717609  0.06198308  0.06477833  0.07475163
   0.04756102]
 [ 0.01315749  0.04996026  0.06198308  0.08406843  0.07363211  0.07931539
   0.05459947]
 [ 0.04360109  0.07279661  0.06477833  0.07363211  0.07787257  0.04933611
   0.02923281]
 [ 0.03078451  0.05047142  0.07475163  0.07931539  0.04933611  0.03842414
   0.00695108]
 [ 0.00218521  0.01390177  0.04756102  0.05459947  0.02923281  0.00695108
  -0.06799909]]
[[-0.00525059 -0.02227215 -0.05394799 -0.09720608 -0.07951715 -0.08198838
  -0.07909429]
 [-0.02227215 -0.06565743 -0.09743557 -0.10148032 -0.07826137 -0.07492598
  -0.06202446]
 [-0.05394799 -0.09743557 -0.11917543 -0.12110644 -0.10410978 -0.05556121
  -0.03265169]
 [-0.09720608 -0.10148032 -0.12110644 -0.10516321 -0.10591903 -0.06070689
  -0.01616998]
 [-0.07951715 -0.07826137 -0.10410978 -0.10591903 -0.11685102 -0.10034266
  -0.04479102]
 [-0.08198838 -0.07492598 -0.05556121 -0.06070689 -0.10034266 -0.07442693
  -0.03691193]
 [-0.07909429 -0.06202446 -0.03265169 -0.01616998 -0.04479102 -0.03691193
  -0.04435887]]
[[-0.00679739 -0.01003595 -0.00356598  0.02245082  0.03389051  0.05623755
  -0.00708567]
 [-0.01003595 -0.02335203 -0.02556583 -0.01407585 -0.01797096  0.10090881
   0.05499852]
 [-0.00356598 -0.02556583 -0.03518258 -0.03357045 -0.10022129  0.00343805
   0.06020272]
 [ 0.02245082 -0.01407585 -0.03357045 -0.00939771 -0.05946916 -0.02962074
   0.04158459]
 [ 0.03389051 -0.01797096 -0.10022129 -0.05946916 -0.06803921 -0.04444345
   0.0245076 ]
 [ 0.05623755  0.10090881  0.00343805 -0.02962074 -0.04444345 -0.04061664
   0.00576011]
 [-0.00708567  0.05499852  0.06020272  0.04158459  0.0245076   0.00576011
   0.02918359]]
[[ 0.00961666  0.01269056  0.00591857  0.01415861  0.02198995  0.04483141
  -0.02263707]
 [ 0.01269056  0.00084498  0.00532514 -0.00559223 -0.02906225  0.10781188
   0.05181166]
 [ 0.00591857  0.00532514  0.01045764 -0.00785088 -0.11099413  0.00480226
   0.07675589]
 [ 0.01415861 -0.00559223 -0.00785088  0.01090622 -0.07433566 -0.0484338
   0.04601619]
 [ 0.02198995 -0.02906225 -0.11099413 -0.07433566 -0.09203801 -0.06809834
   0.02430529]
 [ 0.04483141  0.10781188  0.00480226 -0.0484338  -0.06809834 -0.05592283
   0.00090101]
 [-0.02263707  0.05181166  0.07675589  0.04601619  0.02430529  0.00090101
   0.02216446]]
[[ -1.05192400e-02   2.86300000e-05  -2.95585500e-03   6.58176000e-03
    7.02898500e-03   3.07791100e-02  -2.90074100e-02]
 [  2.86300000e-05  -1.09112000e-03   1.83785000e-03  -9.21326000e-03
   -2.40403000e-02   8.40045950e-02   3.51076750e-02]
 [ -2.95585500e-03   1.83785000e-03   7.64805000e-03   1.17423750e-02
   -8.57223850e-02   7.81067500e-03   6.32258900e-02]
 [  6.58176000e-03  -9.21326000e-03   1.17423750e-02   2.76560600e-02
   -4.08540700e-02  -1.91028400e-02   3.86612800e-02]
 [  7.02898500e-03  -2.40403000e-02  -8.57223850e-02  -4.08540700e-02
   -5.82235800e-02  -3.80390450e-02   3.06345300e-02]
 [  3.07791100e-02   8.40045950e-02   7.81067500e-03  -1.91028400e-02
   -3.80390450e-02  -4.15011000e-02  -1.51465650e-02]
 [ -2.90074100e-02   3.51076750e-02   6.32258900e-02   3.86612800e-02
    3.06345300e-02  -1.51465650e-02  -2.49698300e-02]]
[[-0.00789096 -0.03232973  0.0044304   0.07723829  0.11471597  0.09631814
   0.02081048]
 [-0.03232973 -0.08976775 -0.10977604 -0.00064783  0.11822379  0.17967577
   0.10231788]
 [ 0.0044304  -0.10977604 -0.2189852  -0.18615672 -0.0379529   0.11164305
   0.11347192]
 [ 0.07723829 -0.00064783 -0.18615672 -0.26735759 -0.17793037 -0.03131244
   0.04301519]
 [ 0.11471597  0.11822379 -0.0379529  -0.17793037 -0.1878418  -0.07789439
  -0.00084657]
 [ 0.09631814  0.17967577  0.11164305 -0.03131244 -0.07789439 -0.03769664
   0.00480013]
 [ 0.02081048  0.10231788  0.11347192  0.04301519 -0.00084657  0.00480013
   0.02912424]]
[[ 0.00421078 -0.03591924 -0.02516969  0.01427756  0.05224759  0.08486054
   0.08067826]
 [-0.03591924 -0.07374603 -0.09792371 -0.06575139 -0.00467731  0.0735077
   0.08323704]
 [-0.02516969 -0.09792371 -0.16688363 -0.16369832 -0.08716482  0.0177593
   0.03705983]
 [ 0.01427756 -0.06575139 -0.16369832 -0.20642947 -0.16049133 -0.06272633
  -0.01152422]
 [ 0.05224759 -0.00467731 -0.08716482 -0.16049133 -0.17531188 -0.09957421
  -0.03207723]
 [ 0.08486054  0.0735077   0.0177593  -0.06272633 -0.09957421 -0.07119064
  -0.02340809]
 [ 0.08067826  0.08323704  0.03705983 -0.01152422 -0.03207723 -0.02340809
   0.02409666]]
[[-0.00603371  0.04953094  0.04354173 -0.05493107 -0.14350285 -0.17113469
  -0.09612352]
 [ 0.04953094  0.14174078  0.17670731  0.05449968 -0.11989723 -0.22281339
  -0.17635012]
 [ 0.04354173  0.17670731  0.35597745  0.32369258  0.09898785 -0.10256634
  -0.16379469]
 [-0.05493107  0.05449968  0.32369258  0.47329512  0.31768883  0.09326557
  -0.04307771]
 [-0.14350285 -0.11989723  0.09898785  0.31768883  0.34111872  0.1672882
   0.04371545]
 [-0.17113469 -0.22281339 -0.10256634  0.09326557  0.1672882   0.08751402
   0.01752941]
 [-0.09612352 -0.17635012 -0.16379469 -0.04307771  0.04371545  0.01752941
  -0.03539355]]
[[-0.14227228 -0.10423459 -0.04072121 -0.00607182  0.01954536 -0.00336923
  -0.02254085]
 [-0.10423459 -0.06963305 -0.02457342  0.01951464  0.0562704   0.05760028
   0.03626836]
 [-0.04072121 -0.02457342  0.02901097  0.07892963  0.06610373  0.04481208
   0.03993457]
 [-0.00607182  0.01951464  0.07892963  0.06072069  0.06422071  0.05430696
   0.04818347]
 [ 0.01954536  0.0562704   0.06610373  0.06422071  0.09804539  0.08698986
   0.04268885]
 [-0.00336923  0.05760028  0.04481208  0.05430696  0.08698986  0.09060293
   0.06242394]
 [-0.02254085  0.03626836  0.03993457  0.04818347  0.04268885  0.06242394
   0.07633802]]
[[-0.07131311 -0.08593291 -0.05880745 -0.04112344 -0.0464549  -0.05979629
  -0.04701878]
 [-0.08593291 -0.08428915 -0.06695191 -0.02934417 -0.01174815 -0.01362796
  -0.01204324]
 [-0.05880745 -0.06695191 -0.01690555  0.04050934  0.01486357 -0.00831397
   0.00360886]
 [-0.04112344 -0.02934417  0.04050934  0.03088161  0.03347708  0.03263013
   0.03723981]
 [-0.0464549  -0.01174815  0.01486357  0.03347708  0.08669699  0.08068657
   0.03859723]
 [-0.05979629 -0.01362796 -0.00831397  0.03263013  0.08068657  0.07851399
   0.07316802]
 [-0.04701878 -0.01204324  0.00360886  0.03723981  0.03859723  0.07316802
   0.10973811]]
[[ 0.01799818 -0.0240157  -0.03844443 -0.03731352 -0.03426034 -0.03928801
  -0.0013657 ]
 [-0.0240157  -0.05912821 -0.08391026 -0.06016515 -0.04614736 -0.01985726
   0.00716821]
 [-0.03844443 -0.08391026 -0.06452823 -0.02527184 -0.05485524 -0.05556959
  -0.01000024]
 [-0.03731352 -0.06016515 -0.02527184 -0.04662837 -0.05187286 -0.02556474
   0.01825215]
 [-0.03426034 -0.04614736 -0.05485524 -0.05187286 -0.00488801  0.00611015
   0.0085284 ]
 [-0.03928801 -0.01985726 -0.05556959 -0.02556474  0.00611015  0.02743677
   0.06225769]
 [-0.0013657   0.00716821 -0.01000024  0.01825215  0.0085284   0.06225769
   0.14599784]]
[[ 0.0158009   0.01452771 -0.01320914  0.01561779 -0.00105377 -0.02109056
   0.00647968]
 [ 0.01452771  0.0279545   0.00816271  0.0689361   0.03851011 -0.0530591
   0.00054217]
 [-0.01320914  0.00816271 -0.08991764 -0.04420014  0.15224583 -0.01030332
  -0.03333258]
 [ 0.01561779  0.0689361  -0.04420014 -0.24388266 -0.00633849  0.0746869
  -0.01135703]
 [-0.00105377  0.03851011  0.15224583 -0.00633849 -0.18638468  0.03699914
   0.02285102]
 [-0.02109056 -0.0530591  -0.01030332  0.0746869   0.03699914 -0.02084324
   0.01323937]
 [ 0.00647968  0.00054217 -0.03333258 -0.01135703  0.02285102  0.01323937
   0.00294026]]
[[ 0.0009017  -0.00848819 -0.03015439  0.06886931  0.03876862 -0.01421526
   0.01240091]
 [-0.00848819 -0.04405465 -0.06507152  0.12107148  0.17058264 -0.00712148
   0.00996596]
 [-0.03015439 -0.06507152 -0.29391766 -0.18123046  0.30763267  0.118298
   0.01551733]
 [ 0.06886931  0.12107148 -0.18123046 -0.60359478 -0.11282055  0.18772341
   0.03472967]
 [ 0.03876862  0.17058264  0.30763267 -0.11282055 -0.42774436 -0.01168882
   0.03642727]
 [-0.01421526 -0.00712148  0.118298    0.18772341 -0.01168882 -0.08150192
   0.00589919]
 [ 0.01240091  0.00996596  0.01551733  0.03472967  0.03642727  0.00589919
   0.00907763]]
[[ -1.58627499e-02   1.43203515e-03  -1.32939657e-02   4.53274305e-02
   -2.18481755e-03  -3.78421983e-02  -6.31852507e-03]
 [  1.43203515e-03   1.20042241e-04  -2.11133360e-02   1.01672232e-01
    1.21860817e-01  -3.93383121e-02  -1.88356619e-02]
 [ -1.32939657e-02  -2.11133360e-02  -1.93513364e-01  -1.06779396e-01
    2.61399560e-01   8.04014279e-02  -5.44315017e-03]
 [  4.53274305e-02   1.01672232e-01  -1.06779396e-01  -4.31865841e-01
   -4.75060605e-02   1.75478339e-01   2.34986702e-02]
 [ -2.18481755e-03   1.21860817e-01   2.61399560e-01  -4.75060605e-02
   -3.27122420e-01   6.86363130e-03   2.23413362e-02]
 [ -3.78421983e-02  -3.93383121e-02   8.04014279e-02   1.75478339e-01
    6.86363130e-03  -7.63182268e-02  -1.07761188e-02]
 [ -6.31852507e-03  -1.88356619e-02  -5.44315017e-03   2.34986702e-02
    2.23413362e-02  -1.07761188e-02  -1.13808401e-02]]
[[ 0.09337509  0.10127143  0.09109912  0.02030618 -0.07293445 -0.07112668
  -0.00873653]
 [ 0.10127143  0.09865421  0.07714479 -0.00705821 -0.15488423 -0.16675419
  -0.056226  ]
 [ 0.09109912  0.07714479  0.0857671  -0.01077463 -0.18149239 -0.1954243
  -0.07055596]
 [ 0.02030618 -0.00705821 -0.01077463 -0.07105257 -0.12692415 -0.14427848
  -0.08311755]
 [-0.07293445 -0.15488423 -0.18149239 -0.12692415 -0.11873101 -0.099921
  -0.03170754]
 [-0.07112668 -0.16675419 -0.1954243  -0.14427848 -0.099921   -0.00995107
   0.05357684]
 [-0.00873653 -0.056226   -0.07055596 -0.08311755 -0.03170754  0.05357684
   0.10735363]]
[[-0.23257811 -0.16797876 -0.05457594  0.01275836  0.07458356  0.06950762
  -0.00649614]
 [-0.16797876 -0.07377949  0.01345961  0.10644733  0.15463756  0.14303732
   0.04736556]
 [-0.05457594  0.01345961  0.09968994  0.17692301  0.20524492  0.1812729
   0.08215566]
 [ 0.01275836  0.10644733  0.17692301  0.22396457  0.25559311  0.1736314
   0.05825611]
 [ 0.07458356  0.15463756  0.20524492  0.25559311  0.2212598   0.11686586
  -0.00238364]
 [ 0.06950762  0.14303732  0.1812729   0.1736314   0.11686586  0.00686586
  -0.06890932]
 [-0.00649614  0.04736556  0.08215566  0.05825611 -0.00238364 -0.06890932
  -0.13992517]]
[[ 0.056848    0.03503287  0.00187177 -0.0384987  -0.00874528 -0.00470772
  -0.05121201]
 [ 0.03503287  0.02701317 -0.06259677 -0.05101499  0.00853214  0.03652135
  -0.00574926]
 [ 0.00187177 -0.06259677 -0.15733469 -0.16289331 -0.06771653  0.01409827
   0.00218732]
 [-0.0384987  -0.05101499 -0.16289331 -0.20663167 -0.10855956 -0.04190765
  -0.0095741 ]
 [-0.00874528  0.00853214 -0.06771653 -0.10855956 -0.12043896 -0.04105365
  -0.0033489 ]
 [-0.00470772  0.03652135  0.01409827 -0.04190765 -0.04105365 -0.00192526
   0.0405011 ]
 [-0.05121201 -0.00574926  0.00218732 -0.0095741  -0.0033489   0.0405011
   0.0651093 ]]
[[ 0.12202378  0.08669823  0.07503052  0.04792161 -0.00934845 -0.00847503
  -0.0100351 ]
 [ 0.08669823  0.04728689  0.02863484  0.01696668 -0.01722152  0.0116633
   0.03161747]
 [ 0.07503052  0.02863484 -0.01202922 -0.01070293  0.00308571  0.00452919
   0.03405416]
 [ 0.04792161  0.01696668 -0.01070293 -0.01910665 -0.01869513 -0.02630723
   0.01057295]
 [-0.00934845 -0.01722152  0.00308571 -0.01869513 -0.01555619 -0.01773205
   0.00193067]
 [-0.00847503  0.0116633   0.00452919 -0.02630723 -0.01773205  0.02212057
  -0.00759044]
 [-0.0100351   0.03161747  0.03405416  0.01057295  0.00193067 -0.00759044
  -0.00936931]]
[[ 0.00052262 -0.00696637  0.01845246  0.01002493 -0.01991627 -0.00326376
  -0.02742744]
 [-0.00696637 -0.00598476  0.00452585  0.0042957  -0.00130407  0.031436
   0.02113479]
 [ 0.01845246  0.00452585  0.01379492  0.01980042  0.02838549  0.01747043
   0.01574159]
 [ 0.01002493  0.0042957   0.01980042  0.01835399  0.02531031 -0.006254
  -0.00689924]
 [-0.01991627 -0.00130407  0.02838549  0.02531031  0.03013559  0.00447397
  -0.01639141]
 [-0.00326376  0.031436    0.01747043 -0.006254    0.00447397  0.02799172
  -0.03677191]
 [-0.02742744  0.02113479  0.01574159 -0.00689924 -0.01639141 -0.03677191
  -0.0616317 ]]
[[ -3.41353000e-03  -4.74850000e-05   3.47083400e-02   2.39428700e-02
    3.14240000e-04   3.92198500e-03  -1.88457150e-02]
 [ -4.74850000e-05  -5.95326000e-03   1.76763800e-02   1.89167450e-02
    1.31715100e-02   2.59041900e-02   1.30826150e-02]
 [  3.47083400e-02   1.76763800e-02   1.29839900e-02   1.31714150e-02
    2.33135250e-02   1.88477650e-02   6.05527000e-03]
 [  2.39428700e-02   1.89167450e-02   1.31714150e-02  -6.47331000e-03
    1.75635000e-03  -7.99427500e-03  -1.10191350e-02]
 [  3.14240000e-04   1.31715100e-02   2.33135250e-02   1.75635000e-03
    1.42900600e-02   7.02712000e-03  -1.05137600e-02]
 [  3.92198500e-03   2.59041900e-02   1.88477650e-02  -7.99427500e-03
    7.02712000e-03   2.06351900e-02  -2.79176400e-02]
 [ -1.88457150e-02   1.30826150e-02   6.05527000e-03  -1.10191350e-02
   -1.05137600e-02  -2.79176400e-02  -5.22035100e-02]]
[[-0.00666526 -0.01442848 -0.04301698 -0.0044081   0.01456536 -0.01337912
  -0.01913188]
 [-0.01442848  0.05086692  0.01182662  0.03748321  0.10138187  0.01633672
   0.01086063]
 [-0.04301698  0.01182662 -0.06632787 -0.0964943   0.03734999 -0.14745889
  -0.0234565 ]
 [-0.0044081   0.03748321 -0.0964943  -0.01918672  0.18149962 -0.09979286
   0.04312901]
 [ 0.01456536  0.10138187  0.03734999  0.18149962  0.25344169 -0.0351294
   0.0276333 ]
 [-0.01337912  0.01633672 -0.14745889 -0.09979286 -0.0351294  -0.1032631
  -0.0277708 ]
 [-0.01913188  0.01086063 -0.0234565   0.04312901  0.0276333  -0.0277708
  -0.01695503]]
[[ 0.00769837  0.0164877  -0.0413582  -0.01692431  0.01471141  0.00119701
  -0.00388674]
 [ 0.0164877   0.11986629  0.03647504  0.05804227  0.17523666  0.03385536
   0.00786225]
 [-0.0413582   0.03647504 -0.15384793 -0.2251808   0.03844805 -0.24660691
  -0.05387413]
 [-0.01692431  0.05804227 -0.2251808  -0.10410371  0.27221559 -0.17584469
   0.04179919]
 [ 0.01471141  0.17523666  0.03844805  0.27221559  0.43044758 -0.04550816
   0.04448677]
 [ 0.00119701  0.03385536 -0.24660691 -0.17584469 -0.04550816 -0.13023387
  -0.0232275 ]
 [-0.00388674  0.00786225 -0.05387413  0.04179919  0.04448677 -0.0232275
  -0.01211234]]
[[-0.00806452 -0.00133109 -0.03145662 -0.03234924  0.00725189  0.00239001
  -0.00378483]
 [-0.00133109  0.07647263  0.02330496  0.0337912   0.14025633  0.04161437
   0.01917383]
 [-0.03145662  0.02330496 -0.13694108 -0.20653376  0.0174644  -0.19342743
  -0.02198422]
 [-0.03234924  0.0337912  -0.20653376 -0.1168799   0.19854294 -0.13307925
   0.04832256]
 [ 0.00725189  0.14025633  0.0174644   0.19854294  0.34663445 -0.01187759
   0.05570667]
 [ 0.00239001  0.04161437 -0.19342743 -0.13307925 -0.01187759 -0.07591046
   0.00610679]
 [-0.00378483  0.01917383 -0.02198422  0.04832256  0.05570667  0.00610679
   0.0172521 ]]
[[ -2.40142681e-02   2.94746133e-03   5.30771051e-03  -5.02107595e-03
   -1.43864189e-02  -8.41169501e-03  -6.34463649e-03]
 [  2.94746133e-03   1.03515415e-02  -2.56571545e-03   6.83973059e-02
   -1.97149815e-03   1.85111919e-02   6.51059661e-03]
 [  5.30771051e-03  -2.56571545e-03  -9.09816325e-02   2.61624980e-02
   -1.74418375e-01  -1.30150650e-03   8.95400903e-03]
 [ -5.02107595e-03   6.83973059e-02   2.61624980e-02   3.50111455e-01
    1.86807510e-02   1.04811329e-01   1.42282331e-02]
 [ -1.43864189e-02  -1.97149815e-03  -1.74418375e-01   1.86807510e-02
   -2.39472747e-01  -3.65925078e-02  -1.75805455e-02]
 [ -8.41169501e-03   1.85111919e-02  -1.30150650e-03   1.04811329e-01
   -3.65925078e-02   3.46245095e-02  -3.77057305e-03]
 [ -6.34463649e-03   6.51059661e-03   8.95400903e-03   1.42282331e-02
   -1.75805455e-02  -3.77057305e-03   3.05553956e-04]]
[[  1.27856331e-02  -1.20311050e-04   1.27940001e-02   2.80896942e-02
    2.11611511e-02  -1.66394190e-03   1.01401964e-02]
 [ -1.20311050e-04  -3.16955335e-02  -4.46114707e-02   7.95011969e-02
   -4.26333878e-02  -2.53123138e-02  -8.95074245e-03]
 [  1.27940001e-02  -4.46114707e-02  -2.01176405e-01   5.88033050e-02
   -2.83171892e-01  -4.41172440e-02   1.77599182e-02]
 [  2.80896942e-02   7.95011969e-02   5.88033050e-02   6.55191660e-01
    6.11511765e-02   1.55875547e-01   3.92019618e-02]
 [  2.11611511e-02  -4.26333878e-02  -2.83171892e-01   6.11511765e-02
   -3.66222471e-01  -6.70140703e-02   1.01833235e-03]
 [ -1.66394190e-03  -2.53123138e-02  -4.41172440e-02   1.55875547e-01
   -6.70140703e-02  -1.95930041e-02  -1.31110679e-02]
 [  1.01401964e-02  -8.95074245e-03   1.77599182e-02   3.92019618e-02
    1.01833235e-03  -1.31110679e-02   4.15171264e-03]]
[[ 0.02708624  0.01296414  0.01265077  0.04563524  0.03208265  0.01986294
   0.01456968]
 [ 0.01296414 -0.03315664 -0.05413082  0.06390715 -0.03504633 -0.02134687
  -0.01759886]
 [ 0.01265077 -0.05413082 -0.21336126  0.02138615 -0.25989705 -0.05909357
  -0.01810354]
 [ 0.04563524  0.06390715  0.02138615  0.5422647   0.07576969  0.1545651
   0.03198792]
 [ 0.03208265 -0.03504633 -0.25989705  0.07576969 -0.26842696 -0.0301901
   0.00436102]
 [ 0.01986294 -0.02134687 -0.05909357  0.1545651  -0.0301901  -0.00433609
   0.00163377]
 [ 0.01456968 -0.01759886 -0.01810354  0.03198792  0.00436102  0.00163377
   0.01733219]]
[[ 0.04088813  0.0174546   0.0032743   0.01047236 -0.0027453   0.00594994
   0.01708815]
 [ 0.0174546   0.00824313 -0.01002076  0.00274209 -0.00990454 -0.01356487
   0.00252149]
 [ 0.0032743  -0.01002076  0.01469518  0.00028881  0.00783702  0.00709455
  -0.00526008]
 [ 0.01047236  0.00274209  0.00028881  0.01685742  0.04038069  0.02301284
   0.00672511]
 [-0.0027453  -0.00990454  0.00783702  0.04038069  0.05162175  0.04074416
  -0.03014662]
 [ 0.00594994 -0.01356487  0.00709455  0.02301284  0.04074416  0.0307707
  -0.0319045 ]
 [ 0.01708815  0.00252149 -0.00526008  0.00672511 -0.03014662 -0.0319045
   0.0390636 ]]
[[ 0.05418678  0.02461509 -0.00085808 -0.00175988 -0.00664085  0.00066617
   0.01347682]
 [ 0.02461509  0.01444287 -0.00474051 -0.00180574 -0.01039231 -0.0207847
  -0.00095988]
 [-0.00085808 -0.00474051  0.00946768 -0.00243292 -0.00223118 -0.03342168
  -0.03552876]
 [-0.00175988 -0.00180574 -0.00243292 -0.00748972 -0.00013833 -0.04030785
  -0.05881581]
 [-0.00664085 -0.01039231 -0.00223118 -0.00013833 -0.02268495 -0.05931703
  -0.12754149]
 [ 0.00066617 -0.0207847  -0.03342168 -0.04030785 -0.05931703 -0.09346022
  -0.11759326]
 [ 0.01347682 -0.00095988 -0.03552876 -0.05881581 -0.12754149 -0.11759326
  -0.00581334]]
[[ 0.06648442  0.01636827  0.00277741  0.00602545  0.00596162 -0.00575277
  -0.0058481 ]
 [ 0.01636827 -0.00919982 -0.01134836  0.00307432  0.00072615 -0.01802378
  -0.01332363]
 [ 0.00277741 -0.01134836 -0.0023083  -0.00142742  0.00407517 -0.01058355
  -0.03857942]
 [ 0.00602545  0.00307432 -0.00142742 -0.00071318 -0.00549389 -0.02759294
  -0.05614174]
 [ 0.00596162  0.00072615  0.00407517 -0.00549389 -0.03364408 -0.06032421
  -0.114269  ]
 [-0.00575277 -0.01802378 -0.01058355 -0.02759294 -0.06032421 -0.11559133
  -0.12438286]
 [-0.0058481  -0.01332363 -0.03857942 -0.05614174 -0.114269   -0.12438286
  -0.00955148]]
[[-0.10921046 -0.03283013 -0.02299103  0.00257893  0.09276788  0.00974005
  -0.04038901]
 [-0.03283013  0.01739122 -0.00207835  0.0120456   0.07377844  0.02486466
  -0.01473726]
 [-0.02299103 -0.00207835 -0.0037699  -0.00270465  0.0259545  -0.01098384
  -0.0518778 ]
 [ 0.00257893  0.0120456  -0.00270465  0.0522924   0.0368568  -0.00045682
  -0.06347739]
 [ 0.09276788  0.07377844  0.0259545   0.0368568   0.02453878 -0.0020461
  -0.03582461]
 [ 0.00974005  0.02486466 -0.01098384 -0.00045682 -0.0020461  -0.00870534
  -0.03044887]
 [-0.04038901 -0.01473726 -0.0518778  -0.06347739 -0.03582461 -0.03044887
  -0.04578284]]
[[-0.05984417 -0.00045753  0.00756222  0.02317211  0.1101511   0.02983433
  -0.04812203]
 [-0.00045753  0.03637852  0.0193748   0.00618185  0.07149194  0.04087496
  -0.02181763]
 [ 0.00756222  0.0193748  -0.00263463 -0.01243059  0.00986403 -0.00254053
  -0.0442948 ]
 [ 0.02317211  0.00618185 -0.01243059  0.02646628  0.00749234 -0.00968147
  -0.06559371]
 [ 0.1101511   0.07149194  0.00986403  0.00749234 -0.00375634 -0.03264044
  -0.04067697]
 [ 0.02983433  0.04087496 -0.00254053 -0.00968147 -0.03264044 -0.02747067
  -0.01494844]
 [-0.04812203 -0.02181763 -0.0442948  -0.06559371 -0.04067697 -0.01494844
  -0.00364634]]
[[ -5.53869009e-02   7.01859506e-03   8.54830583e-03   3.05011664e-02
    1.21319034e-01   4.65905854e-02  -4.14804509e-02]
 [  7.01859506e-03   3.55149955e-02   1.37855857e-02   1.06750983e-02
    9.01414940e-02   7.80931698e-02   7.03688619e-03]
 [  8.54830583e-03   1.37855857e-02  -1.22685181e-02  -5.52631915e-04
    3.88760697e-02   3.12969415e-02  -1.08406269e-02]
 [  3.05011664e-02   1.06750983e-02  -5.52631915e-04   3.51994336e-02
    2.76092617e-02   7.46298583e-03  -3.44154117e-02]
 [  1.21319034e-01   9.01414940e-02   3.88760697e-02   2.76092617e-02
   -1.00445061e-04  -2.02664090e-02  -1.89619689e-02]
 [  4.65905854e-02   7.80931698e-02   3.12969415e-02   7.46298583e-03
   -2.02664090e-02  -1.49824833e-02   1.09954880e-02]
 [ -4.14804509e-02   7.03688619e-03  -1.08406269e-02  -3.44154117e-02
   -1.89619689e-02   1.09954880e-02   2.92288251e-02]]
[[-0.01500255  0.0226847  -0.00433479 -0.00994461  0.01570402  0.06631922
   0.01984369]
 [ 0.0226847   0.02128179 -0.0011664   0.01821251  0.05569999  0.04618541
  -0.0157894 ]
 [-0.00433479 -0.0011664  -0.00111096  0.02456438  0.05990411  0.03143968
  -0.01678581]
 [-0.00994461  0.01821251  0.02456438  0.08907631  0.10526227  0.02100293
  -0.0244867 ]
 [ 0.01570402  0.05569999  0.05990411  0.10526227  0.04680752 -0.02059863
  -0.04598285]
 [ 0.06631922  0.04618541  0.03143968  0.02100293 -0.02059863 -0.06020063
  -0.11668528]
 [ 0.01984369 -0.0157894  -0.01678581 -0.0244867  -0.04598285 -0.11668528
  -0.12399582]]
[[-0.04770245  0.01854438  0.02392404  0.02919907  0.04890219  0.0833739
   0.00739294]
 [ 0.01854438  0.05164403  0.05190365  0.0678538   0.08496286  0.04048111
  -0.03418106]
 [ 0.02392404  0.05190365  0.07485543  0.07574605  0.07957512  0.02446122
  -0.03660564]
 [ 0.02919907  0.0678538   0.07574605  0.11691493  0.10846961 -0.0003242
  -0.05711016]
 [ 0.04890219  0.08496286  0.07957512  0.10846961  0.02356644 -0.05913732
  -0.0883132 ]
 [ 0.0833739   0.04048111  0.02446122 -0.0003242  -0.05913732 -0.08847157
  -0.13448394]
 [ 0.00739294 -0.03418106 -0.03660564 -0.05711016 -0.0883132  -0.13448394
  -0.13479838]]
[[ 0.07281254  0.08469383  0.01376638 -0.00779203 -0.01874143  0.03501452
   0.0024733 ]
 [ 0.08469383  0.03949241 -0.03511216 -0.05531678 -0.04356552 -0.04963029
  -0.07319354]
 [ 0.01376638 -0.03511216 -0.09466887 -0.10492795 -0.08613576 -0.08670727
  -0.06434167]
 [-0.00779203 -0.05531678 -0.10492795 -0.06789117 -0.04851827 -0.06576224
  -0.01665108]
 [-0.01874143 -0.04356552 -0.08613576 -0.04851827 -0.08001292 -0.03412431
   0.03709072]
 [ 0.03501452 -0.04963029 -0.08670727 -0.06576224 -0.03412431  0.04647643
   0.06618024]
 [ 0.0024733  -0.07319354 -0.06434167 -0.01665108  0.03709072  0.06618024
   0.11628547]]
[[ 0.05361005  0.03333046  0.01655494  0.0044896  -0.01852504  0.00365321
   0.07464049]
 [ 0.03333046  0.024907   -0.00189679 -0.01479541 -0.0723006  -0.07673052
   0.02788538]
 [ 0.01655494 -0.00189679  0.00984714 -0.00664585 -0.04847231 -0.09127191
  -0.00436302]
 [ 0.0044896  -0.01479541 -0.00664585 -0.01350323 -0.02604382 -0.05474923
  -0.01683898]
 [-0.01852504 -0.0723006  -0.04847231 -0.02604382  0.00283213  0.00451736
   0.01954461]
 [ 0.00365321 -0.07673052 -0.09127191 -0.05474923  0.00451736  0.02082079
   0.05311895]
 [ 0.07464049  0.02788538 -0.00436302 -0.01683898  0.01954461  0.05311895
   0.10147413]]
[[-0.05931876 -0.01533208 -0.00732935 -0.01350165 -0.03811664 -0.02913287
   0.00716778]
 [-0.01533208  0.0358483   0.03905081  0.01509276 -0.04292331 -0.07772218
  -0.01398686]
 [-0.00732935  0.03905081  0.0985546   0.0850709   0.03015601 -0.07222989
  -0.0266338 ]
 [-0.01350165  0.01509276  0.0850709   0.11033164  0.08557232 -0.01132179
  -0.04100007]
 [-0.03811664 -0.04292331  0.03015601  0.08557232  0.11361825  0.04570161
  -0.00982439]
 [-0.02913287 -0.07772218 -0.07222989 -0.01132179  0.04570161  0.01820148
  -0.01357685]
 [ 0.00716778 -0.01398686 -0.0266338  -0.04100007 -0.00982439 -0.01357685
  -0.01726481]]
[[-0.08508166 -0.03449595 -0.0174118  -0.02700418 -0.04456665 -0.0301534
  -0.01116845]
 [-0.03449595  0.03001325  0.04370433  0.01529174 -0.03670419 -0.0702212
  -0.03100001]
 [-0.0174118   0.04370433  0.10874481  0.09551957  0.04462539 -0.06049069
  -0.04566498]
 [-0.02700418  0.01529174  0.09551957  0.12730381  0.09892204 -0.00083837
  -0.06080686]
 [-0.04456665 -0.03670419  0.04462539  0.09892204  0.13357234  0.06410898
  -0.01674595]
 [-0.0301534  -0.0702212  -0.06049069 -0.00083837  0.06410898  0.04010322
  -0.01200354]
 [-0.01116845 -0.03100001 -0.04566498 -0.06080686 -0.01674595 -0.01200354
  -0.05081462]]
[[-0.02020625  0.04077501 -0.02224649  0.04655849 -0.05270243  0.0008081
  -0.00073251]
 [ 0.04077501 -0.01845218  0.02220576 -0.07822155  0.05203049 -0.01737231
   0.00080289]
 [-0.02224649  0.02220576  0.08407812 -0.14535733  0.1297976   0.02148198
  -0.05179802]
 [ 0.04655849 -0.07822155 -0.14535733  0.46787718 -0.33417402  0.02819205
   0.06117448]
 [-0.05270243  0.05203049  0.1297976  -0.33417402  0.36642033 -0.09062471
  -0.06887906]
 [ 0.0008081  -0.01737231  0.02148198  0.02819205 -0.09062471  0.01512174
   0.03418878]
 [-0.00073251  0.00080289 -0.05179802  0.06117448 -0.06887906  0.03418878
   0.01903268]]
[[-0.02332805  0.04247556 -0.05044174  0.07780497 -0.0383224   0.01561624
   0.00661356]
 [ 0.04247556 -0.0342618   0.03865636 -0.13171072  0.10487547 -0.01482148
   0.01075464]
 [-0.05044174  0.03865636  0.09040694 -0.20077449  0.12848913  0.03533354
  -0.05743467]
 [ 0.07780497 -0.13171072 -0.20077449  0.63313895 -0.5250879  -0.02167677
   0.13452419]
 [-0.0383224   0.10487547  0.12848913 -0.5250879   0.51109302 -0.07695978
  -0.10342681]
 [ 0.01561624 -0.01482148  0.03533354 -0.02167677 -0.07695978  0.02624096
   0.03613242]
 [ 0.00661356  0.01075464 -0.05743467  0.13452419 -0.10342681  0.03613242
  -0.02665422]]
[[-0.01793914  0.03212697 -0.05740056  0.05843538 -0.04226646 -0.00914502
   0.00654618]
 [ 0.03212697 -0.00981083  0.05105482 -0.10952075  0.05559285 -0.02472543
   0.00785286]
 [-0.05740056  0.05105482  0.1307935  -0.1897628   0.09463558  0.01658403
  -0.05421426]
 [ 0.05843538 -0.10952075 -0.1897628   0.53752351 -0.42382561 -0.01088991
   0.10696779]
 [-0.04226646  0.05559285  0.09463558 -0.42382561  0.47629553 -0.05664431
  -0.08006697]
 [-0.00914502 -0.02472543  0.01658403 -0.01088991 -0.05664431  0.03301841
   0.02853868]
 [ 0.00654618  0.00785286 -0.05421426  0.10696779 -0.08006697  0.02853868
  -0.01028402]]
[[ 0.00307403  0.01010418 -0.00210722 -0.02246833 -0.01362587  0.02876989
   0.01408174]
 [ 0.01010418  0.02504181  0.03041608  0.00244363  0.00608799  0.08813475
   0.02696131]
 [-0.00210722  0.03041608 -0.01382734 -0.05267909 -0.07054991  0.06066883
  -0.02035025]
 [-0.02246833  0.00244363 -0.05267909 -0.15859029 -0.14846323  0.00939895
  -0.05496689]
 [-0.01362587  0.00608799 -0.07054991 -0.14846323 -0.10046447  0.06459671
   0.00342684]
 [ 0.02876989  0.08813475  0.06066883  0.00939895  0.06459671  0.12498011
   0.06090619]
 [ 0.01408174  0.02696131 -0.02035025 -0.05496689  0.00342684  0.06090619
   0.02382776]]
[[ 0.00597766  0.03050014  0.02315196 -0.02968327 -0.03327521  0.02191117
   0.01646845]
 [ 0.03050014  0.08589355  0.10253327  0.03849783  0.00702855  0.1133535
   0.05280478]
 [ 0.02315196  0.10253327  0.08108132 -0.02818265 -0.09730553  0.08694762
   0.00835291]
 [-0.02968327  0.03849783 -0.02818265 -0.24161322 -0.26948224 -0.01406825
  -0.05939656]
 [-0.03327521  0.00702855 -0.09730553 -0.26948224 -0.22334319  0.03532435
  -0.00384324]
 [ 0.02191117  0.1133535   0.08694762 -0.01406825  0.03532435  0.14340287
   0.0634817 ]
 [ 0.01646845  0.05280478  0.00835291 -0.05939656 -0.00384324  0.0634817
   0.02301869]]
[[-0.02185769  0.01333477  0.01129171 -0.04321184 -0.07094917 -0.01212259
  -0.00337544]
 [ 0.01333477  0.10458628  0.13828554  0.07212794  0.01401442  0.09954369
   0.05498407]
 [ 0.01129171  0.13828554  0.13934639  0.05193538 -0.05327902  0.0858048
   0.02415601]
 [-0.04321184  0.07212794  0.05193538 -0.13122714 -0.20189142 -0.01042331
  -0.05348266]
 [-0.07094917  0.01401442 -0.05327902 -0.20189142 -0.21367733 -0.01830305
  -0.04604015]
 [-0.01212259  0.09954369  0.0858048  -0.01042331 -0.01830305  0.04763021
  -0.00649185]
 [-0.00337544  0.05498407  0.02415601 -0.05348266 -0.04604015 -0.00649185
  -0.04506608]]
[[ 0.14381276  0.09374909  0.02190503  0.00768702 -0.02440798 -0.04817203
   0.01520732]
 [ 0.09374909  0.10562077  0.01756053 -0.00302031 -0.04380899 -0.07685048
  -0.04625504]
 [ 0.02190503  0.01756053  0.00644155 -0.00107225 -0.02601472 -0.03126388
  -0.01410884]
 [ 0.00768702 -0.00302031 -0.00107225 -0.01402112 -0.02795826 -0.03040798
   0.00128035]
 [-0.02440798 -0.04380899 -0.02601472 -0.02795826 -0.03877836 -0.01994033
  -0.00281591]
 [-0.04817203 -0.07685048 -0.03126388 -0.03040798 -0.01994033  0.02723976
   0.05345116]
 [ 0.01520732 -0.04625504 -0.01410884  0.00128035 -0.00281591  0.05345116
   0.11236607]]
[[-0.01339192  0.00266341 -0.02141488 -0.01057194  0.00924325 -0.02497161
  -0.01803764]
 [ 0.00266341  0.03212126 -0.00549484  0.01124747  0.03641054 -0.00180531
  -0.04370845]
 [-0.02141488 -0.00549484 -0.02438724 -0.01333865  0.04209749  0.04888484
   0.00857503]
 [-0.01057194  0.01124747 -0.01333865 -0.06653383 -0.01350924  0.01834595
  -0.00971638]
 [ 0.00924325  0.03641054  0.04209749 -0.01350924 -0.02920427 -0.00590559
  -0.02010822]
 [-0.02497161 -0.00180531  0.04888484  0.01834595 -0.00590559 -0.00202063
  -0.01402888]
 [-0.01803764 -0.04370845  0.00857503 -0.00971638 -0.02010822 -0.01402888
  -0.01140107]]
[[-0.10289952 -0.06769696 -0.06940498  0.00334948  0.07503679  0.02876203
  -0.03015879]
 [-0.06769696 -0.04322667 -0.05616509  0.0236486   0.12048816  0.09048593
  -0.00017842]
 [-0.06940498 -0.05616509 -0.07131688 -0.03568618  0.09427038  0.1221404
   0.03257407]
 [ 0.00334948  0.0236486  -0.03568618 -0.10988246 -0.00948995  0.06192025
   0.00699012]
 [ 0.07503679  0.12048816  0.09427038 -0.00948995 -0.0227256   0.0224474
  -0.02342184]
 [ 0.02876203  0.09048593  0.1221404   0.06192025  0.0224474  -0.00264559
  -0.06378525]
 [-0.03015879 -0.00017842  0.03257407  0.00699012 -0.02342184 -0.06378525
  -0.10451315]]
[[-0.03211203 -0.01522883  0.03033227  0.0094864  -0.01594422 -0.05118298
  -0.06484047]
 [-0.01522883  0.01636664  0.02384652  0.02264926 -0.01789066 -0.03164388
  -0.08393468]
 [ 0.03033227  0.02384652  0.00414752  0.01577033 -0.02679857 -0.02932429
  -0.07401017]
 [ 0.0094864   0.02264926  0.01577033 -0.02880699 -0.01461112 -0.04247005
  -0.04736771]
 [-0.01594422 -0.01789066 -0.02679857 -0.01461112  0.02147671 -0.00660975
  -0.00746053]
 [-0.05118298 -0.03164388 -0.02932429 -0.04247005 -0.00660975  0.01925516
   0.04828225]
 [-0.06484047 -0.08393468 -0.07401017 -0.04736771 -0.00746053  0.04828225
   0.02977345]]
[[-0.02660959  0.00019637  0.07281461  0.06988223  0.07035031  0.03828831
   0.00674041]
 [ 0.00019637  0.04293023  0.07175022  0.09214366  0.07957794  0.06748395
   0.01229704]
 [ 0.07281461  0.07175022  0.05473037  0.11004294  0.09212318  0.07121164
   0.01392681]
 [ 0.06988223  0.09214366  0.11004294  0.08586857  0.10561265  0.05770165
   0.03354099]
 [ 0.07035031  0.07957794  0.09212318  0.10561265  0.12987663  0.08150618
   0.04203143]
 [ 0.03828831  0.06748395  0.07121164  0.05770165  0.08150618  0.05892085
   0.04366149]
 [ 0.00674041  0.01229704  0.01392681  0.03354099  0.04203143  0.04366149
  -0.00725679]]
[[ 0.02432931 -0.00552384  0.01783444 -0.00882926 -0.01892014 -0.0610163
  -0.07064655]
 [-0.00552384 -0.02352467 -0.05137471 -0.04901771 -0.0639194  -0.06837099
  -0.08063397]
 [ 0.01783444 -0.05137471 -0.11967501 -0.07913424 -0.08699039 -0.07344438
  -0.08502657]
 [-0.00882926 -0.04901771 -0.07913424 -0.11311865 -0.08352861 -0.08331913
  -0.04450225]
 [-0.01892014 -0.0639194  -0.08699039 -0.08352861 -0.0635558  -0.05628026
  -0.0098313 ]
 [-0.0610163  -0.06837099 -0.07344438 -0.08331913 -0.05628026 -0.0184337
   0.04515571]
 [-0.07064655 -0.08063397 -0.08502657 -0.04450225 -0.0098313   0.04515571
   0.05000722]]
[[ 0.01309685  0.00661996 -0.03750921 -0.02269726 -0.02428077 -0.02335864
  -0.00499933]
 [ 0.00661996  0.03830903  0.00600592  0.00563101  0.02818746 -0.03696217
  -0.03878056]
 [-0.03750921  0.00600592 -0.02719896  0.00547169  0.1378026   0.04824799
  -0.02603406]
 [-0.02269726  0.00563101  0.00547169 -0.15992437 -0.01015371  0.0489812
   0.02717469]
 [-0.02428077  0.02818746  0.1378026  -0.01015371 -0.0527893  -0.00721426
  -0.00333369]
 [-0.02335864 -0.03696217  0.04824799  0.0489812  -0.00721426  0.00938497
   0.00469005]
 [-0.00499933 -0.03878056 -0.02603406  0.02717469 -0.00333369  0.00469005
   0.01808107]]
[[-0.00180547  0.00503086 -0.04359823  0.02577951  0.0257846  -0.01106096
  -0.01422979]
 [ 0.00503086  0.05372878 -0.01178088  0.0557937   0.1478416   0.02175683
  -0.01796248]
 [-0.04359823 -0.01178088 -0.15437254 -0.09902033  0.25789565  0.16884124
   0.03080694]
 [ 0.02577951  0.0557937  -0.09902033 -0.50062877 -0.15251675  0.08644265
   0.06947278]
 [ 0.0257846   0.1478416   0.25789565 -0.15251675 -0.22888324 -0.06481516
  -0.02587121]
 [-0.01106096  0.02175683  0.16884124  0.08644265 -0.06481516  0.00130414
  -0.01358695]
 [-0.01422979 -0.01796248  0.03080694  0.06947278 -0.02587121 -0.01358695
  -0.01535691]]
[[ 0.01135763  0.00377965 -0.02788859  0.05426753  0.0652731   0.02891049
   0.02554368]
 [ 0.00377965  0.0196289  -0.04519309  0.0461399   0.15213497  0.04409648
   0.00903214]
 [-0.02788859 -0.04519309 -0.23544771 -0.15979913  0.20494808  0.15683041
   0.04974372]
 [ 0.05426753  0.0461399  -0.15979913 -0.52011466 -0.1870833   0.0650574
   0.07655852]
 [ 0.0652731   0.15213497  0.20494808 -0.1870833  -0.24942285 -0.06452261
  -0.02619149]
 [ 0.02891049  0.04409648  0.15683041  0.0650574  -0.06452261  0.02656907
  -0.00259293]
 [ 0.02554368  0.00903214  0.04974372  0.07655852 -0.02619149 -0.00259293
   0.00430069]]
[[ 0.21347533  0.1587181   0.08562509  0.0154906  -0.0003727   0.01915321
   0.11814269]
 [ 0.1587181   0.0515082  -0.07836187 -0.17124533 -0.19422975 -0.08992253
   0.02306726]
 [ 0.08562509 -0.07836187 -0.2833598  -0.3272731  -0.27082827 -0.10902288
  -0.01908801]
 [ 0.0154906  -0.17124533 -0.3272731  -0.29679489 -0.15753154  0.00636796
   0.09935384]
 [-0.0003727  -0.19422975 -0.27082827 -0.15753154  0.08203792  0.17895279
   0.21129793]
 [ 0.01915321 -0.08992253 -0.10902288  0.00636796  0.17895279  0.21911301
   0.21914741]
 [ 0.11814269  0.02306726 -0.01908801  0.09935384  0.21129793  0.21914741
   0.24641003]]
[[-0.18336813 -0.11360809 -0.04141873  0.02132884  0.03205779 -0.00144353
  -0.02921968]
 [-0.11360809 -0.04445356  0.06172013  0.14137451  0.12240719  0.06126507
  -0.00062054]
 [-0.04141873  0.06172013  0.15758833  0.24055256  0.194681    0.10014113
  -0.02413674]
 [ 0.02132884  0.14137451  0.24055256  0.26215568  0.13021385  0.0112653
  -0.07546274]
 [ 0.03205779  0.12240719  0.194681    0.13021385  0.02646273 -0.10643078
  -0.16621029]
 [-0.00144353  0.06126507  0.10014113  0.0112653  -0.10643078 -0.22409557
  -0.24950688]
 [-0.02921968 -0.00062054 -0.02413674 -0.07546274 -0.16621029 -0.24950688
  -0.27517039]]
[[ 0.01842095 -0.00829631 -0.0415832  -0.01029029 -0.00243043 -0.02136172
  -0.02975302]
 [-0.00829631 -0.03700491 -0.02866863  0.03880268  0.03741731  0.01381874
  -0.00209342]
 [-0.0415832  -0.02866863 -0.00294735  0.07632266  0.05260298  0.02915437
  -0.01605897]
 [-0.01029029  0.03880268  0.07632266  0.04794396 -0.03235901 -0.03988575
  -0.01616851]
 [-0.00243043  0.03741731  0.05260298 -0.03235901 -0.07647587 -0.07063147
  -0.00025468]
 [-0.02136172  0.01381874  0.02915437 -0.03988575 -0.07063147 -0.02903967
   0.02312191]
 [-0.02975302 -0.00209342 -0.01605897 -0.01616851 -0.00025468  0.02312191
   0.05860744]]
[[ 0.09078921  0.04454089  0.0111639  -0.00578769 -0.03421382  0.04513752
   0.07112002]
 [ 0.04454089 -0.03157767 -0.04008597 -0.0419535  -0.06855446 -0.03482698
  -0.00505764]
 [ 0.0111639  -0.04008597 -0.02359935 -0.02760576 -0.07862301 -0.06750395
  -0.03783528]
 [-0.00578769 -0.0419535  -0.02760576  0.00390653 -0.01352612 -0.06336471
  -0.01671555]
 [-0.03421382 -0.06855446 -0.07862301 -0.01352612 -0.03763751 -0.07756753
  -0.00208358]
 [ 0.04513752 -0.03482698 -0.06750395 -0.06336471 -0.07756753 -0.06396437
   0.00839495]
 [ 0.07112002 -0.00505764 -0.03783528 -0.01671555 -0.00208358  0.00839495
   0.03597543]]
[[ 0.03926116  0.04172691  0.025847    0.01053473 -0.01075703  0.04854645
   0.05371651]
 [ 0.04172691  0.01230913  0.02126908  0.02071041 -0.00995966  0.01201451
   0.00763821]
 [ 0.025847    0.02126908  0.06306549  0.06180763 -0.00301447 -0.01421108
  -0.03776909]
 [ 0.01053473  0.02071041  0.06180763  0.08462828  0.05858097 -0.01591461
  -0.04941619]
 [-0.01075703 -0.00995966 -0.00301447  0.05858097  0.02860972 -0.06208416
  -0.06711761]
 [ 0.04854645  0.01201451 -0.01421108 -0.01591461 -0.06208416 -0.10483071
  -0.10677208]
 [ 0.05371651  0.00763821 -0.03776909 -0.04941619 -0.06711761 -0.10677208
  -0.13747491]]
[[ 0.02510425  0.0552091   0.04599877  0.02269565  0.00204999  0.05454692
   0.05088593]
 [ 0.0552091   0.03214365  0.03451745  0.02584183  0.02621983  0.0361669
   0.00999056]
 [ 0.04599877  0.03451745  0.07977065  0.07880076  0.03782507  0.02347587
  -0.03160384]
 [ 0.02269565  0.02584183  0.07880076  0.08705226  0.08108325  0.01182837
  -0.05401337]
 [ 0.00204999  0.02621983  0.03782507  0.08108325  0.06862897 -0.0199079
  -0.06485721]
 [ 0.05454692  0.0361669   0.02347587  0.01182837 -0.0199079  -0.06531905
  -0.12209733]
 [ 0.05088593  0.00999056 -0.03160384 -0.05401337 -0.06485721 -0.12209733
  -0.20952615]]
[[-0.00931123  0.0019277  -0.00364125 -0.01744153 -0.02310075  0.00878643
   0.00362979]
 [ 0.0019277  -0.01252738  0.01875099 -0.03745568 -0.12135128  0.00054508
   0.0147913 ]
 [-0.00364125  0.01875099  0.12831785  0.10766172 -0.18172684 -0.1486659
  -0.03148078]
 [-0.01744153 -0.03745568  0.10766172  0.33712462  0.12753238 -0.08015204
  -0.02834459]
 [-0.02310075 -0.12135128 -0.18172684  0.12753238  0.18428046  0.040579
   0.02421411]
 [ 0.00878643  0.00054508 -0.1486659  -0.08015204  0.040579    0.00514664
   0.00621859]
 [ 0.00362979  0.0147913  -0.03148078 -0.02834459  0.02421411  0.00621859
   0.02449368]]
[[-0.00067059  0.00095292  0.01683511 -0.02816902 -0.04872268  0.0113608
   0.02096497]
 [ 0.00095292  0.01310834  0.05863711 -0.08536011 -0.23844112 -0.03120538
   0.03689628]
 [ 0.01683511  0.05863711  0.25995192  0.19243455 -0.30929589 -0.29447219
  -0.05416396]
 [-0.02816902 -0.08536011  0.19243455  0.61445004  0.23256513 -0.16707417
  -0.07965943]
 [-0.04872268 -0.23844112 -0.30929589  0.23256513  0.36628985  0.08341937
   0.01816886]
 [ 0.0113608  -0.03120538 -0.29447219 -0.16707417  0.08341937  0.03422994
  -0.00433288]
 [ 0.02096497  0.03689628 -0.05416396 -0.07965943  0.01816886 -0.00433288
  -0.00280441]]
[[ 0.00715552 -0.00257939  0.00109857  0.00921302  0.00343501  0.04281273
   0.0408847 ]
 [-0.00257939 -0.01650078  0.01454543 -0.0680782  -0.15823065  0.01481823
   0.0652167 ]
 [ 0.00109857  0.01454543  0.13550523  0.09587391 -0.26634901 -0.2136179
  -0.01076056]
 [ 0.00921302 -0.0680782   0.09587391  0.41022459  0.12546432 -0.13981006
  -0.0438839 ]
 [ 0.00343501 -0.15823065 -0.26634901  0.12546432  0.25807047  0.04531457
   0.00918915]
 [ 0.04281273  0.01481823 -0.2136179  -0.13981006  0.04531457  0.01436112
   0.00351783]
 [ 0.0408847   0.0652167  -0.01076056 -0.0438839   0.00918915  0.00351783
   0.00631518]]
[[ 0.07077063  0.04205163  0.04232783  0.04691918  0.05095885  0.05564181
   0.08011271]
 [ 0.04205163  0.04110473  0.03981672  0.03535098  0.03123262  0.00673335
   0.0013418 ]
 [ 0.04232783  0.03981672  0.09625     0.08190827  0.06128253  0.01754362
  -0.02562748]
 [ 0.04691918  0.03535098  0.08190827  0.11287834  0.1023714   0.03150849
  -0.04652206]
 [ 0.05095885  0.03123262  0.06128253  0.1023714   0.03806842 -0.02489495
  -0.07745165]
 [ 0.05564181  0.00673335  0.01754362  0.03150849 -0.02489495 -0.08739393
  -0.1363278 ]
 [ 0.08011271  0.0013418  -0.02562748 -0.04652206 -0.07745165 -0.1363278
  -0.19362146]]
[[ 0.13804173  0.06777342  0.02743826  0.00617255 -0.00024139  0.02250863
   0.07898471]
 [ 0.06777342  0.0195372  -0.02843027 -0.05068017 -0.05518995 -0.0551499
  -0.01566603]
 [ 0.02743826 -0.02843027 -0.02181608 -0.03692562 -0.04660586 -0.06354391
  -0.05672506]
 [ 0.00617255 -0.05068017 -0.03692562 -0.01714034 -0.00720464 -0.0358662
  -0.06058536]
 [-0.00024139 -0.05518995 -0.04660586 -0.00720464 -0.04906276 -0.06466046
  -0.04954952]
 [ 0.02250863 -0.0551499  -0.06354391 -0.0358662  -0.06466046 -0.06680174
  -0.05568745]
 [ 0.07898471 -0.01566603 -0.05672506 -0.06058536 -0.04954952 -0.05568745
  -0.04635566]]
[[ 0.09578956  0.04991703  0.02764057  0.01345035  0.01036856  0.02764356
   0.07319773]
 [ 0.04991703  0.02500863 -0.00459739 -0.01212513 -0.02005335 -0.02799388
  -0.00187105]
 [ 0.02764057 -0.00459739  0.02769506  0.0253722   0.00993004 -0.01090998
  -0.02516296]
 [ 0.01345035 -0.01212513  0.0253722   0.04377538  0.04566746  0.01302475
  -0.02189827]
 [ 0.01036856 -0.02005335  0.00993004  0.04566746 -0.01124797 -0.04276194
  -0.04462419]
 [ 0.02764356 -0.02799388 -0.01090998  0.01302475 -0.04276194 -0.06468336
  -0.06885824]
 [ 0.07319773 -0.00187105 -0.02516296 -0.02189827 -0.04462419 -0.06885824
  -0.08623607]]
[[  2.81542190e-04   1.26280592e-02  -4.66563700e-04  -1.66375432e-02
    2.40579709e-02  -5.21440071e-03   9.57757934e-03]
 [  1.26280592e-02   6.49377853e-02  -4.51200118e-02  -7.05528371e-02
    6.20274620e-03  -4.83332109e-02  -1.52047120e-03]
 [ -4.66563700e-04  -4.51200118e-02  -2.92822838e-01  -1.05719211e-01
    2.11810843e-02  -6.39441433e-02   2.89947432e-02]
 [ -1.66375432e-02  -7.05528371e-02  -1.05719211e-01   1.96596935e-01
    1.22762536e-01   2.98412889e-02   8.22529774e-02]
 [  2.40579709e-02   6.20274620e-03   2.11810843e-02   1.22762536e-01
   -6.25412837e-02  -1.94015084e-02   2.63543315e-02]
 [ -5.21440071e-03  -4.83332109e-02  -6.39441433e-02   2.98412889e-02
   -1.94015084e-02   4.72275913e-02   1.66083794e-02]
 [  9.57757934e-03  -1.52047120e-03   2.89947432e-02   8.22529774e-02
    2.63543315e-02   1.66083794e-02   4.37682820e-03]]
[[ 0.00502673  0.02736419 -0.0039406  -0.01278134  0.07205173  0.0008148
   0.00514941]
 [ 0.02736419  0.11631863 -0.0799364  -0.06273972  0.07395987 -0.09327686
  -0.04070288]
 [-0.0039406  -0.0799364  -0.39491522 -0.03685716  0.12803285 -0.1220205
   0.0065946 ]
 [-0.01278134 -0.06273972 -0.03685716  0.4617087   0.23473859 -0.04875524
   0.07361823]
 [ 0.07205173  0.07395987  0.12803285  0.23473859 -0.17674963 -0.1694883
  -0.00653927]
 [ 0.0008148  -0.09327686 -0.1220205  -0.04875524 -0.1694883  -0.05371845
   0.00175814]
 [ 0.00514941 -0.04070288  0.0065946   0.07361823 -0.00653927  0.00175814
   0.01561354]]
[[ -4.12204601e-02  -1.32437162e-02  -2.00467399e-02   6.08976950e-04
    7.35195768e-02  -2.08178471e-03   3.40277330e-04]
 [ -1.32437162e-02   9.65874866e-02  -2.67065726e-02   6.82497210e-03
    1.09490143e-01  -5.81631809e-02  -3.29815746e-02]
 [ -2.00467399e-02  -2.67065726e-02  -2.33011484e-01   6.06649705e-02
    1.61764672e-01  -1.05906730e-01  -6.86521265e-03]
 [  6.08976950e-04   6.82497210e-03   6.06649705e-02   4.48718369e-01
    1.96991628e-01  -6.83185605e-02   1.68355140e-02]
 [  7.35195768e-02   1.09490143e-01   1.61764672e-01   1.96991628e-01
   -1.84525624e-01  -1.77564703e-01  -3.14725348e-02]
 [ -2.08178471e-03  -5.81631809e-02  -1.05906730e-01  -6.83185605e-02
   -1.77564703e-01  -6.79054633e-02  -8.20898101e-03]
 [  3.40277330e-04  -3.29815746e-02  -6.86521265e-03   1.68355140e-02
   -3.14725348e-02  -8.20898101e-03  -1.29461498e-03]]
[[-0.03819384 -0.00771996  0.00100833 -0.02925836 -0.04557631 -0.03918635
  -0.01120055]
 [-0.00771996 -0.01896469 -0.00865824 -0.02351306 -0.05181089 -0.06264619
  -0.02477507]
 [ 0.00100833 -0.00865824  0.06703586  0.0441142   0.00034189 -0.02602246
  -0.0051622 ]
 [-0.02925836 -0.02351306  0.0441142   0.0582142   0.05368033  0.02734649
   0.0135526 ]
 [-0.04557631 -0.05181089  0.00034189  0.05368033  0.0497545   0.03611176
   0.03347547]
 [-0.03918635 -0.06264619 -0.02602246  0.02734649  0.03611176 -0.00427613
  -0.01906437]
 [-0.01120055 -0.02477507 -0.0051622   0.0135526   0.03347547 -0.01906437
  -0.02123634]]
[[-0.07235443 -0.02255638  0.02418105  0.0303982   0.02328163  0.01449592
   0.02292796]
 [-0.02255638  0.02261102  0.07131724  0.05977788  0.0308138  -0.00524338
   0.00971732]
 [ 0.02418105  0.07131724  0.14178644  0.11833062  0.07448331  0.02007636
   0.01661564]
 [ 0.0303982   0.05977788  0.11833062  0.12487849  0.09513463  0.03038282
  -0.00358079]
 [ 0.02328163  0.0308138   0.07448331  0.09513463  0.04802961  0.00619715
  -0.03350098]
 [ 0.01449592 -0.00524338  0.02007636  0.03038282  0.00619715 -0.06233512
  -0.12137065]
 [ 0.02292796  0.00971732  0.01661564 -0.00358079 -0.03350098 -0.12137065
  -0.1493893 ]]
[[ 0.1329003   0.07896238  0.02089837 -0.03237622 -0.05463768 -0.01704319
   0.07254586]
 [ 0.07896238 -0.02776079 -0.08046292 -0.09940575 -0.11978711 -0.09520866
   0.02872894]
 [ 0.02089837 -0.08046292 -0.06320655 -0.07450092 -0.11131128 -0.08952685
   0.02794942]
 [-0.03237622 -0.09940575 -0.07450092 -0.05241396 -0.0596024  -0.05589915
   0.04312863]
 [-0.05463768 -0.11978711 -0.11131128 -0.0596024  -0.07863387 -0.02595346
   0.07064466]
 [-0.01704319 -0.09520866 -0.08952685 -0.05589915 -0.02595346  0.01590936
   0.08270995]
 [ 0.07254586  0.02872894  0.02794942  0.04312863  0.07064466  0.08270995
   0.15081424]]
[[-0.02265834  0.02399879  0.07194929 -0.00708403 -0.03697051  0.0110159
   0.02777679]
 [ 0.02399879  0.11904778  0.13719571  0.00773843 -0.04505416  0.02910554
   0.05577759]
 [ 0.07194929  0.13719571  0.04323607 -0.19064056 -0.15105419  0.02151419
   0.02157993]
 [-0.00708403  0.00773843 -0.19064056 -0.26642355 -0.12043856  0.03597989
   0.0194238 ]
 [-0.03697051 -0.04505416 -0.15105419 -0.12043856  0.01635542  0.0563733
   0.02692362]
 [ 0.0110159   0.02910554  0.02151419  0.03597989  0.0563733   0.04496179
   0.04508052]
 [ 0.02777679  0.05577759  0.02157993  0.0194238   0.02692362  0.04508052
   0.03117437]]
[[-0.0186284   0.05898372  0.10024295 -0.0059528  -0.04440721  0.01123814
   0.0336583 ]
 [ 0.05898372  0.21102966  0.20666373 -0.010542   -0.09950878  0.02599296
   0.05847612]
 [ 0.10024295  0.20666373  0.02371365 -0.33938461 -0.26837954 -0.00048112
   0.02212502]
 [-0.0059528  -0.010542   -0.33938461 -0.47010809 -0.20733909  0.06028148
   0.05138292]
 [-0.04440721 -0.09950878 -0.26837954 -0.20733909  0.03886674  0.1316022
   0.07142047]
 [ 0.01123814  0.02599296 -0.00048112  0.06028148  0.1316022   0.12195645
   0.090966  ]
 [ 0.0336583   0.05847612  0.02212502  0.05138292  0.07142047  0.090966
   0.06948004]]
[[-0.11624052 -0.05600331  0.01121006 -0.01337614 -0.03176271  0.01905388
  -0.01420255]
 [-0.05600331  0.08290698  0.15187934  0.04705736 -0.02143029  0.05903091
   0.02090671]
 [ 0.01121006  0.15187934  0.08215701 -0.15663626 -0.09942859  0.05793434
  -0.00689293]
 [-0.01337614  0.04705736 -0.15663626 -0.22416659 -0.05181262  0.07750796
  -0.01041263]
 [-0.03176271 -0.02143029 -0.09942859 -0.05181262  0.08961122  0.0904272
  -0.01134238]
 [ 0.01905388  0.05903091  0.05793434  0.07750796  0.0904272   0.0603948
  -0.00644803]
 [-0.01420255  0.02090671 -0.00689293 -0.01041263 -0.01134238 -0.00644803
  -0.01783992]]
[[ 0.00697758 -0.0037565   0.00399703 -0.03215684  0.00065069 -0.02381941
   0.00628216]
 [-0.0037565  -0.0196535   0.03689647 -0.0875896   0.02453448 -0.0224731
   0.00588562]
 [ 0.00399703  0.03689647  0.18398941 -0.00240093  0.19427098  0.00137682
   0.0166662 ]
 [-0.03215684 -0.0875896  -0.00240093 -0.34006128 -0.00907664 -0.10872249
  -0.00861706]
 [ 0.00065069  0.02453448  0.19427098 -0.00907664  0.19049655 -0.00094445
   0.03377844]
 [-0.02381941 -0.0224731   0.00137682 -0.10872249 -0.00094445 -0.03846873
   0.00306364]
 [ 0.00628216  0.00588562  0.0166662  -0.00861706  0.03377844  0.00306364
  -0.00221985]]
[[-0.01745295  0.01226608  0.0039122  -0.05444634 -0.01506981 -0.0219938
  -0.01376573]
 [ 0.01226608  0.02698067  0.09022019 -0.11442842  0.10040743  0.04818193
   0.02755339]
 [ 0.0039122   0.09022019  0.27947789 -0.0873796   0.31072982  0.04411849
  -0.00672523]
 [-0.05444634 -0.11442842 -0.0873796  -0.70609915 -0.07475169 -0.163451
  -0.05711782]
 [-0.01506981  0.10040743  0.31072982 -0.07475169  0.34123576  0.05419377
  -0.00740569]
 [-0.0219938   0.04818193  0.04411849 -0.163451    0.05419377  0.00918571
  -0.00421768]
 [-0.01376573  0.02755339 -0.00672523 -0.05711782 -0.00740569 -0.00421768
  -0.02461171]]
[[ 0.00941227  0.01468401  0.00128398 -0.05307482  0.00411333  0.00384355
   0.0023509 ]
 [ 0.01468401  0.02255808  0.05895041 -0.13329614  0.09024476  0.05379418
   0.02295625]
 [ 0.00128398  0.05895041  0.19051199 -0.11910714  0.25382596  0.02991424
  -0.01141796]
 [-0.05307482 -0.13329614 -0.11910714 -0.62877041 -0.07064275 -0.15149585
  -0.06106602]
 [ 0.00411333  0.09024476  0.25382596 -0.07064275  0.32721031  0.07155075
   0.00533457]
 [ 0.00384355  0.05379418  0.02991424 -0.15149585  0.07155075  0.03302854
   0.01215408]
 [ 0.0023509   0.02295625 -0.01141796 -0.06106602  0.00533457  0.01215408
  -0.02087563]]
[[ 0.00618537  0.00754799 -0.01677357 -0.01649155 -0.01925337 -0.00174547
   0.00051054]
 [ 0.00754799 -0.0331236  -0.0099342   0.06608518  0.05316186  0.00370705
  -0.01931047]
 [-0.01677357 -0.0099342   0.17814964  0.01519217 -0.12651294 -0.07090421
   0.01387397]
 [-0.01649155  0.06608518  0.01519217 -0.26191813  0.02813188  0.1096103
   0.01311855]
 [-0.01925337  0.05316186 -0.12651294  0.02813188  0.19527769 -0.01127589
  -0.04508914]
 [-0.00174547  0.00370705 -0.07090421  0.1096103  -0.01127589 -0.05396779
  -0.00243503]
 [ 0.00051054 -0.01931047  0.01387397  0.01311855 -0.04508914 -0.00243503
   0.00081184]]
[[ -2.00618734e-03   2.57481052e-03   2.29086999e-02   2.64110360e-02
   -1.12402316e-02   4.05540700e-04  -7.88520510e-03]
 [  2.57481052e-03  -1.07867029e-02   9.17197967e-02   1.27685754e-01
    4.42789455e-02  -9.65677204e-03  -6.10904442e-02]
 [  2.29086999e-02   9.17197967e-02   3.40379834e-01  -9.86941197e-02
   -3.56012673e-01  -1.71382088e-01   4.57858945e-03]
 [  2.64110360e-02   1.27685754e-01  -9.86941197e-02  -6.48175001e-01
   -7.90519228e-02   2.06225880e-01   9.84156020e-02]
 [ -1.12402316e-02   4.42789455e-02  -3.56012673e-01  -7.90519228e-02
    4.01570737e-01   8.47094275e-02  -1.69173815e-02]
 [  4.05540700e-04  -9.65677204e-03  -1.71382088e-01   2.06225880e-01
    8.47094275e-02  -5.34750856e-02   2.35452534e-03]
 [ -7.88520510e-03  -6.10904442e-02   4.57858945e-03   9.84156020e-02
   -1.69173815e-02   2.35452534e-03  -2.99244979e-03]]
[[-0.00427609 -0.00624528  0.00215928  0.01689835 -0.00185351  0.01638648
   0.00354332]
 [-0.00624528 -0.05054979  0.05213058  0.11871733  0.07827931  0.01516162
  -0.04412157]
 [ 0.00215928  0.05213058  0.2773219  -0.04440127 -0.24740399 -0.12868566
  -0.01035347]
 [ 0.01689835  0.11871733 -0.04440127 -0.48778459 -0.04239739  0.17244953
   0.05903622]
 [-0.00185351  0.07827931 -0.24740399 -0.04239739  0.31601158  0.05334768
  -0.03001654]
 [ 0.01638648  0.01516162 -0.12868566  0.17244953  0.05334768 -0.07499608
  -0.01557557]
 [ 0.00354332 -0.04412157 -0.01035347  0.05903622 -0.03001654 -0.01557557
  -0.00138369]]
[[-0.00629001 -0.01509363 -0.00182168 -0.02072666 -0.01637469  0.0106991
  -0.01615912]
 [-0.01509363 -0.02450471 -0.02418924 -0.03386124 -0.03174028 -0.03080698
  -0.0222072 ]
 [-0.00182168 -0.02418924 -0.01994602 -0.0475168  -0.02461502 -0.03501333
  -0.05714414]
 [-0.02072666 -0.03386124 -0.0475168  -0.00235626  0.06300748  0.01283932
  -0.04031271]
 [-0.01637469 -0.03174028 -0.02461502  0.06300748  0.10677052  0.01121601
  -0.05129718]
 [ 0.0106991  -0.03080698 -0.03501333  0.01283932  0.01121601 -0.02968459
  -0.04320573]
 [-0.01615912 -0.0222072  -0.05714414 -0.04031271 -0.05129718 -0.04320573
  -0.05741629]]
[[ 0.02151929  0.0059172   0.02777327  0.00463501  0.01122251  0.03600172
   0.00483324]
 [ 0.0059172  -0.00089268  0.0239923   0.02038194  0.03090823  0.02036563
   0.01374741]
 [ 0.02777327  0.0239923   0.04617799  0.0253528   0.04798421  0.03689801
   0.0114126 ]
 [ 0.00463501  0.02038194  0.0253528   0.04631323  0.10333501  0.08521121
   0.03605146]
 [ 0.01122251  0.03090823  0.04798421  0.10333501  0.14747362  0.07899053
   0.02213643]
 [ 0.03600172  0.02036563  0.03689801  0.08521121  0.07899053  0.04530062
   0.01700428]
 [ 0.00483324  0.01374741  0.0114126   0.03605146  0.02213643  0.01700428
  -0.0043544 ]]
[[-0.00456741 -0.00840839  0.0013428  -0.01372204  0.00126053  0.01610076
  -0.00834478]
 [-0.00840839 -0.01254082  0.00888701  0.00836592  0.0335757   0.02532838
   0.00623064]
 [ 0.0013428   0.00888701  0.02798688  0.01022503  0.04861497  0.04285444
   0.01504915]
 [-0.01372204  0.00836592  0.01022503  0.01355182  0.06674752  0.07509561
   0.04077108]
 [ 0.00126053  0.0335757   0.04861497  0.06674752  0.10512388  0.06948561
   0.03103899]
 [ 0.01610076  0.02532838  0.04285444  0.07509561  0.06948561  0.02465666
   0.01128039]
 [-0.00834478  0.00623064  0.01504915  0.04077108  0.03103899  0.01128039
  -0.01065246]]
[[ 0.13881524  0.06106381  0.05111225  0.0026955   0.00633836  0.02555901
   0.0063402 ]
 [ 0.06106381  0.00557017 -0.04050771 -0.04834117 -0.03676914 -0.03309435
  -0.01361069]
 [ 0.05111225 -0.04050771 -0.08271832 -0.03157319 -0.02267089 -0.01768589
   0.00076462]
 [ 0.0026955  -0.04834117 -0.03157319 -0.01681614 -0.02350405 -0.01278626
   0.00769927]
 [ 0.00633836 -0.03676914 -0.02267089 -0.02350405 -0.02394175 -0.00237144
   0.00066497]
 [ 0.02555901 -0.03309435 -0.01768589 -0.01278626 -0.00237144  0.01106968
  -0.01708629]
 [ 0.0063402  -0.01361069  0.00076462  0.00769927  0.00066497 -0.01708629
  -0.00467705]]
[[ 0.11628142  0.0555827   0.06191969  0.02470892  0.02553384  0.03386847
   0.00670228]
 [ 0.0555827  -0.00293104 -0.02823033 -0.01303715 -0.00625566 -0.00822987
  -0.00136293]
 [ 0.06191969 -0.02823033 -0.07417228 -0.00823154  0.00397403  0.0008313
   0.00734412]
 [ 0.02470892 -0.01303715 -0.00823154 -0.00113659  0.00035337  0.00261532
   0.00572238]
 [ 0.02553384 -0.00625566  0.00397403  0.00035337 -0.01618763  0.00504705
  -0.00024596]
 [ 0.03386847 -0.00822987  0.0008313   0.00261532  0.00504705  0.0247903
  -0.03903964]
 [ 0.00670228 -0.00136293  0.00734412  0.00572238 -0.00024596 -0.03903964
  -0.05909178]]
[[ 0.13076392  0.06704391  0.06983759  0.03488486  0.04359192  0.04777592
   0.00649864]
 [ 0.06704391  0.011999   -0.0210468  -0.00816461 -0.00114712  0.00826634
   0.01164501]
 [ 0.06983759 -0.0210468  -0.08104084 -0.01010068  0.00911219  0.00674082
   0.01045097]
 [ 0.03488486 -0.00816461 -0.01010068  0.00236008  0.00042361  0.00696298
  -0.00670836]
 [ 0.04359192 -0.00114712  0.00911219  0.00042361 -0.02501998  0.0034686
  -0.01958168]
 [ 0.04777592  0.00826634  0.00674082  0.00696298  0.0034686   0.00703807
  -0.07240043]
 [ 0.00649864  0.01164501  0.01045097 -0.00670836 -0.01958168 -0.07240043
  -0.11353771]]
[[-0.01322628 -0.02112054  0.0275476   0.0087068  -0.02367395 -0.01524011
  -0.006744  ]
 [-0.02112054 -0.13498574 -0.06878515  0.00371324  0.00957684 -0.07351939
  -0.01463322]
 [ 0.0275476  -0.06878515  0.07140592  0.11735256  0.09447805 -0.10597644
   0.01719438]
 [ 0.0087068   0.00371324  0.11735256  0.1492133   0.09316729 -0.0786123
  -0.00790082]
 [-0.02367395  0.00957684  0.09447805  0.09316729  0.06842668 -0.01646034
  -0.02252499]
 [-0.01524011 -0.07351939 -0.10597644 -0.0786123  -0.01646034  0.00181015
   0.00299187]
 [-0.006744   -0.01463322  0.01719438 -0.00790082 -0.02252499  0.00299187
   0.00935531]]
[[-0.0540001  -0.06720899  0.00362037  0.00289155 -0.03595062 -0.0245819
  -0.01126156]
 [-0.06720899 -0.22779033 -0.11243918  0.0294361   0.02332641 -0.12153512
  -0.04337374]
 [ 0.00362037 -0.11243918  0.11770856  0.2294356   0.16886068 -0.16909739
  -0.0163986 ]
 [ 0.00289155  0.0294361   0.2294356   0.31170428  0.2137833  -0.10721062
  -0.04190887]
 [-0.03595062  0.02332641  0.16886068  0.2137833   0.14487648 -0.01257275
  -0.05311884]
 [-0.0245819  -0.12153512 -0.16909739 -0.10721062 -0.01257275  0.0132919
  -0.00322343]
 [-0.01126156 -0.04337374 -0.0163986  -0.04190887 -0.05311884 -0.00322343
   0.00513703]]
[[-0.02384558 -0.02099854  0.04114958  0.0296885  -0.02149861 -0.02893121
  -0.02980011]
 [-0.02099854 -0.16631322 -0.0543592   0.04979338  0.01680489 -0.12681734
  -0.05378199]
 [ 0.04114958 -0.0543592   0.12784997  0.19491     0.14696917 -0.15754123
  -0.03628295]
 [ 0.0296885   0.04979338  0.19491     0.2689504   0.17575397 -0.10396695
  -0.05257798]
 [-0.02149861  0.01680489  0.14696917  0.17575397  0.09839361 -0.03031063
  -0.0621141 ]
 [-0.02893121 -0.12681734 -0.15754123 -0.10396695 -0.03031063 -0.00471117
  -0.01647469]
 [-0.02980011 -0.05378199 -0.03628295 -0.05257798 -0.0621141  -0.01647469
  -0.01460263]]
[[-0.04414761 -0.01193911  0.00649519 -0.0244764  -0.02808855 -0.07990548
  -0.01304761]
 [-0.01193911  0.02087152  0.04151066  0.02289234 -0.00699956 -0.08281679
  -0.11330137]
 [ 0.00649519  0.04151066  0.08125895  0.05376123  0.05312674  0.02344615
  -0.06467107]
 [-0.0244764   0.02289234  0.05376123  0.05711221  0.04844219  0.05807114
   0.00811682]
 [-0.02808855 -0.00699956  0.05312674  0.04844219  0.05469421  0.0414958
   0.00974292]
 [-0.07990548 -0.08281679  0.02344615  0.05807114  0.0414958   0.01469521
  -0.01430719]
 [-0.01304761 -0.11330137 -0.06467107  0.00811682  0.00974292 -0.01430719
  -0.0359118 ]]
[[-0.06902799 -0.01872877  0.0080959  -0.03176759 -0.05627988 -0.11956667
  -0.04982834]
 [-0.01872877  0.03266022  0.0630174   0.04366355  0.00032131 -0.0959612
  -0.15313045]
 [ 0.0080959   0.0630174   0.10895303  0.09088182  0.09022369  0.03215843
  -0.09447461]
 [-0.03176759  0.04366355  0.09088182  0.08578419  0.08290762  0.0754836
  -0.01277351]
 [-0.05627988  0.00032131  0.09022369  0.08290762  0.08845457  0.06156199
   0.01416284]
 [-0.11956667 -0.0959612   0.03215843  0.0754836   0.06156199  0.03022607
  -0.02071076]
 [-0.04982834 -0.15313045 -0.09447461 -0.01277351  0.01416284 -0.02071076
  -0.07585908]]
[[-0.03812411 -0.00988939  0.01387126 -0.00804023 -0.03202316 -0.10152507
  -0.03997083]
 [-0.00988939  0.024788    0.04204943  0.03247002  0.0115178  -0.08435337
  -0.1404596 ]
 [ 0.01387126  0.04204943  0.06749368  0.05378901  0.06413454  0.03234467
  -0.09076027]
 [-0.00804023  0.03247002  0.05378901  0.05096292  0.05710247  0.05916739
  -0.01300481]
 [-0.03202316  0.0115178   0.06413454  0.05710247  0.07119267  0.05301111
   0.00177206]
 [-0.10152507 -0.08435337  0.03234467  0.05916739  0.05301111  0.04257419
  -0.00467582]
 [-0.03997083 -0.1404596  -0.09076027 -0.01300481  0.00177206 -0.00467582
  -0.04719132]]
[[-0.07379291 -0.02378297 -0.0291567   0.01268827  0.04403608  0.00182679
  -0.01832718]
 [-0.02378297  0.03902536  0.04296575  0.05962862  0.08348441  0.02756659
  -0.00939329]
 [-0.0291567   0.04296575  0.08839894  0.10147286  0.12225707  0.07984934
  -0.00395688]
 [ 0.01268827  0.05962862  0.10147286  0.06854036  0.07974509  0.06523199
   0.00026045]
 [ 0.04403608  0.08348441  0.12225707  0.07974509  0.06101821  0.02803516
  -0.03108666]
 [ 0.00182679  0.02756659  0.07984934  0.06523199  0.02803516  0.00782741
  -0.05034573]
 [-0.01832718 -0.00939329 -0.00395688  0.00026045 -0.03108666 -0.05034573
  -0.09973621]]
[[ 0.09748679  0.05821192 -0.03575438 -0.03443405 -0.03660071 -0.05849826
  -0.03267563]
 [ 0.05821192  0.0078655  -0.07343044 -0.07014862 -0.03285487 -0.0713718
  -0.058572  ]
 [-0.03575438 -0.07343044 -0.11766103 -0.10571682 -0.03472036 -0.0293233
  -0.03653293]
 [-0.03443405 -0.07014862 -0.10571682 -0.13467589 -0.09093175 -0.02605588
  -0.0033459 ]
 [-0.03660071 -0.03285487 -0.03472036 -0.09093175 -0.08688348 -0.01764387
   0.01734835]
 [-0.05849826 -0.0713718  -0.0293233  -0.02605588 -0.01764387  0.05205768
   0.09583128]
 [-0.03267563 -0.058572   -0.03653293 -0.0033459   0.01734835  0.09583128
   0.15589149]]
[[ 0.00672894  0.01011934 -0.02499976  0.02001405  0.0478778   0.02779078
   0.01449113]
 [ 0.01011934  0.01731362 -0.02288782  0.01145548  0.05904722  0.03998619
   0.0272394 ]
 [-0.02499976 -0.02288782 -0.03594462 -0.03013436  0.0283888   0.04715509
   0.02402253]
 [ 0.02001405  0.01145548 -0.03013436 -0.06373971 -0.04138238 -0.00619751
   0.00085795]
 [ 0.0478778   0.05904722  0.0283888  -0.04138238 -0.07187547 -0.0303248
  -0.02552025]
 [ 0.02779078  0.03998619  0.04715509 -0.00619751 -0.0303248  -0.02063977
  -0.00687722]
 [ 0.01449113  0.0272394   0.02402253  0.00085795 -0.02552025 -0.00687722
   0.00187367]]
[[ 0.07138696  0.05020747 -0.00861967 -0.0584239  -0.05974976 -0.02068782
   0.02138263]
 [ 0.05020747 -0.01488703 -0.04999435 -0.10138719 -0.14148409 -0.08962503
  -0.01195344]
 [-0.00861967 -0.04999435 -0.02077783 -0.01545582 -0.07624596 -0.07885958
  -0.0062257 ]
 [-0.0584239  -0.10138719 -0.01545582  0.06669366  0.06656349  0.05829492
   0.06197717]
 [-0.05974976 -0.14148409 -0.07624596  0.06656349  0.09499399  0.09569717
   0.08001415]
 [-0.02068782 -0.08962503 -0.07885958  0.05829492  0.09569717  0.05127545
   0.07560246]
 [ 0.02138263 -0.01195344 -0.0062257   0.06197717  0.08001415  0.07560246
   0.1221183 ]]
[[ 0.02757557  0.0207883  -0.02980077 -0.06644791 -0.04218456 -0.00497766
   0.01355764]
 [ 0.0207883   0.00258029 -0.0257287  -0.0846005  -0.10998386 -0.04844473
   0.01293103]
 [-0.02980077 -0.0257287   0.04110144  0.01855475 -0.03412506 -0.03977521
   0.01494214]
 [-0.06644791 -0.0846005   0.01855475  0.06589355  0.07094823  0.06922844
   0.05808263]
 [-0.04218456 -0.10998386 -0.03412506  0.07094823  0.06284527  0.06797751
   0.04585408]
 [-0.00497766 -0.04844473 -0.03977521  0.06922844  0.06797751  0.01428347
   0.02745276]
 [ 0.01355764  0.01293103  0.01494214  0.05808263  0.04585408  0.02745276
   0.0509955 ]]
[[-0.04089641 -0.00482725 -0.00736217 -0.00649208  0.02627529  0.03029847
   0.00494892]
 [-0.00482725  0.0353805   0.04430284  0.02283921  0.02748783  0.05288218
   0.03714529]
 [-0.00736217  0.04430284  0.08441275  0.05584915  0.03105986  0.01344724
   0.01460781]
 [-0.00649208  0.02283921  0.05584915 -0.00133273 -0.01159772  0.00327453
  -0.00739498]
 [ 0.02627529  0.02748783  0.03105986 -0.01159772 -0.06060547 -0.05821456
  -0.05989304]
 [ 0.03029847  0.05288218  0.01344724  0.00327453 -0.05821456 -0.11626891
  -0.1024954 ]
 [ 0.00494892  0.03714529  0.01460781 -0.00739498 -0.05989304 -0.1024954
  -0.11889009]]
[[ 0.02130671 -0.00201396 -0.02053176 -0.01841727 -0.02617002 -0.0253158
   0.051575  ]
 [-0.00201396 -0.02788464  0.02901164  0.03066484 -0.13451763  0.09625399
   0.00463566]
 [-0.02053176  0.02901164  0.10198427 -0.25405155  0.13029413  0.04869455
  -0.03553647]
 [-0.01841727  0.03066484 -0.25405155  0.09459038  0.33432172 -0.15839904
  -0.02269534]
 [-0.02617002 -0.13451763  0.13029413  0.33432172 -0.28065309  0.05139968
  -0.03481625]
 [-0.0253158   0.09625399  0.04869455 -0.15839904  0.05139968 -0.03020156
   0.01692756]
 [ 0.051575    0.00463566 -0.03553647 -0.02269534 -0.03481625  0.01692756
   0.00644253]]
[[ 0.00873777 -0.00706828  0.00191909  0.02781331 -0.0207254  -0.0272866
   0.03992586]
 [-0.00706828 -0.02243691  0.08558253  0.041974   -0.20024104  0.13105566
  -0.00552293]
 [ 0.00191909  0.08558253  0.12176928 -0.43838371  0.1677653   0.08514753
  -0.03541491]
 [ 0.02781331  0.041974   -0.43838371  0.1329135   0.49161144 -0.24995486
  -0.05117099]
 [-0.0207254  -0.20024104  0.1677653   0.49161144 -0.4423039   0.03639614
  -0.02793099]
 [-0.0272866   0.13105566  0.08514753 -0.24995486  0.03639614 -0.00310253
   0.0439476 ]
 [ 0.03992586 -0.00552293 -0.03541491 -0.05117099 -0.02793099  0.0439476
   0.02775667]]
[[ -4.51638782e-03  -2.28582414e-02   2.48728300e-04   6.08687382e-02
    1.25585310e-03  -5.88691570e-02   6.08979630e-03]
 [ -2.28582414e-02  -4.96769883e-02   6.82381708e-02   9.47125219e-02
   -1.83273595e-01   8.73423523e-02  -1.27290929e-02]
 [  2.48728300e-04   6.82381708e-02   1.64760724e-01  -3.65975067e-01
    9.99315230e-02   6.86807521e-02  -1.89905240e-03]
 [  6.08687382e-02   9.47125219e-02  -3.65975067e-01  -3.91137408e-04
    3.51983070e-01  -1.78761931e-01   3.05621826e-02]
 [  1.25585310e-03  -1.83273595e-01   9.99315230e-02   3.51983070e-01
   -3.72590959e-01   7.86853064e-02   9.83377265e-03]
 [ -5.88691570e-02   8.73423523e-02   6.86807521e-02  -1.78761931e-01
    7.86853064e-02  -8.10026284e-03   6.64866134e-03]
 [  6.08979630e-03  -1.27290929e-02  -1.89905240e-03   3.05621826e-02
    9.83377265e-03   6.64866134e-03  -1.26554733e-02]]
[[  7.25715980e-03   9.32066771e-03   4.21017642e-03   4.44216793e-02
    2.66464853e-02  -2.70092694e-03  -4.46969827e-03]
 [  9.32066771e-03  -5.85065559e-02  -7.94233531e-02   3.66235292e-02
    1.08821270e-02  -2.32473575e-03  -2.56030800e-04]
 [  4.21017642e-03  -7.94233531e-02   5.21144345e-02   1.92873872e-01
    1.04188019e-01   3.43919760e-02   3.11819745e-03]
 [  4.44216793e-02   3.66235292e-02   1.92873872e-01   2.34936118e-01
   -2.69389860e-02  -8.35390779e-02  -8.07965284e-02]
 [  2.66464853e-02   1.08821270e-02   1.04188019e-01  -2.69389860e-02
   -2.32996807e-01  -1.24326721e-01  -5.14223744e-02]
 [ -2.70092694e-03  -2.32473575e-03   3.43919760e-02  -8.35390779e-02
   -1.24326721e-01  -2.19538738e-03   5.31531685e-03]
 [ -4.46969827e-03  -2.56030800e-04   3.11819745e-03  -8.07965284e-02
   -5.14223744e-02   5.31531685e-03  -8.44262322e-05]]
[[ 0.03284284  0.00622895 -0.03821786  0.01629896  0.03053771 -0.02076585
  -0.00287092]
 [ 0.00622895 -0.13668044 -0.19657972  0.0236414   0.03967682 -0.00624725
   0.01292398]
 [-0.03821786 -0.19657972  0.03454523  0.34009317  0.1945065   0.04420973
   0.02020479]
 [ 0.01629896  0.0236414   0.34009317  0.40857425 -0.03963073 -0.14020117
  -0.08703067]
 [ 0.03053771  0.03967682  0.1945065  -0.03963073 -0.3668069  -0.18791371
  -0.04825452]
 [-0.02076585 -0.00624725  0.04420973 -0.14020117 -0.18791371  0.00941693
   0.0358069 ]
 [-0.00287092  0.01292398  0.02020479 -0.08703067 -0.04825452  0.0358069
   0.01505492]]
[[ 0.02985457  0.02237912 -0.04828687 -0.02417272 -0.01774226 -0.04293018
  -0.00524392]
 [ 0.02237912 -0.12374066 -0.21055447 -0.04511522 -0.0075946  -0.01472552
   0.01291285]
 [-0.04828687 -0.21055447 -0.06882147  0.1997483   0.13846922  0.04749858
   0.05792299]
 [-0.02417272 -0.04511522  0.1997483   0.29867586 -0.00087044 -0.05486293
  -0.01077796]
 [-0.01774226 -0.0075946   0.13846922 -0.00087044 -0.22554716 -0.06988152
   0.01144991]
 [-0.04293018 -0.01472552  0.04749858 -0.05486293 -0.06988152  0.0849338
   0.05547776]
 [-0.00524392  0.01291285  0.05792299 -0.01077796  0.01144991  0.05547776
   0.00124092]]
[[ 0.01360271 -0.00768655  0.03672441  0.01628399 -0.00481045  0.01603673
   0.0068501 ]
 [-0.00768655 -0.01217335  0.05135633 -0.00898278 -0.07265323 -0.01635254
  -0.00162469]
 [ 0.03672441  0.05135633  0.0860753   0.046379   -0.04185941 -0.04987781
  -0.01052405]
 [ 0.01628399 -0.00898278  0.046379    0.08558227  0.04101767  0.00018211
  -0.00141416]
 [-0.00481045 -0.07265323 -0.04185941  0.04101767  0.05709397  0.02362212
   0.01482386]
 [ 0.01603673 -0.01635254 -0.04987781  0.00018211  0.02362212  0.00959712
  -0.00662665]
 [ 0.0068501  -0.00162469 -0.01052405 -0.00141416  0.01482386 -0.00662665
   0.00484716]]
[[-0.02927035 -0.02689981  0.03388536  0.04423129  0.03668002  0.02775644
   0.00748403]
 [-0.02689981 -0.00598602  0.06426108  0.03141244 -0.01085865  0.03554101
   0.01828498]
 [ 0.03388536  0.06426108  0.12180888  0.09225548  0.0201308   0.0106545
   0.0291837 ]
 [ 0.04423129  0.03141244  0.09225548  0.13547638  0.0837565   0.04914784
   0.03028089]
 [ 0.03668002 -0.01085865  0.0201308   0.0837565   0.06802043  0.02698935
   0.01054788]
 [ 0.02775644  0.03554101  0.0106545   0.04914784  0.02698935 -0.01354487
  -0.05286147]
 [ 0.00748403  0.01828498  0.0291837   0.03028089  0.01054788 -0.05286147
  -0.08287094]]
[[ 0.01587511 -0.06001191 -0.02768846  0.01341318  0.03860943  0.05400713
   0.0538616 ]
 [-0.06001191 -0.1324129  -0.09195444 -0.0817775  -0.07415808  0.03453327
   0.0643175 ]
 [-0.02768846 -0.09195444 -0.10175576 -0.10522424 -0.12079787 -0.04843392
   0.05175137]
 [ 0.01341318 -0.0817775  -0.10522424 -0.09323521 -0.10881687 -0.05692808
   0.02085039]
 [ 0.03860943 -0.07415808 -0.12079787 -0.10881687 -0.12792306 -0.09703394
  -0.00906823]
 [ 0.05400713  0.03453327 -0.04843392 -0.05692808 -0.09703394 -0.08669046
  -0.0305403 ]
 [ 0.0538616   0.0643175   0.05175137  0.02085039 -0.00906823 -0.0305403
  -0.00617965]]
[[ 0.05710959  0.04640666  0.0292223   0.0274363   0.03669267  0.01228557
   0.03167187]
 [ 0.04640666  0.02411831 -0.00032192 -0.04711611  0.00185097 -0.01955254
   0.02139171]
 [ 0.0292223  -0.00032192 -0.09117077 -0.13473393 -0.05140715 -0.04403347
   0.03989256]
 [ 0.0274363  -0.04711611 -0.13473393 -0.06990258 -0.08036055 -0.02968946
   0.04983814]
 [ 0.03669267  0.00185097 -0.05140715 -0.08036055 -0.25300935 -0.00292288
   0.05950107]
 [ 0.01228557 -0.01955254 -0.04403347 -0.02968946 -0.00292288  0.15222178
   0.10747364]
 [ 0.03167187  0.02139171  0.03989256  0.04983814  0.05950107  0.10747364
   0.06264064]]
[[-0.00340033 -0.01199591  0.01422404  0.01492446  0.03545235 -0.0107041
   0.0015826 ]
 [-0.01199591  0.01422107  0.05372461  0.04756246  0.07766931 -0.02620746
   0.00930077]
 [ 0.01422404  0.05372461  0.05202432  0.06620244  0.06038538 -0.0473581
   0.04077661]
 [ 0.01492446  0.04756246  0.06620244  0.15875259 -0.03351712 -0.10262043
